{"learner":{"attributes":{"scikit_learn":"{\"_estimator_type\": \"regressor\"}"},"feature_names":[],"feature_types":[],"gradient_booster":{"model":{"gbtree_model_param":{"num_parallel_tree":"1","num_trees":"100"},"iteration_indptr":[0,1,2,3,4,5,6,7,8,9,10,11,12,13,14,15,16,17,18,19,20,21,22,23,24,25,26,27,28,29,30,31,32,33,34,35,36,37,38,39,40,41,42,43,44,45,46,47,48,49,50,51,52,53,54,55,56,57,58,59,60,61,62,63,64,65,66,67,68,69,70,71,72,73,74,75,76,77,78,79,80,81,82,83,84,85,86,87,88,89,90,91,92,93,94,95,96,97,98,99,100],"tree_info":[0,0,0,0,0,0,0,0,0,0,0,0,0,0,0,0,0,0,0,0,0,0,0,0,0,0,0,0,0,0,0,0,0,0,0,0,0,0,0,0,0,0,0,0,0,0,0,0,0,0,0,0,0,0,0,0,0,0,0,0,0,0,0,0,0,0,0,0,0,0,0,0,0,0,0,0,0,0,0,0,0,0,0,0,0,0,0,0,0,0,0,0,0,0,0,0,0,0,0,0],"trees":[{"base_weights":[6.534351E-9,-1.2848414E-1,1.519906E-1,-2.1315277E-1,-7.722692E-2,8.4384814E-2,3.358112E-1,-7.4313655E-2,-1.8607163E-1,-1.0275231E-1,-2.2841085E-2,4.771103E-2,1.3486059E-1,8.093189E-2,1.06710516E-1,-5.6030046E-2,-1.508473E-2,-1.1951796E-1,-8.4418766E-2,-3.3540614E-2,6.2118267E-4,2.8910669E-2,6.09437E-2,3.2463625E-2,4.5109008E-2,-3.8693108E-2,-1.06910914E-1,-2.7754813E-2,-2.1887636E-2,-4.890714E-2,-2.5520794E-2,4.136664E-3,-1.2639519E-2,1.9311668E-2,3.44191E-2,5.1024877E-2,7.066684E-2,-3.235032E-2,-8.002393E-3,-1.5531139E-2,-2.909446E-3,-8.10035E-3,2.5937825E-3,6.620732E-3,6.202778E-4,-5.6136893E-3,1.1157632E-3,3.7140774E-3,8.866872E-3,3.0904561E-3,1.0544578E-2,1.5746826E-2,9.543012E-3,1.3610042E-2,2.2142254E-2],"categories":[],"categories_nodes":[],"categories_segments":[],"categories_sizes":[],"default_left":[0,0,0,0,0,0,0,0,0,0,0,0,0,0,0,0,0,0,0,0,0,0,0,0,0,0,0,0,0,0,0,0,0,0,0,0,0,0,0,0,0,0,0,0,0,0,0,0,0,0,0,0,0,0,0],"id":0,"left_children":[1,3,5,7,9,11,13,-1,15,17,19,21,23,-1,-1,-1,-1,25,27,29,31,33,35,-1,-1,-1,37,-1,-1,39,41,43,45,47,49,51,53,-1,-1,-1,-1,-1,-1,-1,-1,-1,-1,-1,-1,-1,-1,-1,-1,-1,-1],"loss_changes":[2.0504803E1,2.4529285E0,5.949213E0,1.5419388E-1,4.9185944E-1,6.4701724E-1,7.348633E-2,0E0,2.3140907E-3,6.4294815E-2,2.8889887E-2,4.9486548E-2,4.487133E-2,0E0,0E0,0E0,0E0,9.980202E-4,4.292667E-3,8.487552E-3,1.7771419E-3,3.935471E-3,7.967263E-3,0E0,0E0,0E0,1.4952421E-3,0E0,0E0,2.4168864E-3,2.9647462E-3,1.067475E-3,8.643387E-4,2.048404E-3,5.8797E-4,1.0320544E-4,1.260221E-3,0E0,0E0,0E0,0E0,0E0,0E0,0E0,0E0,0E0,0E0,0E0,0E0,0E0,0E0,0E0,0E0,0E0,0E0],"parents":[2147483647,0,0,1,1,2,2,3,3,4,4,5,5,6,6,8,8,9,9,10,10,11,11,12,12,17,17,18,18,19,19,20,20,21,21,22,22,26,26,29,29,30,30,31,31,32,32,33,33,34,34,35,35,36,36],"right_children":[2,4,6,8,10,12,14,-1,16,18,20,22,24,-1,-1,-1,-1,26,28,30,32,34,36,-1,-1,-1,38,-1,-1,40,42,44,46,48,50,52,54,-1,-1,-1,-1,-1,-1,-1,-1,-1,-1,-1,-1,-1,-1,-1,-1,-1,-1],"split_conditions":[4.8004693E-1,3.1621787E-1,6.56374E-1,2.5041696E-1,4.1041836E-1,5.6221956E-1,7.863039E-1,-7.4313655E-2,3.9685357E-1,3.702087E-1,4.6417838E-1,5.138633E-1,5.991438E-1,8.093189E-2,1.06710516E-1,-5.6030046E-2,-1.508473E-2,3.5070002E-1,3.880744E-1,4.2552164E-1,4.8670802E-1,4.9702027E-1,5.329029E-1,3.2463625E-2,4.5109008E-2,-3.8693108E-2,5.043911E-1,-2.7754813E-2,-2.1887636E-2,5.176591E-1,5.203784E-1,3.1703764E-1,5.167684E-1,5.0280833E-1,3.3217812E-1,5.388842E-1,4.9955943E-1,-3.235032E-2,-8.002393E-3,-1.5531139E-2,-2.909446E-3,-8.10035E-3,2.5937825E-3,6.620732E-3,6.202778E-4,-5.6136893E-3,1.1157632E-3,3.7140774E-3,8.866872E-3,3.0904561E-3,1.0544578E-2,1.5746826E-2,9.543012E-3,1.3610042E-2,2.2142254E-2],"split_indices":[89,89,89,89,89,89,89,0,81,89,89,89,89,0,0,0,0,89,89,89,69,89,89,0,0,0,37,0,0,31,57,0,32,60,43,88,79,0,0,0,0,0,0,0,0,0,0,0,0,0,0,0,0,0,0],"split_type":[0,0,0,0,0,0,0,0,0,0,0,0,0,0,0,0,0,0,0,0,0,0,0,0,0,0,0,0,0,0,0,0,0,0,0,0,0,0,0,0,0,0,0,0,0,0,0,0,0,0,0,0,0,0,0],"sum_hessian":[1.048E3,5.68E2,4.8E2,2.13E2,3.55E2,3.52E2,1.28E2,9E1,1.23E2,2.41E2,1.14E2,2.05E2,1.47E2,3.3E1,9.5E1,1.22E2,1E0,1.23E2,1.18E2,7.8E1,3.6E1,8.6E1,1.19E2,5.7E1,9E1,6.5E1,5.8E1,6.5E1,5.3E1,2.5E1,5.3E1,2.9E1,7E0,3.3E1,5.3E1,6.2E1,5.7E1,5.7E1,1E0,2.3E1,2E0,5.1E1,2E0,2E0,2.7E1,5E0,2E0,2.1E1,1.2E1,2E0,5.1E1,5.6E1,6E0,8E0,4.9E1],"tree_param":{"num_deleted":"0","num_feature":"90","num_nodes":"55","size_leaf_vector":"1"}},{"base_weights":[5.448559E-5,-8.8914976E-2,1.0900427E-1,-1.4988652E-1,-5.2923676E-2,6.181264E-2,2.3951371E-1,-1.6948387E-1,-3.7066262E-2,-7.2458394E-2,-1.4372674E-2,3.7137695E-2,1.0000345E-1,6.3159786E-2,7.821319E-2,-5.761399E-2,-4.7005784E-2,-2.6160672E-2,-6.1818816E-2,-2.3781547E-2,2.0984923E-3,2.580671E-2,5.0940324E-2,8.7657265E-2,3.5138424E-2,-2.0331161E-2,-5.182539E-2,-3.3255413E-2,-1.6262135E-2,-1.0900685E-3,1.1223587E-2,1.9711332E-2,3.1877514E-2,7.833036E-3,5.2618746E-2,2.643577E-2,7.466367E-3,-1.3156787E-2,-1.798415E-2,-1.0489988E-2,-1.175198E-3,-5.2946964E-3,2.849725E-3,4.2252452E-4,-4.0202425E-3,6.180054E-3,2.186475E-3,6.2274816E-4,6.2675355E-3,2.6288899E-3,9.763966E-3,1.309744E-2,1.71604E-2],"categories":[],"categories_nodes":[],"categories_segments":[],"categories_sizes":[],"default_left":[0,0,0,0,0,0,0,0,0,0,0,0,0,0,0,0,0,0,0,0,0,0,0,0,0,0,0,0,0,0,0,0,0,0,0,0,0,0,0,0,0,0,0,0,0,0,0,0,0,0,0,0,0],"id":1,"left_children":[1,3,5,7,9,11,13,15,-1,17,19,21,23,-1,-1,-1,-1,-1,25,27,29,31,33,35,-1,-1,37,39,41,43,45,47,49,-1,51,-1,-1,-1,-1,-1,-1,-1,-1,-1,-1,-1,-1,-1,-1,-1,-1,-1,-1],"loss_changes":[1.0177863E1,1.2604561E0,2.8922215E0,8.9493275E-2,2.7383375E-1,3.2422602E-1,2.1900177E-2,4.5597553E-3,0E0,3.2571316E-2,1.926682E-2,3.199804E-2,1.8486619E-2,0E0,0E0,0E0,0E0,0E0,5.0525665E-3,5.0869957E-3,1.3506467E-3,3.7751123E-3,2.5853068E-3,2.1368265E-4,0E0,0E0,1.1250675E-3,1.5699491E-3,1.8110918E-3,1.0954102E-3,2.9266137E-4,1.247339E-3,6.1173737E-4,0E0,1.1162162E-3,0E0,0E0,0E0,0E0,0E0,0E0,0E0,0E0,0E0,0E0,0E0,0E0,0E0,0E0,0E0,0E0,0E0,0E0],"parents":[2147483647,0,0,1,1,2,2,3,3,4,4,5,5,6,6,7,7,9,9,10,10,11,11,12,12,18,18,19,19,20,20,21,21,22,22,23,23,26,26,27,27,28,28,29,29,30,30,31,31,32,32,34,34],"right_children":[2,4,6,8,10,12,14,16,-1,18,20,22,24,-1,-1,-1,-1,-1,26,28,30,32,34,36,-1,-1,38,40,42,44,46,48,50,-1,52,-1,-1,-1,-1,-1,-1,-1,-1,-1,-1,-1,-1,-1,-1,-1,-1,-1,-1],"split_conditions":[4.8542777E-1,3.1621787E-1,7.1192724E-1,2.6606926E-1,4.1041836E-1,5.7213384E-1,8.138632E-1,1.5372543E-1,-3.7066262E-2,3.622398E-1,4.6417838E-1,5.2285284E-1,6.203677E-1,6.3159786E-2,7.821319E-2,-5.761399E-2,-4.7005784E-2,-2.6160672E-2,3.870388E-1,4.3161786E-1,4.9563888E-1,5.076565E-1,3.7472168E-1,6.377427E-1,3.5138424E-2,-2.0331161E-2,3.702087E-1,5.3314865E-1,5.22744E-1,4.8670802E-1,3.4446403E-1,3.3304483E-1,3.3522195E-1,7.833036E-3,5.408019E-1,2.643577E-2,7.466367E-3,-1.3156787E-2,-1.798415E-2,-1.0489988E-2,-1.175198E-3,-5.2946964E-3,2.849725E-3,4.2252452E-4,-4.0202425E-3,6.180054E-3,2.186475E-3,6.2274816E-4,6.2675355E-3,2.6288899E-3,9.763966E-3,1.309744E-2,1.71604E-2],"split_indices":[89,89,89,89,89,89,89,5,0,89,89,89,89,0,0,0,0,0,89,89,85,89,11,85,0,0,49,10,66,69,18,23,17,0,89,0,0,0,0,0,0,0,0,0,0,0,0,0,0,0,0,0,0],"split_type":[0,0,0,0,0,0,0,0,0,0,0,0,0,0,0,0,0,0,0,0,0,0,0,0,0,0,0,0,0,0,0,0,0,0,0,0,0,0,0,0,0,0,0,0,0,0,0,0,0,0,0,0,0],"sum_hessian":[1.048E3,5.77E2,4.71E2,2.13E2,3.64E2,3.47E2,1.24E2,1.19E2,9.4E1,2.41E2,1.23E2,2.12E2,1.35E2,5.7E1,6.7E1,3.8E1,8.1E1,9.8E1,1.43E2,7.8E1,4.5E1,1.18E2,9.4E1,8.2E1,5.3E1,8.6E1,5.7E1,3.3E1,4.5E1,3.4E1,1.1E1,6.1E1,5.7E1,7E0,8.7E1,8.1E1,1E0,3.2E1,2.5E1,3.1E1,2E0,4.3E1,2E0,2.9E1,5E0,2E0,9E0,4E0,5.7E1,2E0,5.5E1,3.3E1,5.4E1],"tree_param":{"num_deleted":"0","num_feature":"90","num_nodes":"53","size_leaf_vector":"1"}},{"base_weights":[7.543975E-5,-6.472018E-2,7.441137E-2,-1.1001701E-1,-4.1594665E-2,4.1127574E-2,1.6697757E-1,-3.9100125E-2,-9.907235E-2,-5.4021325E-2,-1.4616574E-2,2.2195779E-2,6.586361E-2,3.514354E-2,1.7504641E-1,-3.1598162E-2,-2.5600208E-2,-6.7491725E-2,-4.6767205E-2,-2.4376439E-2,-6.4097675E-3,1.2237072E-2,2.8168764E-2,4.99143E-2,7.4542366E-2,4.8739932E-2,6.2170506E-2,-2.0354416E-2,-5.527179E-3,-4.727898E-2,-4.1509937E-3,-2.8136127E-2,-1.1624749E-2,-3.0586119E-3,-1.759979E-2,9.541591E-3,2.0246929E-2,2.252794E-2,3.238002E-2,5.0916217E-2,4.372132E-3,7.625557E-2,1.3656834E-2,-1.429197E-2,-3.5367282E-3,-6.8172915E-3,-1.1413301E-2,2.4552974E-3,-4.682487E-3,-3.6370596E-3,8.2166385E-5,-8.451059E-3,-1.4488221E-3,-1.4673114E-3,3.1117303E-3,7.3625473E-3,3.382117E-3,7.2099417E-3,3.498786E-3,9.9294195E-3,1.5214981E-3,1.5399887E-2,4.199365E-3,2.3004662E-2,5.6147487E-3],"categories":[],"categories_nodes":[],"categories_segments":[],"categories_sizes":[],"default_left":[0,0,0,0,0,0,0,0,0,0,0,0,0,0,0,0,0,0,0,0,0,0,0,0,0,0,0,0,0,0,0,0,0,0,0,0,0,0,0,0,0,0,0,0,0,0,0,0,0,0,0,0,0,0,0,0,0,0,0,0,0,0,0,0,0],"id":2,"left_children":[1,3,5,7,9,11,13,-1,15,17,19,21,23,-1,25,-1,-1,27,29,31,33,35,37,39,41,-1,-1,-1,-1,43,-1,45,47,49,51,53,55,57,59,61,-1,63,-1,-1,-1,-1,-1,-1,-1,-1,-1,-1,-1,-1,-1,-1,-1,-1,-1,-1,-1,-1,-1,-1,-1],"loss_changes":[5.0574746E0,5.830784E-1,1.4997191E0,2.9113531E-2,1.2425774E-1,1.675936E-1,3.1363964E-2,0E0,1.92523E-3,2.176112E-2,9.375334E-3,1.1908844E-2,1.787275E-2,0E0,1.0468483E-2,0E0,0E0,2.7105212E-4,2.1939874E-3,2.2618137E-3,2.4211365E-3,1.5124558E-3,2.3111776E-3,1.31163E-3,1.4505982E-3,0E0,0E0,0E0,0E0,1.5646517E-3,0E0,1.333952E-3,1.2324865E-3,1.5741802E-3,1.8887771E-3,7.8219874E-4,4.5556342E-4,6.682705E-4,1.2243465E-3,1.4302135E-4,0E0,8.2331896E-4,0E0,0E0,0E0,0E0,0E0,0E0,0E0,0E0,0E0,0E0,0E0,0E0,0E0,0E0,0E0,0E0,0E0,0E0,0E0,0E0,0E0,0E0,0E0],"parents":[2147483647,0,0,1,1,2,2,3,3,4,4,5,5,6,6,8,8,9,9,10,10,11,11,12,12,14,14,17,17,18,18,19,19,20,20,21,21,22,22,23,23,24,24,29,29,31,31,32,32,33,33,34,34,35,35,36,36,37,37,38,38,39,39,41,41],"right_children":[2,4,6,8,10,12,14,-1,16,18,20,22,24,-1,26,-1,-1,28,30,32,34,36,38,40,42,-1,-1,-1,-1,44,-1,46,48,50,52,54,56,58,60,62,-1,64,-1,-1,-1,-1,-1,-1,-1,-1,-1,-1,-1,-1,-1,-1,-1,-1,-1,-1,-1,-1,-1,-1,-1],"split_conditions":[4.7444624E-1,2.9956144E-1,6.533342E-1,2.3233923E-1,4.0483642E-1,5.5521137E-1,7.6267076E-1,-3.9100125E-2,2.7993783E-1,3.4899175E-1,4.3600532E-1,5.076565E-1,5.932056E-1,3.514354E-2,7.925751E-1,-3.1598162E-2,-2.5600208E-2,5.2395856E-1,5.0705105E-1,5.0524515E-1,5.069686E-1,5.1903176E-1,5.2285284E-1,6.400127E-1,6.1266994E-1,4.8739932E-2,6.2170506E-2,-2.0354416E-2,-5.527179E-3,5.281042E-1,-4.1509937E-3,3.702087E-1,3.3739924E-1,4.0483642E-1,4.8004693E-1,3.1703764E-1,5.161726E-1,5.990338E-1,6.392941E-1,6.375253E-1,4.372132E-3,6.324951E-1,1.3656834E-2,-1.429197E-2,-3.5367282E-3,-6.8172915E-3,-1.1413301E-2,2.4552974E-3,-4.682487E-3,-3.6370596E-3,8.2166385E-5,-8.451059E-3,-1.4488221E-3,-1.4673114E-3,3.1117303E-3,7.3625473E-3,3.382117E-3,7.2099417E-3,3.498786E-3,9.9294195E-3,1.5214981E-3,1.5399887E-2,4.199365E-3,2.3004662E-2,5.6147487E-3],"split_indices":[89,89,87,89,89,89,89,0,89,89,89,89,89,0,20,0,0,0,66,70,69,71,89,62,44,0,0,0,0,12,0,45,15,81,80,37,87,6,49,84,0,74,0,0,0,0,0,0,0,0,0,0,0,0,0,0,0,0,0,0,0,0,0,0,0],"split_type":[0,0,0,0,0,0,0,0,0,0,0,0,0,0,0,0,0,0,0,0,0,0,0,0,0,0,0,0,0,0,0,0,0,0,0,0,0,0,0,0,0,0,0,0,0,0,0,0,0,0,0,0,0,0,0,0,0,0,0,0,0,0,0,0,0],"sum_hessian":[1.048E3,5.6E2,4.88E2,1.88E2,3.72E2,3.6E2,1.28E2,6.2E1,1.26E2,2.54E2,1.18E2,2.05E2,1.55E2,2E1,1.08E2,8.2E1,4.4E1,8.6E1,1.68E2,5.3E1,6.5E1,7.8E1,1.27E2,5.7E1,9.8E1,8.2E1,2.6E1,8.5E1,1E0,1.65E2,3E0,4E1,1.3E1,5.1E1,1.4E1,6E1,1.8E1,5.7E1,7E1,5.5E1,2E0,9.1E1,7E0,1.63E2,2E0,2.8E1,1.2E1,2E0,1.1E1,1.3E1,3.8E1,7E0,7E0,3E0,5.7E1,1.1E1,7E0,4.9E1,8E0,6.8E1,2E0,5.4E1,1E0,9E1,1E0],"tree_param":{"num_deleted":"0","num_feature":"90","num_nodes":"65","size_leaf_vector":"1"}},{"base_weights":[1.183743E-4,-4.39274E-2,5.4682292E-2,-7.182039E-2,-2.3803728E-2,3.0484177E-2,1.1822395E-1,-8.322698E-2,-5.679154E-2,-3.313924E-2,-5.3316094E-3,1.813067E-2,4.8090782E-2,1.08391926E-1,4.37428E-2,-3.0070877E-2,-2.3041274E-2,-5.749296E-2,-9.253119E-3,-3.8670305E-2,-2.7110303E-2,-1.0051204E-2,1.2305226E-3,1.3298032E-2,2.4365786E-2,4.2545363E-2,6.00171E-2,1.1523481E-2,1.10178694E-1,-1.731934E-2,-4.9441564E-3,-3.9259676E-2,-3.7501196E-3,-2.576773E-2,-1.3893209E-2,-3.2792673E-3,-1.3071452E-2,1.9243708E-3,-4.8111277E-3,1.8676115E-2,1.1116895E-2,1.172927E-2,2.5673471E-2,4.4858042E-2,3.0446827E-2,1.8211475E-2,4.772535E-3,1.1864222E-2,1.1126077E-1,-1.1837372E-2,-2.588475E-3,-7.955325E-3,-3.411622E-3,-2.6735999E-3,1.754137E-3,-4.789556E-3,-7.238218E-4,4.7036335E-3,3.8943984E-4,2.5491342E-3,6.875011E-3,-1.7975182E-3,3.678324E-3,3.814325E-4,4.808869E-3,7.9174815E-3,1.7370388E-3,1.3634431E-2,4.3101134E-3,3.394884E-3,9.609545E-3,1.5764032E-2,3.378569E-2],"categories":[],"categories_nodes":[],"categories_segments":[],"categories_sizes":[],"default_left":[0,0,0,0,0,0,0,0,0,0,0,0,0,0,0,0,0,0,0,0,0,0,0,0,0,0,0,0,0,0,0,0,0,0,0,0,0,0,0,0,0,0,0,0,0,0,0,0,0,0,0,0,0,0,0,0,0,0,0,0,0,0,0,0,0,0,0,0,0,0,0,0,0],"id":3,"left_children":[1,3,5,7,9,11,13,15,17,19,21,23,25,27,-1,-1,-1,29,-1,31,33,35,37,39,41,43,45,-1,47,-1,-1,49,-1,51,-1,53,55,57,-1,59,61,63,65,67,69,-1,-1,-1,71,-1,-1,-1,-1,-1,-1,-1,-1,-1,-1,-1,-1,-1,-1,-1,-1,-1,-1,-1,-1,-1,-1,-1,-1],"loss_changes":[2.5234742E0,3.2441115E-1,7.175249E-1,3.693044E-2,5.8282733E-2,7.3296696E-2,1.9182801E-2,7.1588755E-3,1.9234419E-4,6.454602E-3,3.5739879E-3,5.762659E-3,6.7056417E-3,8.146644E-3,0E0,0E0,0E0,6.446242E-5,0E0,1.2829602E-3,1.6680285E-3,1.3274811E-3,6.179352E-4,1.1530966E-3,1.1365078E-3,1.4042407E-3,3.0848384E-4,0E0,2.9370785E-3,0E0,0E0,3.3961236E-4,0E0,8.4292144E-4,0E0,1.1830527E-3,1.3802806E-3,3.9309642E-4,0E0,1.1865525E-3,1.7373767E-3,4.2933645E-4,9.6094236E-4,8.043647E-4,2.1362863E-4,0E0,0E0,0E0,1.5782118E-3,0E0,0E0,0E0,0E0,0E0,0E0,0E0,0E0,0E0,0E0,0E0,0E0,0E0,0E0,0E0,0E0,0E0,0E0,0E0,0E0,0E0,0E0,0E0,0E0],"parents":[2147483647,0,0,1,1,2,2,3,3,4,4,5,5,6,6,7,7,8,8,9,9,10,10,11,11,12,12,13,13,17,17,19,19,20,20,21,21,22,22,23,23,24,24,25,25,26,26,28,28,31,31,33,33,35,35,36,36,37,37,39,39,40,40,41,41,42,42,43,43,44,44,48,48],"right_children":[2,4,6,8,10,12,14,16,18,20,22,24,26,28,-1,-1,-1,30,-1,32,34,36,38,40,42,44,46,-1,48,-1,-1,50,-1,52,-1,54,56,58,-1,60,62,64,66,68,70,-1,-1,-1,72,-1,-1,-1,-1,-1,-1,-1,-1,-1,-1,-1,-1,-1,-1,-1,-1,-1,-1,-1,-1,-1,-1,-1,-1],"split_conditions":[4.8670802E-1,3.3769795E-1,6.56374E-1,2.756365E-1,4.178907E-1,5.672363E-1,8.3666337E-1,9.596947E-2,4.7128224E-1,3.7539044E-1,4.6417838E-1,5.2285284E-1,6.2482154E-1,6.123243E-1,4.37428E-2,-3.0070877E-2,-2.3041274E-2,5.356815E-1,-9.253119E-3,5.18458E-1,4.8045975E-1,3.8262352E-1,5.2587116E-1,4.7770268E-1,4.7109887E-1,6.160181E-1,5.5361676E-1,1.1523481E-2,4.8387128E-1,-1.731934E-2,-4.9441564E-3,5.179885E-1,-3.7501196E-3,5.0705105E-1,-1.3893209E-2,4.2925662E-1,5.0336194E-1,2.8930712E-1,-4.8111277E-3,3.680425E-1,4.395793E-1,3.5754544E-1,6.392941E-1,6.377427E-1,4.8542777E-1,1.8211475E-2,4.772535E-3,1.1864222E-2,4.8971084E-1,-1.1837372E-2,-2.588475E-3,-7.955325E-3,-3.411622E-3,-2.6735999E-3,1.754137E-3,-4.789556E-3,-7.238218E-4,4.7036335E-3,3.8943984E-4,2.5491342E-3,6.875011E-3,-1.7975182E-3,3.678324E-3,3.814325E-4,4.808869E-3,7.9174815E-3,1.7370388E-3,1.3634431E-2,4.3101134E-3,3.394884E-3,9.609545E-3,1.5764032E-2,3.378569E-2],"split_indices":[89,89,89,89,89,88,89,6,63,89,89,89,89,71,0,0,0,25,0,15,55,67,64,80,79,44,34,0,17,0,0,3,0,66,0,85,58,0,0,27,69,0,32,85,4,0,0,0,47,0,0,0,0,0,0,0,0,0,0,0,0,0,0,0,0,0,0,0,0,0,0,0,0],"split_type":[0,0,0,0,0,0,0,0,0,0,0,0,0,0,0,0,0,0,0,0,0,0,0,0,0,0,0,0,0,0,0,0,0,0,0,0,0,0,0,0,0,0,0,0,0,0,0,0,0,0,0,0,0,0,0,0,0,0,0,0,0,0,0,0,0,0,0,0,0,0,0,0,0],"sum_hessian":[1.048E3,5.8E2,4.68E2,2.42E2,3.38E2,3.4E2,1.28E2,1.35E2,1.07E2,2.24E2,1.14E2,2.01E2,1.39E2,9.8E1,3E1,3.3E1,1.02E2,1.03E2,4E0,1.14E2,1.1E2,6.6E1,4.8E1,1.15E2,8.6E1,9.8E1,4.1E1,3E0,9.5E1,1.02E2,1E0,1.11E2,3E0,1.05E2,5E0,2.1E1,4.5E1,4.7E1,1E0,3.1E1,8.4E1,9E0,7.7E1,8E1,1.8E1,4E1,1E0,2E0,9.3E1,1.1E2,1E0,9.9E1,6E0,1.3E1,8E0,3.5E1,1E1,1E0,4.6E1,1E1,2.1E1,5E0,7.9E1,3E0,6E0,7.4E1,3E0,7.8E1,2E0,2E0,1.6E1,3E0,9E1],"tree_param":{"num_deleted":"0","num_feature":"90","num_nodes":"73","size_leaf_vector":"1"}},{"base_weights":[1.4248728E-4,-3.0980188E-2,3.869714E-2,-5.1017907E-2,-1.7026825E-2,2.1174813E-2,8.280486E-2,-5.711455E-2,-3.673461E-2,-2.4142714E-2,-4.678078E-3,1.191252E-2,3.2369625E-2,7.746835E-2,3.5886265E-2,-7.494898E-2,-5.3394478E-2,-3.7166554E-2,-4.2369426E-3,-2.282414E-2,-3.839032E-2,-8.058296E-3,8.6713204E-4,8.854462E-3,1.560078E-2,2.5988098E-2,3.793752E-2,1.1789389E-2,7.950312E-2,-4.7861696E-3,-2.300119E-2,-1.6075049E-2,-4.0682005E-3,-3.7418913E-2,-2.8873668E-3,-2.7670527E-2,-1.9681314E-2,-4.158813E-2,-2.8813484E-3,-8.574568E-3,2.3636373E-3,3.0279793E-3,-3.3784613E-3,3.2434044E-3,1.023505E-2,5.258483E-3,1.6787566E-2,2.7246524E-2,3.66008E-3,1.9057274E-3,3.8261015E-2,1.5959332E-2,8.1285164E-2,-3.2403367E-3,-1.129346E-2,-7.389197E-3,-1.06961345E-2,-6.0490468E-3,1.974553E-5,-1.2950115E-2,-2.9224993E-3,-1.4889818E-3,-3.487322E-3,-4.5292205E-4,2.5721677E-3,-3.3417956E-3,2.3505167E-4,-9.894669E-5,3.8480938E-3,3.606579E-3,1.0750054E-3,2.1552648E-3,1.7214865E-4,5.490479E-3,2.4826364E-3,2.2441775E-3,8.41685E-3,2.8567852E-3,1.1553171E-2,9.491373E-3,2.458651E-2],"categories":[],"categories_nodes":[],"categories_segments":[],"categories_sizes":[],"default_left":[0,0,0,0,0,0,0,0,0,0,0,0,0,0,0,0,0,0,0,0,0,0,0,0,0,0,0,0,0,0,0,0,0,0,0,0,0,0,0,0,0,0,0,0,0,0,0,0,0,0,0,0,0,0,0,0,0,0,0,0,0,0,0,0,0,0,0,0,0,0,0,0,0,0,0,0,0,0,0,0,0],"id":4,"left_children":[1,3,5,7,9,11,13,15,17,19,21,23,25,27,-1,29,31,33,-1,35,37,39,41,43,45,47,49,-1,51,-1,-1,-1,-1,53,-1,55,57,59,-1,61,-1,63,65,67,69,71,73,75,-1,-1,77,-1,79,-1,-1,-1,-1,-1,-1,-1,-1,-1,-1,-1,-1,-1,-1,-1,-1,-1,-1,-1,-1,-1,-1,-1,-1,-1,-1,-1,-1],"loss_changes":[1.259919E0,1.615752E-1,3.6072254E-1,1.8626928E-2,3.0115128E-2,3.455782E-2,1.6863585E-2,6.945133E-3,1.9783527E-4,3.2192469E-3,2.387478E-3,1.959743E-3,4.414901E-3,6.1181784E-3,0E0,1.4175773E-3,3.2749772E-4,1.4028698E-4,0E0,2.5321394E-3,1.165444E-3,7.175589E-4,4.5975973E-4,7.7244546E-4,9.304732E-4,9.5155835E-4,5.641356E-4,0E0,9.2607737E-4,0E0,0E0,0E0,0E0,2.041459E-5,0E0,9.904653E-4,1.201041E-3,3.3372268E-4,0E0,7.9037296E-4,0E0,8.434155E-4,5.5783504E-4,7.576048E-4,9.434419E-4,8.609146E-5,8.022282E-4,8.623451E-4,0E0,0E0,1.9267946E-4,0E0,8.325577E-4,0E0,0E0,0E0,0E0,0E0,0E0,0E0,0E0,0E0,0E0,0E0,0E0,0E0,0E0,0E0,0E0,0E0,0E0,0E0,0E0,0E0,0E0,0E0,0E0,0E0,0E0,0E0,0E0],"parents":[2147483647,0,0,1,1,2,2,3,3,4,4,5,5,6,6,7,7,8,8,9,9,10,10,11,11,12,12,13,13,15,15,16,16,17,17,19,19,20,20,21,21,22,22,23,23,24,24,25,25,26,26,28,28,33,33,35,35,36,36,37,37,39,39,41,41,42,42,43,43,44,44,45,45,46,46,47,47,50,50,52,52],"right_children":[2,4,6,8,10,12,14,16,18,20,22,24,26,28,-1,30,32,34,-1,36,38,40,42,44,46,48,50,-1,52,-1,-1,-1,-1,54,-1,56,58,60,-1,62,-1,64,66,68,70,72,74,76,-1,-1,78,-1,80,-1,-1,-1,-1,-1,-1,-1,-1,-1,-1,-1,-1,-1,-1,-1,-1,-1,-1,-1,-1,-1,-1,-1,-1,-1,-1,-1,-1],"split_conditions":[4.8670802E-1,3.3469215E-1,6.451657E-1,2.8974125E-1,4.097641E-1,5.5521137E-1,8.606756E-1,2.0867157E-1,4.1041836E-1,4.7404602E-1,4.6417838E-1,5.201495E-1,6.049368E-1,6.1513835E-1,3.5886265E-2,3.6978852E-2,5.193303E-1,5.4036134E-1,-4.2369426E-3,3.5998702E-1,5.203784E-1,5.203784E-1,4.9486732E-1,3.7158045E-1,3.7781727E-1,6.3152945E-1,5.371679E-1,1.1789389E-2,5.058648E-1,-4.7861696E-3,-2.300119E-2,-1.6075049E-2,-4.0682005E-3,1.6967918E-1,-2.8873668E-3,3.5928673E-1,5.18458E-1,5.216415E-1,-2.8813484E-3,4.5467916E-1,2.3636373E-3,3.702087E-1,5.076565E-1,5.0408596E-1,6.134947E-1,3.7158045E-1,6.1685187E-1,5.361219E-1,3.66008E-3,1.9057274E-3,4.7863048E-1,1.5959332E-2,4.8387128E-1,-3.2403367E-3,-1.129346E-2,-7.389197E-3,-1.06961345E-2,-6.0490468E-3,1.974553E-5,-1.2950115E-2,-2.9224993E-3,-1.4889818E-3,-3.487322E-3,-4.5292205E-4,2.5721677E-3,-3.3417956E-3,2.3505167E-4,-9.894669E-5,3.8480938E-3,3.606579E-3,1.0750054E-3,2.1552648E-3,1.7214865E-4,5.490479E-3,2.4826364E-3,2.2441775E-3,8.41685E-3,2.8567852E-3,1.1553171E-2,9.491373E-3,2.458651E-2],"split_indices":[89,89,88,89,88,89,89,89,81,1,89,89,89,75,0,2,0,31,0,85,4,57,75,22,12,38,82,0,50,0,0,0,0,5,0,83,39,25,0,73,0,32,36,69,9,14,59,87,0,0,66,0,17,0,0,0,0,0,0,0,0,0,0,0,0,0,0,0,0,0,0,0,0,0,0,0,0,0,0,0,0],"split_type":[0,0,0,0,0,0,0,0,0,0,0,0,0,0,0,0,0,0,0,0,0,0,0,0,0,0,0,0,0,0,0,0,0,0,0,0,0,0,0,0,0,0,0,0,0,0,0,0,0,0,0,0,0,0,0,0,0,0,0,0,0,0,0,0,0,0,0,0,0,0,0,0,0,0,0,0,0,0,0,0,0],"sum_hessian":[1.048E3,5.8E2,4.68E2,2.37E2,3.43E2,3.36E2,1.32E2,1.64E2,7.3E1,2.17E2,1.26E2,1.85E2,1.51E2,1.18E2,1.4E1,2.5E1,1.39E2,7.1E1,2E0,2.01E2,1.6E1,7.8E1,4.8E1,1.03E2,8.2E1,7.3E1,7.8E1,7E0,1.11E2,1E0,2.4E1,1.38E2,1E0,7E1,1E0,7.6E1,1.25E2,1.4E1,2E0,7.6E1,2E0,3.2E1,1.6E1,2.1E1,8.2E1,9E0,7.3E1,6.6E1,7E0,1E0,7.7E1,9E0,1.02E2,1E0,6.9E1,5.8E1,1.8E1,1.22E2,3E0,1.3E1,1E0,3.6E1,4E1,1.8E1,1.4E1,5E0,1.1E1,1.6E1,5E0,6.4E1,1.8E1,6E0,3E0,6.1E1,1.2E1,3E0,6.3E1,1E0,7.6E1,2E0,1E2],"tree_param":{"num_deleted":"0","num_feature":"90","num_nodes":"81","size_leaf_vector":"1"}},{"base_weights":[1.2931698E-4,-2.1008996E-2,2.8533638E-2,-3.3515275E-2,-9.199213E-3,1.5747542E-2,5.869809E-2,-4.1317977E-2,-2.5644284E-2,-1.4943064E-2,-1.2969985E-3,9.722205E-3,2.3650765E-2,5.5745587E-2,3.1163856E-2,-5.0545145E-2,-3.7194334E-2,-2.6168916E-2,-1.1338264E-2,-1.4079333E-2,-2.5862021E-2,-4.12092E-3,1.589361E-3,8.075472E-3,1.3875135E-2,2.1149129E-2,3.0533647E-2,8.694676E-3,5.7065263E-2,-5.7924525E-3,-1.5487288E-2,-4.4719884E-3,-3.7936773E-2,-2.6417557E-2,1.3334155E-3,-6.949216E-4,-4.345118E-3,-2.0623466E-2,-1.2576452E-2,-3.0161142E-2,-2.9170476E-3,6.7529234E-4,-6.033489E-3,5.9025853E-5,1.01533355E-2,8.776316E-3,3.35671E-4,1.4613251E-2,-7.6792843E-4,2.1500794E-2,2.2600095E-3,4.3019997E-3,3.1638194E-2,9.241891E-3,5.7939075E-2,-1.1581145E-2,-5.262661E-3,-7.978832E-3,-2.1311046E-4,-4.7295392E-4,-6.3677686E-3,-4.742165E-3,-3.1463213E-3,-3.9884094E-3,-9.924266E-3,-3.3003332E-3,1.0148875E-3,-2.2445924E-3,1.6058715E-3,1.05284E-3,-1.1714334E-3,4.6582087E-3,1.1948274E-3,2.4216473E-3,7.0495144E-3,5.8163796E-4,-1.5359878E-3,4.540042E-3,-1.4755816E-3,6.700582E-3,3.7928289E-3,1.14700204E-4,9.023041E-4,2.4866045E-3,9.642066E-3,3.6384882E-3,1.7470362E-2],"categories":[],"categories_nodes":[],"categories_segments":[],"categories_sizes":[],"default_left":[0,0,0,0,0,0,0,0,0,0,0,0,0,0,0,0,0,0,0,0,0,0,0,0,0,0,0,0,0,0,0,0,0,0,0,0,0,0,0,0,0,0,0,0,0,0,0,0,0,0,0,0,0,0,0,0,0,0,0,0,0,0,0,0,0,0,0,0,0,0,0,0,0,0,0,0,0,0,0,0,0,0,0,0,0,0,0],"id":5,"left_children":[1,3,5,7,9,11,13,15,17,19,21,23,25,27,-1,29,31,33,35,37,39,41,43,45,47,49,51,-1,53,-1,-1,-1,55,57,-1,-1,-1,59,61,63,-1,65,67,69,71,73,75,77,-1,79,81,-1,83,-1,85,-1,-1,-1,-1,-1,-1,-1,-1,-1,-1,-1,-1,-1,-1,-1,-1,-1,-1,-1,-1,-1,-1,-1,-1,-1,-1,-1,-1,-1,-1,-1,-1],"loss_changes":[6.3043946E-1,8.860496E-2,1.7186284E-1,1.6873628E-2,1.4096642E-2,1.4817849E-2,1.19511485E-2,3.6371946E-3,8.1409514E-4,1.3334677E-3,1.082462E-3,1.1257697E-3,1.6959608E-3,2.8316379E-3,0E0,4.1900575E-4,1.1554062E-3,1.1982918E-3,1.650952E-4,1.4027543E-3,5.3930655E-4,6.186712E-4,8.643803E-4,7.1307365E-4,6.4394996E-4,6.3559785E-4,1.5445426E-4,0E0,9.685457E-4,0E0,0E0,0E0,6.8321824E-4,6.2829256E-4,0E0,0E0,0E0,3.107693E-4,7.789582E-4,3.4105033E-6,0E0,6.6953216E-4,8.317154E-4,7.932852E-4,2.697669E-4,1.0646861E-3,1.1487904E-4,5.621584E-4,0E0,4.6419725E-4,3.0617102E-6,0E0,9.698421E-5,0E0,8.5026026E-4,0E0,0E0,0E0,0E0,0E0,0E0,0E0,0E0,0E0,0E0,0E0,0E0,0E0,0E0,0E0,0E0,0E0,0E0,0E0,0E0,0E0,0E0,0E0,0E0,0E0,0E0,0E0,0E0,0E0,0E0,0E0,0E0],"parents":[2147483647,0,0,1,1,2,2,3,3,4,4,5,5,6,6,7,7,8,8,9,9,10,10,11,11,12,12,13,13,15,15,16,16,17,17,18,18,19,19,20,20,21,21,22,22,23,23,24,24,25,25,26,26,28,28,32,32,33,33,37,37,38,38,39,39,41,41,42,42,43,43,44,44,45,45,46,46,47,47,49,49,50,50,52,52,54,54],"right_children":[2,4,6,8,10,12,14,16,18,20,22,24,26,28,-1,30,32,34,36,38,40,42,44,46,48,50,52,-1,54,-1,-1,-1,56,58,-1,-1,-1,60,62,64,-1,66,68,70,72,74,76,78,-1,80,82,-1,84,-1,86,-1,-1,-1,-1,-1,-1,-1,-1,-1,-1,-1,-1,-1,-1,-1,-1,-1,-1,-1,-1,-1,-1,-1,-1,-1,-1,-1,-1,-1,-1,-1,-1],"split_conditions":[4.9702027E-1,3.5651526E-1,6.451657E-1,2.7988368E-1,4.206144E-1,5.678888E-1,8.7983495E-1,2.1992043E-1,4.2552164E-1,4.8045975E-1,4.6591383E-1,5.408019E-1,6.2691087E-1,6.1513835E-1,3.1163856E-2,1.5308408E-1,1.8676879E-1,5.193303E-1,4.710969E-1,2.7227104E-1,5.074533E-1,3.8262352E-1,5.1903176E-1,6.3152945E-1,6.3393575E-1,6.54224E-1,5.680644E-1,8.694676E-3,4.9486732E-1,-5.7924525E-3,-1.5487288E-2,-4.4719884E-3,3.4463996E-1,5.257159E-1,1.3334155E-3,-6.949216E-4,-4.345118E-3,1.9758491E-1,3.5651526E-1,3.6417806E-1,-2.9170476E-3,3.7158045E-1,5.079382E-1,4.0619513E-1,5.079382E-1,6.3393575E-1,6.223796E-1,6.451657E-1,-7.6792843E-4,6.1971194E-1,5.490057E-1,4.3019997E-3,4.5649123E-1,9.241891E-3,4.7770268E-1,-1.1581145E-2,-5.262661E-3,-7.978832E-3,-2.1311046E-4,-4.7295392E-4,-6.3677686E-3,-4.742165E-3,-3.1463213E-3,-3.9884094E-3,-9.924266E-3,-3.3003332E-3,1.0148875E-3,-2.2445924E-3,1.6058715E-3,1.05284E-3,-1.1714334E-3,4.6582087E-3,1.1948274E-3,2.4216473E-3,7.0495144E-3,5.8163796E-4,-1.5359878E-3,4.540042E-3,-1.4755816E-3,6.700582E-3,3.7928289E-3,1.14700204E-4,9.023041E-4,2.4866045E-3,9.642066E-3,3.6384882E-3,1.7470362E-2],"split_indices":[89,89,88,88,89,89,88,89,73,55,89,89,89,75,0,39,52,17,0,2,18,67,59,17,51,76,70,0,46,0,0,0,32,22,0,0,0,1,78,5,0,79,25,54,82,18,4,72,0,42,0,0,19,0,19,0,0,0,0,0,0,0,0,0,0,0,0,0,0,0,0,0,0,0,0,0,0,0,0,0,0,0,0,0,0,0,0],"split_type":[0,0,0,0,0,0,0,0,0,0,0,0,0,0,0,0,0,0,0,0,0,0,0,0,0,0,0,0,0,0,0,0,0,0,0,0,0,0,0,0,0,0,0,0,0,0,0,0,0,0,0,0,0,0,0,0,0,0,0,0,0,0,0,0,0,0,0,0,0,0,0,0,0,0,0,0,0,0,0,0,0,0,0,0,0,0,0],"sum_hessian":[1.048E3,6.01E2,4.47E2,2.91E2,3.1E2,3.15E2,1.32E2,1.44E2,1.47E2,1.79E2,1.31E2,1.8E2,1.35E2,1.26E2,6E0,4.1E1,1.03E2,1.41E2,6E0,1.68E2,1.1E1,6.6E1,6.5E1,1.31E2,4.9E1,1.02E2,3.3E1,7E0,1.19E2,2E0,3.9E1,4E0,9.9E1,1.4E2,1E0,2E0,4E0,2.9E1,1.39E2,8E0,3E0,1.9E1,4.7E1,5.6E1,9E0,1.2E2,1.1E1,4.7E1,2E0,1E2,2E0,3E0,3E1,5E0,1.14E2,9.5E1,4E0,1.39E2,1E0,1E0,2.8E1,5.2E1,8.7E1,2E0,6E0,3E0,1.6E1,4.2E1,5E0,3E1,2.6E1,4E0,5E0,1.16E2,4E0,9E0,2E0,4.6E1,1E0,9E1,1E1,1E0,1E0,1E0,2.9E1,1E0,1.13E2],"tree_param":{"num_deleted":"0","num_feature":"90","num_nodes":"87","size_leaf_vector":"1"}},{"base_weights":[1.15042945E-4,-1.6084084E-2,1.8699082E-2,-2.7905168E-2,-1.0240624E-2,1.0108821E-2,4.1616555E-2,-4.093292E-2,-2.5987389E-2,-1.4201366E-2,-4.2842524E-3,5.522899E-3,1.6257448E-2,3.6183856E-2,5.5794284E-2,-1.6582813E-2,-1.0038848E-2,-2.8939368E-2,-2.2973508E-2,-1.3072616E-2,-2.2036497E-2,-6.8958984E-3,-1.4382488E-3,2.7119687E-3,7.2146216E-3,1.20118065E-2,1.8678391E-2,1.9596657E-2,3.7426725E-2,4.6208303E-2,2.1752521E-2,-2.9286332E-2,-2.814129E-4,-3.4652008E-3,-2.3839446E-2,-1.239028E-2,-2.617661E-2,-2.9278796E-2,-1.6788745E-2,-4.3519298E-3,-1.1374129E-2,-1.5445845E-4,-8.776825E-3,4.122114E-3,-1.6540646E-3,7.5552478E-3,-1.5700759E-3,9.994746E-3,1.8225111E-2,2.6300486E-2,1.7036296E-2,1.8946589E-3,6.7467135E-3,3.8633216E-2,2.2141661E-2,4.0596398E-3,1.4101791E-2,-9.004353E-3,-3.7956282E-3,-7.410236E-3,-3.9322358E-3,-4.6422053E-3,-2.7236217E-3,-8.725845E-3,-4.350409E-4,-3.4222484E-3,-9.696206E-3,-3.3928931E-3,-7.1349307E-3,-2.6469775E-3,-3.1150342E-4,-4.4234963E-3,1.0329545E-3,-9.080135E-4,1.024927E-3,-4.0826565E-3,9.244323E-4,2.9922725E-4,1.994536E-3,-1.4599815E-3,8.439322E-4,1.4301101E-3,2.8237305E-3,3.4831255E-3,2.6070178E-4,-9.9483135E-5,5.9397416E-3,8.428212E-3,2.9284775E-3,1.4949114E-3,5.2307993E-3,8.374451E-3,1.2351579E-2,-4.659176E-4,7.5892904E-3],"categories":[],"categories_nodes":[],"categories_segments":[],"categories_sizes":[],"default_left":[0,0,0,0,0,0,0,0,0,0,0,0,0,0,0,0,0,0,0,0,0,0,0,0,0,0,0,0,0,0,0,0,0,0,0,0,0,0,0,0,0,0,0,0,0,0,0,0,0,0,0,0,0,0,0,0,0,0,0,0,0,0,0,0,0,0,0,0,0,0,0,0,0,0,0,0,0,0,0,0,0,0,0,0,0,0,0,0,0,0,0,0,0,0,0],"id":6,"left_children":[1,3,5,7,9,11,13,15,17,19,21,23,25,27,29,-1,-1,31,33,35,37,39,41,43,45,47,49,51,53,55,-1,57,-1,-1,59,61,63,65,67,69,71,73,75,77,79,81,-1,83,85,87,89,-1,-1,91,93,-1,-1,-1,-1,-1,-1,-1,-1,-1,-1,-1,-1,-1,-1,-1,-1,-1,-1,-1,-1,-1,-1,-1,-1,-1,-1,-1,-1,-1,-1,-1,-1,-1,-1,-1,-1,-1,-1,-1,-1],"loss_changes":[3.160972E-1,3.8465887E-2,9.5847294E-2,3.5583675E-3,8.833211E-3,9.976584E-3,8.225247E-3,5.074851E-4,7.9425424E-4,1.7106496E-3,1.1198607E-3,9.600292E-4,1.3379678E-3,1.3075322E-3,2.2572502E-3,0E0,0E0,7.400438E-4,5.7530403E-4,1.463931E-3,5.346015E-4,8.505061E-4,6.958127E-4,4.9320067E-4,5.822838E-4,5.4473523E-4,7.4097514E-4,2.0369748E-4,8.227527E-4,1.5530735E-5,0E0,5.650446E-4,0E0,0E0,4.0650368E-4,1.8202066E-3,6.0530566E-4,1.749266E-4,4.2083208E-4,7.612769E-4,1.4492867E-3,6.667549E-4,6.722292E-4,4.670103E-4,3.0070968E-4,6.0241064E-4,0E0,6.6814385E-4,3.8628E-4,1.7070863E-4,3.033504E-4,0E0,0E0,1.1091977E-3,7.1230764E-4,0E0,0E0,0E0,0E0,0E0,0E0,0E0,0E0,0E0,0E0,0E0,0E0,0E0,0E0,0E0,0E0,0E0,0E0,0E0,0E0,0E0,0E0,0E0,0E0,0E0,0E0,0E0,0E0,0E0,0E0,0E0,0E0,0E0,0E0,0E0,0E0,0E0,0E0,0E0,0E0],"parents":[2147483647,0,0,1,1,2,2,3,3,4,4,5,5,6,6,7,7,8,8,9,9,10,10,11,11,12,12,13,13,14,14,17,17,18,18,19,19,20,20,21,21,22,22,23,23,24,24,25,25,26,26,27,27,28,28,29,29,31,31,34,34,35,35,36,36,37,37,38,38,39,39,40,40,41,41,42,42,43,43,44,44,45,45,47,47,48,48,49,49,50,50,53,53,54,54],"right_children":[2,4,6,8,10,12,14,16,18,20,22,24,26,28,30,-1,-1,32,34,36,38,40,42,44,46,48,50,52,54,56,-1,58,-1,-1,60,62,64,66,68,70,72,74,76,78,80,82,-1,84,86,88,90,-1,-1,92,94,-1,-1,-1,-1,-1,-1,-1,-1,-1,-1,-1,-1,-1,-1,-1,-1,-1,-1,-1,-1,-1,-1,-1,-1,-1,-1,-1,-1,-1,-1,-1,-1,-1,-1,-1,-1,-1,-1,-1,-1],"split_conditions":[4.7444624E-1,2.9685342E-1,6.451657E-1,1.8676879E-1,3.9033395E-1,5.5521137E-1,7.7444464E-1,8.281093E-2,2.2197646E-1,4.7582275E-1,4.3062937E-1,5.076565E-1,5.932056E-1,4.9618992E-1,8.4098E-1,-1.6582813E-2,-1.0038848E-2,2.7733573E-1,2.2728038E-1,4.9618992E-1,4.5467916E-1,3.8299656E-1,5.1804364E-1,5.067381E-1,6.392941E-1,6.123243E-1,5.014915E-1,4.9668404E-1,8.255953E-1,7.217663E-1,2.1752521E-2,3.1102657E-1,-2.814129E-4,-3.4652008E-3,3.6161986E-1,3.2366264E-1,4.2541724E-1,4.9054992E-1,5.045003E-1,3.5884413E-1,4.6766973E-1,3.8502216E-1,5.0524515E-1,4.7128224E-1,5.2857876E-1,5.096614E-1,-1.5700759E-3,6.093473E-1,5.1159334E-1,5.72075E-1,4.4801247E-1,1.8946589E-3,6.7467135E-3,5.3522754E-1,5.980939E-1,4.0596398E-3,1.4101791E-2,-9.004353E-3,-3.7956282E-3,-7.410236E-3,-3.9322358E-3,-4.6422053E-3,-2.7236217E-3,-8.725845E-3,-4.350409E-4,-3.4222484E-3,-9.696206E-3,-3.3928931E-3,-7.1349307E-3,-2.6469775E-3,-3.1150342E-4,-4.4234963E-3,1.0329545E-3,-9.080135E-4,1.024927E-3,-4.0826565E-3,9.244323E-4,2.9922725E-4,1.994536E-3,-1.4599815E-3,8.439322E-4,1.4301101E-3,2.8237305E-3,3.4831255E-3,2.6070178E-4,-9.9483135E-5,5.9397416E-3,8.428212E-3,2.9284775E-3,1.4949114E-3,5.2307993E-3,8.374451E-3,1.2351579E-2,-4.659176E-4,7.5892904E-3],"split_indices":[89,89,88,63,89,89,22,22,6,1,88,89,89,16,59,0,0,17,81,33,24,49,69,88,49,59,58,26,47,35,0,84,0,0,35,16,11,1,26,20,80,22,78,67,66,76,0,61,11,27,29,0,0,49,12,0,0,0,0,0,0,0,0,0,0,0,0,0,0,0,0,0,0,0,0,0,0,0,0,0,0,0,0,0,0,0,0,0,0,0,0,0,0,0,0],"split_type":[0,0,0,0,0,0,0,0,0,0,0,0,0,0,0,0,0,0,0,0,0,0,0,0,0,0,0,0,0,0,0,0,0,0,0,0,0,0,0,0,0,0,0,0,0,0,0,0,0,0,0,0,0,0,0,0,0,0,0,0,0,0,0,0,0,0,0,0,0,0,0,0,0,0,0,0,0,0,0,0,0,0,0,0,0,0,0,0,0,0,0,0,0,0,0],"sum_hessian":[1.048E3,5.6E2,4.88E2,1.84E2,3.76E2,3.56E2,1.32E2,2.1E1,1.63E2,2.25E2,1.51E2,2.05E2,1.51E2,9.8E1,3.4E1,5E0,1.6E1,7.8E1,8.5E1,1.99E2,2.6E1,7.8E1,7.3E1,7.8E1,1.27E2,5.7E1,9.4E1,8E0,9E1,2.4E1,1E1,7.7E1,1E0,7E0,7.8E1,1.91E2,8E0,9E0,1.7E1,5.1E1,2.7E1,6.3E1,1E1,5.9E1,1.9E1,1.24E2,3E0,4.5E1,1.2E1,1.4E1,8E1,2E0,6E0,8.2E1,8E0,1E0,2.3E1,7.3E1,4E0,7.1E1,7E0,9.7E1,9.4E1,7E0,1E0,2E0,7E0,1.1E1,6E0,2.1E1,3E1,2.2E1,5E0,3.5E1,2.8E1,7E0,3E0,2.7E1,3.2E1,1.1E1,8E0,5.1E1,7.3E1,3.8E1,7E0,1E0,1.1E1,1.2E1,2E0,3E0,7.7E1,1.8E1,6.4E1,1E0,7E0],"tree_param":{"num_deleted":"0","num_feature":"90","num_nodes":"95","size_leaf_vector":"1"}},{"base_weights":[8.4691026E-5,-1.0578534E-2,1.4413211E-2,-1.9200414E-2,-6.0780654E-3,7.931051E-3,2.970606E-2,-2.489462E-2,-1.6575864E-2,-9.624874E-3,-1.961587E-3,5.4693557E-3,1.2968641E-2,2.7883843E-2,1.7556781E-2,-3.5934534E-2,-2.2133607E-2,-4.0680594E-3,-1.6996518E-2,-8.619911E-3,-1.6521346E-2,-4.6252524E-3,-1.9665946E-5,5.0577703E-3,1.5435457E-2,1.7928107E-2,1.1479898E-2,2.3596209E-2,3.227843E-2,-5.4110885E-3,-1.2117452E-2,-2.3234485E-2,-3.4740176E-3,-3.7185445E-3,3.1942725E-3,-1.7319145E-2,-1.7780587E-3,-6.423878E-3,-1.0702092E-2,-5.856864E-3,-2.014211E-2,-1.7111575E-3,-6.957396E-3,-5.02567E-3,8.417935E-4,6.614196E-3,2.9609257E-3,5.375796E-3,-2.927363E-4,4.368864E-3,8.829273E-3,1.2254393E-2,6.4264718E-3,2.8548915E-2,1.5951224E-2,3.470748E-2,1.8302895E-2,-4.6985755E-3,-7.614993E-3,-4.926235E-4,1.6061247E-3,-4.5328266E-3,-5.9840796E-3,6.2989444E-4,-1.1311532E-3,-2.1985301E-3,2.419302E-3,-3.5837574E-3,-5.8136747E-4,1.5905172E-3,-3.1380046E-3,-6.8916925E-3,-1.1357367E-3,-1.0937274E-3,2.0473315E-3,-2.4862331E-3,3.2003096E-4,-4.525334E-4,-3.1908916E-3,1.7114108E-3,-2.5125453E-4,1.4505277E-3,4.2473353E-3,3.9651486E-4,2.2241042E-3,3.998563E-3,2.2281827E-3,5.033183E-4,2.5051832E-3,5.7553044E-3,1.0020085E-2,5.197282E-3,9.1158005E-4,1.0890257E-2,5.920131E-3,8.936942E-4,5.861217E-3],"categories":[],"categories_nodes":[],"categories_segments":[],"categories_sizes":[],"default_left":[0,0,0,0,0,0,0,0,0,0,0,0,0,0,0,0,0,0,0,0,0,0,0,0,0,0,0,0,0,0,0,0,0,0,0,0,0,0,0,0,0,0,0,0,0,0,0,0,0,0,0,0,0,0,0,0,0,0,0,0,0,0,0,0,0,0,0,0,0,0,0,0,0,0,0,0,0,0,0,0,0,0,0,0,0,0,0,0,0,0,0,0,0,0,0,0,0],"id":7,"left_children":[1,3,5,7,9,11,13,15,17,19,21,23,25,27,-1,29,31,33,35,37,39,41,43,45,47,49,51,53,55,-1,-1,57,-1,-1,59,61,63,65,67,69,71,73,75,77,79,81,83,-1,-1,-1,-1,85,87,89,91,93,95,-1,-1,-1,-1,-1,-1,-1,-1,-1,-1,-1,-1,-1,-1,-1,-1,-1,-1,-1,-1,-1,-1,-1,-1,-1,-1,-1,-1,-1,-1,-1,-1,-1,-1,-1,-1,-1,-1,-1,-1],"loss_changes":[1.6042732E-1,2.3242407E-2,4.417496E-2,2.6659593E-3,5.777466E-3,3.847789E-3,5.351998E-3,1.1249669E-3,6.8850815E-4,1.3338272E-3,9.568453E-4,7.9973834E-4,5.546734E-4,1.6313344E-3,0E0,1.4891848E-4,3.4670345E-4,4.02438E-4,6.5167993E-4,7.908875E-4,8.85983E-4,5.1818974E-4,4.699773E-4,6.559775E-4,3.4359156E-4,4.2301137E-4,2.4218392E-4,2.1193214E-3,1.4015809E-3,0E0,0E0,3.6723912E-4,0E0,0E0,5.0567207E-5,4.883222E-4,3.8821323E-5,1.2910061E-3,1.0124082E-3,4.6637334E-4,7.9257274E-4,6.1934703E-4,4.6775932E-4,2.9969757E-4,7.64246E-4,1.5152032E-3,6.4711104E-4,0E0,0E0,0E0,0E0,2.6395824E-4,1.0477414E-4,1.1764765E-3,4.6151876E-4,4.7658756E-4,1.4988868E-4,0E0,0E0,0E0,0E0,0E0,0E0,0E0,0E0,0E0,0E0,0E0,0E0,0E0,0E0,0E0,0E0,0E0,0E0,0E0,0E0,0E0,0E0,0E0,0E0,0E0,0E0,0E0,0E0,0E0,0E0,0E0,0E0,0E0,0E0,0E0,0E0,0E0,0E0,0E0,0E0],"parents":[2147483647,0,0,1,1,2,2,3,3,4,4,5,5,6,6,7,7,8,8,9,9,10,10,11,11,12,12,13,13,15,15,16,16,17,17,18,18,19,19,20,20,21,21,22,22,23,23,24,24,25,25,26,26,27,27,28,28,31,31,34,34,35,35,36,36,37,37,38,38,39,39,40,40,41,41,42,42,43,43,44,44,45,45,46,46,51,51,52,52,53,53,54,54,55,55,56,56],"right_children":[2,4,6,8,10,12,14,16,18,20,22,24,26,28,-1,30,32,34,36,38,40,42,44,46,48,50,52,54,56,-1,-1,58,-1,-1,60,62,64,66,68,70,72,74,76,78,80,82,84,-1,-1,-1,-1,86,88,90,92,94,96,-1,-1,-1,-1,-1,-1,-1,-1,-1,-1,-1,-1,-1,-1,-1,-1,-1,-1,-1,-1,-1,-1,-1,-1,-1,-1,-1,-1,-1,-1,-1,-1,-1,-1,-1,-1,-1,-1,-1,-1],"split_conditions":[4.9702027E-1,3.093001E-1,6.451657E-1,2.3177677E-1,3.9323527E-1,5.8801156E-1,8.7983495E-1,1.751414E-1,1.6032325E-1,4.7109064E-1,4.35442E-1,6.392941E-1,5.076565E-1,5.8776206E-1,1.7556781E-2,1.8177395E-1,2.1081136E-1,1.4431521E-1,4.3408862E-1,3.5771093E-1,3.2366264E-1,3.4707275E-1,3.2980296E-1,5.4839337E-1,5.329029E-1,5.7683206E-1,6.11332E-1,5.270954E-1,8.087711E-1,-5.4110885E-3,-1.2117452E-2,1.8177395E-1,-3.4740176E-3,-3.7185445E-3,1.7464118E-1,2.7988368E-1,3.4746847E-1,3.6253336E-1,4.7406185E-1,4.2541724E-1,5.2043706E-1,3.757715E-1,5.043911E-1,4.035848E-1,3.7402993E-1,5.7873714E-1,6.2528026E-1,5.375796E-3,-2.927363E-4,4.368864E-3,8.829273E-3,6.2691087E-1,5.058648E-1,5.018228E-1,7.49515E-1,8.322915E-1,7.4277145E-1,-4.6985755E-3,-7.614993E-3,-4.926235E-4,1.6061247E-3,-4.5328266E-3,-5.9840796E-3,6.2989444E-4,-1.1311532E-3,-2.1985301E-3,2.419302E-3,-3.5837574E-3,-5.8136747E-4,1.5905172E-3,-3.1380046E-3,-6.8916925E-3,-1.1357367E-3,-1.0937274E-3,2.0473315E-3,-2.4862331E-3,3.2003096E-4,-4.525334E-4,-3.1908916E-3,1.7114108E-3,-2.5125453E-4,1.4505277E-3,4.2473353E-3,3.9651486E-4,2.2241042E-3,3.998563E-3,2.2281827E-3,5.033183E-4,2.5051832E-3,5.7553044E-3,1.0020085E-2,5.197282E-3,9.1158005E-4,1.0890257E-2,5.920131E-3,8.936942E-4,5.861217E-3],"split_indices":[89,89,88,87,89,89,88,63,9,36,87,69,60,3,0,73,7,9,22,67,78,43,36,51,8,68,45,8,8,0,0,50,0,0,1,76,0,66,43,7,34,50,33,66,36,10,53,0,0,0,0,77,5,15,37,32,2,0,0,0,0,0,0,0,0,0,0,0,0,0,0,0,0,0,0,0,0,0,0,0,0,0,0,0,0,0,0,0,0,0,0,0,0,0,0,0,0],"split_type":[0,0,0,0,0,0,0,0,0,0,0,0,0,0,0,0,0,0,0,0,0,0,0,0,0,0,0,0,0,0,0,0,0,0,0,0,0,0,0,0,0,0,0,0,0,0,0,0,0,0,0,0,0,0,0,0,0,0,0,0,0,0,0,0,0,0,0,0,0,0,0,0,0,0,0,0,0,0,0,0,0,0,0,0,0,0,0,0,0,0,0,0,0,0,0,0,0],"sum_hessian":[1.048E3,6.01E2,4.47E2,2.05E2,3.96E2,3.15E2,1.32E2,6.2E1,1.43E2,2.12E2,1.84E2,2.13E2,1.02E2,1.26E2,6E0,1E1,5.2E1,5E0,1.38E2,1.87E2,2.5E1,7.7E1,1.07E2,2.06E2,7E0,2.1E1,8.1E1,6.7E1,5.9E1,3E0,7E0,4.6E1,6E0,2E0,3E0,1.35E2,3E0,9.3E1,9.4E1,7E0,1.8E1,3.5E1,4.2E1,1.5E1,9.2E1,1.17E2,8.9E1,6E0,1E0,1.8E1,3E0,6.9E1,1.2E1,3.9E1,2.8E1,4.9E1,1E1,1.2E1,3.4E1,1E0,2E0,7.7E1,5.8E1,1E0,2E0,8.8E1,5E0,8.2E1,1.2E1,2E0,5E0,1.5E1,3E0,2.9E1,6E0,3.6E1,6E0,1E1,5E0,2.3E1,6.9E1,9.6E1,2.1E1,6.6E1,2.3E1,5.5E1,1.4E1,4E0,8E0,1.5E1,2.4E1,2.5E1,3E0,4.3E1,6E0,1E0,9E0],"tree_param":{"num_deleted":"0","num_feature":"90","num_nodes":"97","size_leaf_vector":"1"}},{"base_weights":[9.26356E-5,-7.781805E-3,1.0037311E-2,-1.4467089E-2,-4.876739E-3,4.956214E-3,2.023331E-2,-2.479333E-2,-1.3497367E-2,-7.259504E-3,-1.939541E-3,3.1129592E-3,7.602246E-3,1.843495E-2,3.566913E-2,-1.00601185E-2,-4.8634754E-3,-1.5482468E-2,-1.1693145E-2,-1.4599767E-2,-6.630723E-3,-5.345984E-3,-9.325261E-4,3.4366278E-3,-5.608418E-3,-1.0843078E-4,7.919146E-3,1.568981E-2,2.2516284E-2,4.73043E-3,1.2441721E-2,-1.1183309E-2,-1.8257255E-2,-6.9167917E-3,-1.3325201E-2,-8.450866E-3,-6.138277E-3,-5.252644E-3,-1.1298261E-2,1.6409402E-3,-7.580677E-3,9.97124E-4,-2.8229682E-3,2.8759472E-3,1.17383E-2,-2.074256E-3,-4.6879947E-4,-5.3747447E-4,6.5157417E-4,9.595125E-3,5.8396063E-3,2.7905574E-2,1.4440427E-2,2.5498293E-2,1.5135692E-2,-4.0822406E-3,-1.346824E-3,-2.5921713E-3,-5.9529296E-3,-2.8220506E-3,-1.3487879E-4,-1.5242264E-3,-4.3124305E-3,-9.021655E-4,-3.1062767E-3,-1.3391844E-3,-5.08565E-3,-3.9745322E-3,-1.5536043E-3,-1.0857031E-3,1.9882203E-3,-2.5490718E-3,1.2325495E-3,-2.3653137E-3,5.3328E-4,-1.4518043E-3,3.0244625E-4,7.6213776E-4,3.4699887E-3,-5.82625E-4,5.1333616E-3,3.0057908E-3,-7.957101E-4,1.9250709E-3,2.3980737E-4,1.5470267E-3,9.251276E-3,6.7574234E-4,4.464095E-3,9.398461E-4,7.8097605E-3,-1.6493202E-4,5.139221E-3],"categories":[],"categories_nodes":[],"categories_segments":[],"categories_sizes":[],"default_left":[0,0,0,0,0,0,0,0,0,0,0,0,0,0,0,0,0,0,0,0,0,0,0,0,0,0,0,0,0,0,0,0,0,0,0,0,0,0,0,0,0,0,0,0,0,0,0,0,0,0,0,0,0,0,0,0,0,0,0,0,0,0,0,0,0,0,0,0,0,0,0,0,0,0,0,0,0,0,0,0,0,0,0,0,0,0,0,0,0,0,0,0,0],"id":8,"left_children":[1,3,5,7,9,11,13,15,17,19,21,23,25,27,29,-1,-1,31,33,35,37,39,41,43,45,47,49,51,53,-1,-1,55,57,59,61,63,-1,65,67,69,71,73,75,77,79,-1,-1,-1,-1,81,83,85,87,89,91,-1,-1,-1,-1,-1,-1,-1,-1,-1,-1,-1,-1,-1,-1,-1,-1,-1,-1,-1,-1,-1,-1,-1,-1,-1,-1,-1,-1,-1,-1,-1,-1,-1,-1,-1,-1,-1,-1],"loss_changes":[8.2224E-2,1.13102645E-2,2.3938105E-2,1.4377572E-3,2.855367E-3,1.4931788E-3,3.6173612E-3,5.0647557E-4,4.0633604E-4,9.4627775E-4,6.296275E-4,5.4149877E-4,3.1118514E-4,1.2152568E-3,1.078425E-3,0E0,0E0,6.9051795E-4,6.094072E-4,4.3976167E-4,1.291424E-3,6.6821184E-4,5.2811124E-4,7.994124E-4,2.6175156E-5,2.6920141E-5,3.6917068E-4,9.2484057E-4,8.025523E-4,0E0,0E0,4.581767E-4,4.995689E-4,3.9836066E-4,4.9806945E-4,7.247628E-5,0E0,1.4376147E-3,4.923013E-4,3.124985E-4,3.7762802E-4,5.131048E-4,5.688036E-4,4.6335522E-4,8.417687E-4,0E0,0E0,0E0,0E0,3.6945194E-4,1.6072462E-4,3.0787708E-4,4.0075183E-4,3.6053918E-4,5.726954E-4,0E0,0E0,0E0,0E0,0E0,0E0,0E0,0E0,0E0,0E0,0E0,0E0,0E0,0E0,0E0,0E0,0E0,0E0,0E0,0E0,0E0,0E0,0E0,0E0,0E0,0E0,0E0,0E0,0E0,0E0,0E0,0E0,0E0,0E0,0E0,0E0,0E0,0E0],"parents":[2147483647,0,0,1,1,2,2,3,3,4,4,5,5,6,6,7,7,8,8,9,9,10,10,11,11,12,12,13,13,14,14,17,17,18,18,19,19,20,20,21,21,22,22,23,23,24,24,25,25,26,26,27,27,28,28,31,31,32,32,33,33,34,34,35,35,37,37,38,38,39,39,40,40,41,41,42,42,43,43,44,44,49,49,50,50,51,51,52,52,53,53,54,54],"right_children":[2,4,6,8,10,12,14,16,18,20,22,24,26,28,30,-1,-1,32,34,36,38,40,42,44,46,48,50,52,54,-1,-1,56,58,60,62,64,-1,66,68,70,72,74,76,78,80,-1,-1,-1,-1,82,84,86,88,90,92,-1,-1,-1,-1,-1,-1,-1,-1,-1,-1,-1,-1,-1,-1,-1,-1,-1,-1,-1,-1,-1,-1,-1,-1,-1,-1,-1,-1,-1,-1,-1,-1,-1,-1,-1,-1,-1,-1],"split_conditions":[4.8720986E-1,2.937561E-1,6.3222665E-1,1.751414E-1,3.880744E-1,5.5710447E-1,8.3666337E-1,1.9098715E-1,2.1655093E-1,2.1655093E-1,3.8299656E-1,6.410476E-1,3.7536222E-1,6.0205793E-1,7.621202E-1,-1.00601185E-2,-4.8634754E-3,1.9947791E-1,2.310184E-1,2.0872559E-1,4.4490567E-1,3.2366264E-1,4.5649123E-1,6.223796E-1,5.899962E-1,3.9444128E-1,5.497213E-1,4.9486732E-1,8.282565E-1,4.73043E-3,1.2441721E-2,2.2982658E-1,1.8698521E-1,2.2728038E-1,2.2262746E-1,3.0381602E-1,-6.138277E-3,4.0722328E-1,5.0523406E-1,2.5041696E-1,4.0438315E-1,2.8582805E-1,4.7109887E-1,6.2740576E-1,5.8153355E-1,-2.074256E-3,-4.6879947E-4,-5.3747447E-4,6.5157417E-4,6.3845646E-1,6.3845646E-1,4.9856585E-1,4.7770268E-1,5.926424E-1,7.956563E-1,-4.0822406E-3,-1.346824E-3,-2.5921713E-3,-5.9529296E-3,-2.8220506E-3,-1.3487879E-4,-1.5242264E-3,-4.3124305E-3,-9.021655E-4,-3.1062767E-3,-1.3391844E-3,-5.08565E-3,-3.9745322E-3,-1.5536043E-3,-1.0857031E-3,1.9882203E-3,-2.5490718E-3,1.2325495E-3,-2.3653137E-3,5.3328E-4,-1.4518043E-3,3.0244625E-4,7.6213776E-4,3.4699887E-3,-5.82625E-4,5.1333616E-3,3.0057908E-3,-7.957101E-4,1.9250709E-3,2.3980737E-4,1.5470267E-3,9.251276E-3,6.7574234E-4,4.464095E-3,9.398461E-4,7.8097605E-3,-1.6493202E-4,5.139221E-3],"split_indices":[87,88,89,62,89,88,57,54,10,14,82,7,14,5,39,0,0,34,20,38,6,12,76,4,24,19,33,34,78,0,0,68,28,18,69,87,0,82,8,12,84,55,54,65,17,0,0,0,0,87,63,4,19,2,71,0,0,0,0,0,0,0,0,0,0,0,0,0,0,0,0,0,0,0,0,0,0,0,0,0,0,0,0,0,0,0,0,0,0,0,0,0,0],"split_type":[0,0,0,0,0,0,0,0,0,0,0,0,0,0,0,0,0,0,0,0,0,0,0,0,0,0,0,0,0,0,0,0,0,0,0,0,0,0,0,0,0,0,0,0,0,0,0,0,0,0,0,0,0,0,0,0,0,0,0,0,0,0,0,0,0,0,0,0,0,0,0,0,0,0,0,0,0,0,0,0,0,0,0,0,0,0,0,0,0,0,0,0,0],"sum_hessian":[1.048E3,5.85E2,4.63E2,1.76E2,4.09E2,3.1E2,1.53E2,1.3E1,1.63E2,2.25E2,1.84E2,1.84E2,1.26E2,1.39E2,1.4E1,5E0,8E0,7.4E1,8.9E1,1.6E1,2.09E2,4.1E1,1.43E2,1.78E2,6E0,5E0,1.21E2,8.6E1,5.3E1,4E0,1E1,3.1E1,4.3E1,2.4E1,6.5E1,9E0,7E0,1.63E2,4.6E1,1E1,3.1E1,7.1E1,7.2E1,1.68E2,1E1,4E0,2E0,3E0,2E0,6.5E1,5.6E1,6E0,8E1,3.6E1,1.7E1,2.2E1,9E0,7E0,3.6E1,1.7E1,7E0,8E0,5.7E1,3E0,6E0,1.54E2,9E0,3.4E1,1.2E1,5E0,5E0,2.9E1,2E0,5E0,6.6E1,4.7E1,2.5E1,1.63E2,5E0,3E0,7E0,6.3E1,2E0,5E1,6E0,1E0,5E0,3E0,7.7E1,1E0,3.5E1,2E0,1.5E1],"tree_param":{"num_deleted":"0","num_feature":"90","num_nodes":"93","size_leaf_vector":"1"}},{"base_weights":[5.948231E-5,-4.830226E-3,8.300552E-3,-8.386371E-3,-1.3023772E-3,4.9035996E-3,1.5840001E-2,-1.1994362E-2,-6.774207E-3,-2.9067614E-3,5.7091593E-4,3.492652E-3,7.033532E-3,1.466933E-2,9.842885E-3,-9.417043E-3,-1.6128253E-2,-1.0107792E-2,-5.926718E-3,-2.417921E-3,-8.495384E-3,3.855292E-3,-5.686825E-6,3.1525444E-3,1.3745582E-2,8.54379E-3,6.3538095E-3,8.2088895E-3,1.5783546E-2,-1.1567031E-2,-5.6003807E-3,-1.998539E-2,-9.138761E-3,-9.854564E-4,-1.1485959E-2,1.3091438E-3,-6.4361948E-3,-2.7111336E-3,7.565743E-3,-2.1873158E-3,-3.8859064E-3,-4.7082562E-4,9.526327E-3,-6.9565102E-3,4.3921138E-4,3.6239924E-3,-1.6778151E-3,2.0905335E-3,6.2456313E-3,5.043977E-3,9.317798E-3,1.1981319E-2,1.5241355E-3,1.6536469E-2,3.740779E-3,-2.2525128E-3,-4.984945E-3,2.700448E-5,-2.6420564E-3,-6.499641E-3,-1.976596E-3,-4.2746813E-4,-4.2369054E-3,1.4288061E-3,-1.9461707E-3,-2.2244947E-3,-4.7470476E-3,-6.358864E-4,1.6987921E-3,-1.72741E-3,-3.0661772E-3,-6.171025E-4,-1.9159936E-3,2.426997E-4,2.7158037E-3,-1.4993706E-3,3.5102965E-4,-7.178852E-4,1.040277E-3,1.043205E-3,3.4865947E-3,-2.4340153E-4,-2.6609034E-3,-1.3948266E-3,2.622301E-4,-1.9625678E-4,1.2678058E-3,-1.0598156E-3,8.215607E-4,-7.934868E-5,1.0200888E-3,-6.163672E-4,1.6104855E-3,2.9864481E-3,1.6176702E-5,3.9874124E-3,-3.64396E-4,1.3271142E-3,-7.444114E-4,5.327989E-3,3.2896015E-3,1.5470624E-3,4.0107967E-5],"categories":[],"categories_nodes":[],"categories_segments":[],"categories_sizes":[],"default_left":[0,0,0,0,0,0,0,0,0,0,0,0,0,0,0,0,0,0,0,0,0,0,0,0,0,0,0,0,0,0,0,0,0,0,0,0,0,0,0,0,0,0,0,0,0,0,0,0,0,0,0,0,0,0,0,0,0,0,0,0,0,0,0,0,0,0,0,0,0,0,0,0,0,0,0,0,0,0,0,0,0,0,0,0,0,0,0,0,0,0,0,0,0,0,0,0,0,0,0,0,0,0,0],"id":9,"left_children":[1,3,5,7,9,11,13,15,17,19,21,23,25,27,-1,29,31,33,35,37,39,41,43,45,47,-1,49,51,53,55,57,59,61,63,65,67,69,71,73,75,-1,77,79,81,83,85,87,89,-1,91,93,95,97,99,101,-1,-1,-1,-1,-1,-1,-1,-1,-1,-1,-1,-1,-1,-1,-1,-1,-1,-1,-1,-1,-1,-1,-1,-1,-1,-1,-1,-1,-1,-1,-1,-1,-1,-1,-1,-1,-1,-1,-1,-1,-1,-1,-1,-1,-1,-1,-1,-1],"loss_changes":[4.2311043E-2,8.256588E-3,9.936286E-3,1.8266179E-3,9.994794E-4,7.8985E-4,1.9224752E-3,9.135548E-4,5.870592E-4,4.684769E-4,2.9166412E-4,5.320376E-4,1.3788049E-3,6.9824234E-4,0E0,4.6038954E-4,8.148579E-4,5.5442564E-4,6.90429E-4,5.064491E-4,3.6533468E-4,5.687572E-4,4.1125334E-4,3.727196E-4,3.686695E-4,0E0,3.6064535E-4,4.6087638E-4,8.1766583E-4,6.949967E-4,4.5694545E-4,3.749272E-4,5.565947E-4,2.5227177E-4,5.71331E-4,2.0605516E-4,3.851424E-4,3.7635025E-4,4.29106E-5,7.1902155E-5,0E0,1.14279545E-4,8.6351996E-5,8.6857646E-5,2.8068782E-4,3.8137508E-4,1.3255305E-4,1.01529495E-5,0E0,1.8368778E-4,1.8240488E-4,2.2359402E-4,1.0389112E-4,4.2553432E-4,3.506642E-5,0E0,0E0,0E0,0E0,0E0,0E0,0E0,0E0,0E0,0E0,0E0,0E0,0E0,0E0,0E0,0E0,0E0,0E0,0E0,0E0,0E0,0E0,0E0,0E0,0E0,0E0,0E0,0E0,0E0,0E0,0E0,0E0,0E0,0E0,0E0,0E0,0E0,0E0,0E0,0E0,0E0,0E0,0E0,0E0,0E0,0E0,0E0,0E0],"parents":[2147483647,0,0,1,1,2,2,3,3,4,4,5,5,6,6,7,7,8,8,9,9,10,10,11,11,12,12,13,13,15,15,16,16,17,17,18,18,19,19,20,20,21,21,22,22,23,23,24,24,26,26,27,27,28,28,29,29,30,30,31,31,32,32,33,33,34,34,35,35,36,36,37,37,38,38,39,39,41,41,42,42,43,43,44,44,45,45,46,46,47,47,49,49,50,50,51,51,52,52,53,53,54,54],"right_children":[2,4,6,8,10,12,14,16,18,20,22,24,26,28,-1,30,32,34,36,38,40,42,44,46,48,-1,50,52,54,56,58,60,62,64,66,68,70,72,74,76,-1,78,80,82,84,86,88,90,-1,92,94,96,98,100,102,-1,-1,-1,-1,-1,-1,-1,-1,-1,-1,-1,-1,-1,-1,-1,-1,-1,-1,-1,-1,-1,-1,-1,-1,-1,-1,-1,-1,-1,-1,-1,-1,-1,-1,-1,-1,-1,-1,-1,-1,-1,-1,-1,-1,-1,-1,-1,-1],"split_conditions":[5.1524216E-1,3.6573777E-1,7.240326E-1,2.1178655E-1,4.4408193E-1,5.932056E-1,8.7983495E-1,2.3640744E-1,2.4417917E-1,4.7128224E-1,3.9612758E-1,6.410476E-1,4.8387128E-1,5.018804E-1,9.842885E-3,2.0068078E-1,1.9661155E-1,2.4785618E-1,2.2197646E-1,5.03959E-1,4.5467916E-1,3.6021733E-1,4.016471E-1,6.323369E-1,6.2528026E-1,8.54379E-3,5.5307996E-1,5.01602E-1,8.3251286E-1,2.1108228E-1,2.1108228E-1,2.3177677E-1,2.8582805E-1,2.755815E-1,2.687444E-1,2.7988368E-1,3.6161986E-1,4.3600532E-1,2.7733573E-1,4.3540487E-1,-3.8859064E-3,3.6586294E-1,3.1840128E-1,3.6231396E-1,3.688534E-1,3.7158045E-1,6.39118E-1,6.11332E-1,6.2456313E-3,3.7158045E-1,6.3729864E-1,5.230179E-1,5.270954E-1,8.315722E-1,8.315722E-1,-2.2525128E-3,-4.984945E-3,2.700448E-5,-2.6420564E-3,-6.499641E-3,-1.976596E-3,-4.2746813E-4,-4.2369054E-3,1.4288061E-3,-1.9461707E-3,-2.2244947E-3,-4.7470476E-3,-6.358864E-4,1.6987921E-3,-1.72741E-3,-3.0661772E-3,-6.171025E-4,-1.9159936E-3,2.426997E-4,2.7158037E-3,-1.4993706E-3,3.5102965E-4,-7.178852E-4,1.040277E-3,1.043205E-3,3.4865947E-3,-2.4340153E-4,-2.6609034E-3,-1.3948266E-3,2.622301E-4,-1.9625678E-4,1.2678058E-3,-1.0598156E-3,8.215607E-4,-7.934868E-5,1.0200888E-3,-6.163672E-4,1.6104855E-3,2.9864481E-3,1.6176702E-5,3.9874124E-3,-3.64396E-4,1.3271142E-3,-7.444114E-4,5.327989E-3,3.2896015E-3,1.5470624E-3,4.0107967E-5],"split_indices":[89,89,89,9,86,89,88,47,49,51,68,19,54,12,0,48,2,89,10,43,65,38,67,32,0,0,21,10,51,85,49,25,55,0,14,34,88,36,1,4,0,32,46,4,46,14,27,0,0,1,6,13,20,80,49,0,0,0,0,0,0,0,0,0,0,0,0,0,0,0,0,0,0,0,0,0,0,0,0,0,0,0,0,0,0,0,0,0,0,0,0,0,0,0,0,0,0,0,0,0,0,0,0],"split_type":[0,0,0,0,0,0,0,0,0,0,0,0,0,0,0,0,0,0,0,0,0,0,0,0,0,0,0,0,0,0,0,0,0,0,0,0,0,0,0,0,0,0,0,0,0,0,0,0,0,0,0,0,0,0,0,0,0,0,0,0,0,0,0,0,0,0,0,0,0,0,0,0,0,0,0,0,0,0,0,0,0,0,0,0,0,0,0,0,0,0,0,0,0,0,0,0,0,0,0,0,0,0,0],"sum_hessian":[1.048E3,6.58E2,3.9E2,3.27E2,3.31E2,2.7E2,1.2E2,9.9E1,2.28E2,1.78E2,1.53E2,1.64E2,1.06E2,1.14E2,6E0,6.3E1,3.6E1,4.4E1,1.84E2,1.65E2,1.3E1,2.2E1,1.31E2,1.6E2,4E0,2E0,1.04E2,1.8E1,9.6E1,3.9E1,2.4E1,2.2E1,1.4E1,6E0,3.8E1,1.2E1,1.72E2,1.61E2,4E0,6E0,7E0,1.3E1,9E0,7E0,1.24E2,1.46E2,1.4E1,2E0,2E0,7.4E1,3E1,1.1E1,7E0,9E1,6E0,2.3E1,1.6E1,9E0,1.5E1,1.9E1,3E0,6E0,8E0,3E0,3E0,2.1E1,1.7E1,7E0,5E0,1.48E2,2.4E1,1.38E2,2.3E1,1E0,3E0,3E0,3E0,9E0,4E0,3E0,6E0,2E0,5E0,9E0,1.15E2,1.8E1,1.28E2,1E1,4E0,1E0,1E0,3E0,7.1E1,2.8E1,2E0,1E1,1E0,4E0,3E0,7.2E1,1.8E1,4E0,2E0],"tree_param":{"num_deleted":"0","num_feature":"90","num_nodes":"103","size_leaf_vector":"1"}},{"base_weights":[4.813366E-5,-3.4388269E-3,5.9250104E-3,-6.2563703E-3,-9.6370693E-4,3.2211286E-3,1.0914535E-2,-1.2853012E-2,-5.728905E-3,-2.1362859E-3,3.3326217E-4,4.48484E-3,7.2930736E-4,1.01120705E-2,7.31186E-3,-9.25423E-3,-6.2722187E-3,-6.6800416E-3,-3.5727501E-3,-1.8676141E-3,-4.1480344E-3,3.7716804E-3,-1.8359812E-4,3.296231E-3,8.000487E-3,-3.3675134E-4,3.5417427E-3,1.6037667E-2,9.265951E-3,-1.0022997E-2,4.5690537E-4,-6.191983E-3,-1.6241275E-2,-1.798258E-3,-1.1086848E-2,-2.2474034E-3,3.700018E-3,7.0578605E-4,6.773412E-3,-7.9849764E-4,3.3464446E-3,2.9293757E-3,1.39364E-2,6.835032E-3,6.691754E-3,2.079059E-3,-9.367178E-4,6.088396E-3,9.1854425E-4,1.8943414E-2,9.933026E-4,7.261504E-3,1.28044E-2,-2.0830036E-4,-3.1795858E-3,-2.0674462E-3,-1.0189665E-3,-4.9893855E-4,-6.0506617E-3,2.3551339E-3,-6.949558E-4,-1.7429888E-4,-3.988981E-3,4.3509304E-4,-8.761332E-4,1.6221534E-3,-3.1982886E-4,1.4731426E-3,-6.0311035E-4,2.7991778E-3,5.5160344E-4,1.5999059E-3,-3.7781667E-4,1.8415563E-3,-4.1058363E-4,3.6513137E-3,7.807077E-4,8.6707773E-4,4.9965084E-3,2.4130757E-3,7.1898E-4,-4.0915704E-4,1.6152576E-3,2.2251785E-3,4.7290477E-4,9.274523E-4,-9.529496E-4,3.7756972E-3,6.9610686E-3,1.9024878E-3,4.3208245E-3,1.3528168E-3,4.313871E-3],"categories":[],"categories_nodes":[],"categories_segments":[],"categories_sizes":[],"default_left":[0,0,0,0,0,0,0,0,0,0,0,0,0,0,0,0,0,0,0,0,0,0,0,0,0,0,0,0,0,0,0,0,0,0,0,0,0,0,0,0,0,0,0,0,0,0,0,0,0,0,0,0,0,0,0,0,0,0,0,0,0,0,0,0,0,0,0,0,0,0,0,0,0,0,0,0,0,0,0,0,0,0,0,0,0,0,0,0,0,0,0,0,0],"id":10,"left_children":[1,3,5,7,9,11,13,15,17,19,21,23,25,27,-1,29,-1,31,33,35,-1,37,39,41,43,45,47,49,51,53,-1,55,57,59,61,63,65,67,69,71,73,75,77,-1,79,-1,81,83,85,87,-1,89,91,-1,-1,-1,-1,-1,-1,-1,-1,-1,-1,-1,-1,-1,-1,-1,-1,-1,-1,-1,-1,-1,-1,-1,-1,-1,-1,-1,-1,-1,-1,-1,-1,-1,-1,-1,-1,-1,-1,-1,-1],"loss_changes":[2.1516941E-2,4.589677E-3,5.2398574E-3,9.980528E-4,5.3603307E-4,7.9970993E-4,1.2331177E-3,4.4420944E-4,5.6471303E-4,5.552445E-4,2.99259E-4,6.798343E-4,2.620379E-4,5.0819945E-4,0E0,1.5611341E-4,0E0,8.2338974E-4,1.1800966E-3,3.931594E-4,0E0,1.976853E-4,3.217535E-4,4.5881048E-4,6.6011027E-4,2.8552682E-4,1.5473663E-4,4.9198535E-4,7.368596E-4,7.8557525E-5,0E0,3.4812093E-4,4.8177037E-4,3.882264E-4,3.8693543E-4,4.298052E-4,1.0340278E-4,1.4691884E-4,1.2165308E-4,3.627876E-4,2.9802677E-4,3.4609926E-4,7.198396E-5,0E0,2.1297601E-4,0E0,1.6933767E-4,6.0258637E-5,1.2549908E-4,3.298791E-5,0E0,4.1448185E-4,4.7086412E-4,0E0,0E0,0E0,0E0,0E0,0E0,0E0,0E0,0E0,0E0,0E0,0E0,0E0,0E0,0E0,0E0,0E0,0E0,0E0,0E0,0E0,0E0,0E0,0E0,0E0,0E0,0E0,0E0,0E0,0E0,0E0,0E0,0E0,0E0,0E0,0E0,0E0,0E0,0E0,0E0],"parents":[2147483647,0,0,1,1,2,2,3,3,4,4,5,5,6,6,7,7,8,8,9,9,10,10,11,11,12,12,13,13,15,15,17,17,18,18,19,19,21,21,22,22,23,23,24,24,25,25,26,26,27,27,28,28,29,29,31,31,32,32,33,33,34,34,35,35,36,36,37,37,38,38,39,39,40,40,41,41,42,42,44,44,46,46,47,47,48,48,49,49,51,51,52,52],"right_children":[2,4,6,8,10,12,14,16,18,20,22,24,26,28,-1,30,-1,32,34,36,-1,38,40,42,44,46,48,50,52,54,-1,56,58,60,62,64,66,68,70,72,74,76,78,-1,80,-1,82,84,86,88,-1,90,92,-1,-1,-1,-1,-1,-1,-1,-1,-1,-1,-1,-1,-1,-1,-1,-1,-1,-1,-1,-1,-1,-1,-1,-1,-1,-1,-1,-1,-1,-1,-1,-1,-1,-1,-1,-1,-1,-1,-1,-1],"split_conditions":[5.1524216E-1,3.5998702E-1,6.3152945E-1,1.8676879E-1,4.2957506E-1,5.599399E-1,8.7983495E-1,2.1081136E-1,3.4567216E-1,4.7444624E-1,3.8960063E-1,6.11332E-1,6.2768614E-1,5.2125365E-1,7.31186E-3,1.8666057E-1,-6.2722187E-3,3.5928673E-1,3.6630282E-1,4.4481754E-1,-4.1480344E-3,3.5998702E-1,5.4036134E-1,6.410476E-1,4.8387128E-1,5.01602E-1,5.15034E-1,5.838521E-1,6.223796E-1,6.621092E-2,4.5690537E-4,2.8659445E-1,3.266231E-1,3.2366264E-1,3.765684E-1,3.5070002E-1,5.160095E-1,3.9417037E-1,3.4446403E-1,2.9032925E-1,5.18604E-1,5.1649594E-1,6.2528026E-1,6.835032E-3,5.3314865E-1,2.079059E-3,6.533342E-1,6.3152945E-1,6.400127E-1,5.098493E-1,9.933026E-4,8.243039E-1,7.895136E-1,-2.0830036E-4,-3.1795858E-3,-2.0674462E-3,-1.0189665E-3,-4.9893855E-4,-6.0506617E-3,2.3551339E-3,-6.949558E-4,-1.7429888E-4,-3.988981E-3,4.3509304E-4,-8.761332E-4,1.6221534E-3,-3.1982886E-4,1.4731426E-3,-6.0311035E-4,2.7991778E-3,5.5160344E-4,1.5999059E-3,-3.7781667E-4,1.8415563E-3,-4.1058363E-4,3.6513137E-3,7.807077E-4,8.6707773E-4,4.9965084E-3,2.4130757E-3,7.1898E-4,-4.0915704E-4,1.6152576E-3,2.2251785E-3,4.7290477E-4,9.274523E-4,-9.529496E-4,3.7756972E-3,6.9610686E-3,1.9024878E-3,4.3208245E-3,1.3528168E-3,4.313871E-3],"split_indices":[89,85,70,61,82,54,88,76,36,76,65,81,58,40,0,4,0,59,83,87,0,28,72,19,54,34,2,0,0,17,0,39,35,33,60,80,0,74,35,5,86,89,0,0,42,0,26,66,58,44,0,44,57,0,0,0,0,0,0,0,0,0,0,0,0,0,0,0,0,0,0,0,0,0,0,0,0,0,0,0,0,0,0,0,0,0,0,0,0,0,0,0,0],"split_type":[0,0,0,0,0,0,0,0,0,0,0,0,0,0,0,0,0,0,0,0,0,0,0,0,0,0,0,0,0,0,0,0,0,0,0,0,0,0,0,0,0,0,0,0,0,0,0,0,0,0,0,0,0,0,0,0,0,0,0,0,0,0,0,0,0,0,0,0,0,0,0,0,0,0,0,0,0,0,0,0,0,0,0,0,0,0,0,0,0,0,0,0,0],"sum_hessian":[1.048E3,6.58E2,3.9E2,3.07E2,3.51E2,2.54E2,1.36E2,2.1E1,2.86E2,1.84E2,1.67E2,1.68E2,8.6E1,1.3E2,6E0,1.6E1,5E0,1.97E2,8.9E1,1.81E2,3E0,2.1E1,1.46E2,1.27E2,4.1E1,6.3E1,2.3E1,1.4E1,1.16E2,1.5E1,1E0,1.89E2,8E0,7.3E1,1.6E1,1.7E2,1.1E1,1.1E1,1E1,1.25E2,2.1E1,1.24E2,3E0,2E0,3.9E1,4E0,5.9E1,1.1E1,1.2E1,1.1E1,3E0,7.6E1,4E1,1E0,1.4E1,1.5E2,3.9E1,2E0,6E0,3E0,7E1,3E0,1.3E1,2.6E1,1.44E2,8E0,3E0,4E0,7E0,6E0,4E0,8E0,1.17E2,1.3E1,8E0,3E0,1.21E2,1E0,2E0,2.9E1,1E1,5.6E1,3E0,8E0,3E0,8E0,4E0,6E0,5E0,6.9E1,7E0,7E0,3.3E1],"tree_param":{"num_deleted":"0","num_feature":"90","num_nodes":"93","size_leaf_vector":"1"}},{"base_weights":[7.125355E-5,-2.1790212E-3,4.8112664E-3,-4.44875E-3,-4.4752588E-4,2.8469136E-3,7.971753E-3,-7.6476955E-3,-3.7538805E-3,-1.0151383E-3,2.1917808E-3,4.701663E-3,1.6693627E-3,7.2862576E-3,1.8878076E-2,8.848955E-4,-8.536427E-3,-3.4504675E-3,-9.1366125E-3,-2.2309968E-4,-2.789292E-3,7.1395678E-3,9.805808E-4,3.8774982E-3,4.936041E-3,8.90614E-4,5.2535147E-3,1.504864E-2,6.759566E-3,3.4549714E-3,7.4563688E-3,-6.626636E-4,8.952007E-4,-2.8696388E-3,-9.739714E-3,-4.390721E-3,-1.1563823E-3,-1.2734793E-2,-2.8162699E-3,-5.5373437E-4,4.5969984E-3,-7.3338617E-3,-1.8056694E-3,-8.342266E-4,9.390078E-3,-1.6167153E-3,3.0759266E-3,1.14224795E-2,3.3076021E-3,3.6081672E-3,2.6992097E-4,-1.2953281E-3,6.370672E-3,2.3040177E-4,5.190224E-3,5.343035E-3,9.455626E-3,-1.1643674E-3,-1.1458621E-4,-3.1334336E-3,-2.3488217E-4,-1.1497356E-3,-3.454482E-3,5.135946E-4,-1.27127E-3,-4.0543736E-3,-1.0914445E-3,1.20347744E-4,-1.3575823E-3,-3.248359E-4,6.190785E-4,1.8369817E-3,-1.0647565E-3,-3.4430714E-3,-5.7468214E-4,1.719468E-4,-1.1102541E-3,-4.632235E-4,1.9429922E-4,3.400759E-3,1.2680888E-4,7.78816E-5,-2.4681317E-3,2.3106963E-3,3.0602963E-4,8.767784E-4,3.8450407E-3,-1.2225554E-3,1.1046673E-3,1.3389913E-4,2.0176114E-3,1.0996494E-3,-9.205911E-5,2.2183936E-3,5.103797E-5,1.8904953E-3,3.5238976E-4,-4.0875972E-4,3.1184962E-3],"categories":[],"categories_nodes":[],"categories_segments":[],"categories_sizes":[],"default_left":[0,0,0,0,0,0,0,0,0,0,0,0,0,0,0,0,0,0,0,0,0,0,0,0,0,0,0,0,0,0,0,0,0,0,0,0,0,0,0,0,0,0,0,0,0,0,0,0,0,0,0,0,0,0,0,0,0,0,0,0,0,0,0,0,0,0,0,0,0,0,0,0,0,0,0,0,0,0,0,0,0,0,0,0,0,0,0,0,0,0,0,0,0,0,0,0,0,0,0],"id":11,"left_children":[1,3,5,7,9,11,13,15,17,19,21,23,25,27,29,31,33,35,37,39,41,43,45,47,-1,49,51,53,55,-1,-1,-1,-1,57,59,61,63,65,67,69,71,73,75,77,79,81,83,85,87,89,91,-1,93,-1,-1,95,97,-1,-1,-1,-1,-1,-1,-1,-1,-1,-1,-1,-1,-1,-1,-1,-1,-1,-1,-1,-1,-1,-1,-1,-1,-1,-1,-1,-1,-1,-1,-1,-1,-1,-1,-1,-1,-1,-1,-1,-1,-1,-1],"loss_changes":[1.1199465E-2,2.7961868E-3,2.075714E-3,6.5592956E-4,6.089568E-4,4.5080436E-4,8.2688406E-4,4.1704578E-4,3.8493797E-4,4.6871387E-4,4.244777E-4,7.207211E-4,3.581711E-4,4.0114904E-4,2.173218E-5,4.555627E-5,3.0616997E-4,5.190794E-4,2.59778E-4,3.7228203E-4,4.4718198E-4,2.590649E-4,3.2606465E-4,2.9330782E-4,0E0,1.8119682E-4,2.7343736E-4,2.1184317E-4,3.9630802E-4,0E0,0E0,0E0,0E0,2.3682609E-5,2.4442654E-4,6.399532E-4,6.435877E-4,7.5794524E-6,3.480695E-5,3.0409973E-4,2.0823229E-4,3.8207986E-4,3.8983466E-4,5.207734E-6,1.8714287E-4,3.370225E-4,3.0600827E-4,2.1799584E-5,2.1690578E-4,1.9412005E-4,1.7543277E-4,0E0,1.3207481E-4,0E0,0E0,3.0827336E-4,4.1048764E-4,0E0,0E0,0E0,0E0,0E0,0E0,0E0,0E0,0E0,0E0,0E0,0E0,0E0,0E0,0E0,0E0,0E0,0E0,0E0,0E0,0E0,0E0,0E0,0E0,0E0,0E0,0E0,0E0,0E0,0E0,0E0,0E0,0E0,0E0,0E0,0E0,0E0,0E0,0E0,0E0,0E0,0E0],"parents":[2147483647,0,0,1,1,2,2,3,3,4,4,5,5,6,6,7,7,8,8,9,9,10,10,11,11,12,12,13,13,14,14,15,15,16,16,17,17,18,18,19,19,20,20,21,21,22,22,23,23,25,25,26,26,27,27,28,28,33,33,34,34,35,35,36,36,37,37,38,38,39,39,40,40,41,41,42,42,43,43,44,44,45,45,46,46,47,47,48,48,49,49,50,50,52,52,55,55,56,56],"right_children":[2,4,6,8,10,12,14,16,18,20,22,24,26,28,30,32,34,36,38,40,42,44,46,48,-1,50,52,54,56,-1,-1,-1,-1,58,60,62,64,66,68,70,72,74,76,78,80,82,84,86,88,90,92,-1,94,-1,-1,96,98,-1,-1,-1,-1,-1,-1,-1,-1,-1,-1,-1,-1,-1,-1,-1,-1,-1,-1,-1,-1,-1,-1,-1,-1,-1,-1,-1,-1,-1,-1,-1,-1,-1,-1,-1,-1,-1,-1,-1,-1,-1,-1],"split_conditions":[5.2857876E-1,3.5998702E-1,6.451657E-1,2.2473413E-1,5.2587116E-1,5.281042E-1,8.6725885E-1,1.5651056E-1,3.6347058E-1,4.3540487E-1,4.9702027E-1,5.484E-1,6.3152945E-1,4.939667E-1,8.243039E-1,5.7330616E-2,1.751414E-1,3.6015022E-1,3.7194985E-1,5.0744754E-1,4.2074597E-1,4.902774E-1,5.423327E-1,3.7101322E-1,4.936041E-3,4.8443937E-1,4.9343896E-1,4.9856585E-1,8.087711E-1,3.4549714E-3,7.4563688E-3,-6.626636E-4,8.952007E-4,1.9631378E-1,2.123282E-1,3.5884413E-1,3.5889855E-1,4.902774E-1,4.8387128E-1,4.0129846E-1,4.5319742E-1,4.6313244E-1,4.8387128E-1,3.8299656E-1,5.168514E-1,5.680644E-1,6.0945976E-1,3.4278756E-1,3.3873692E-1,4.7582275E-1,5.4201305E-1,-1.2953281E-3,6.093473E-1,2.3040177E-4,5.190224E-3,8.315722E-1,7.7201253E-1,-1.1643674E-3,-1.1458621E-4,-3.1334336E-3,-2.3488217E-4,-1.1497356E-3,-3.454482E-3,5.135946E-4,-1.27127E-3,-4.0543736E-3,-1.0914445E-3,1.20347744E-4,-1.3575823E-3,-3.248359E-4,6.190785E-4,1.8369817E-3,-1.0647565E-3,-3.4430714E-3,-5.7468214E-4,1.719468E-4,-1.1102541E-3,-4.632235E-4,1.9429922E-4,3.400759E-3,1.2680888E-4,7.78816E-5,-2.4681317E-3,2.3106963E-3,3.0602963E-4,8.767784E-4,3.8450407E-3,-1.2225554E-3,1.1046673E-3,1.3389913E-4,2.0176114E-3,1.0996494E-3,-9.205911E-5,2.2183936E-3,5.103797E-5,1.8904953E-3,3.5238976E-4,-4.0875972E-4,3.1184962E-3],"split_indices":[87,85,84,86,32,61,85,38,84,53,73,64,70,33,20,13,50,49,76,83,73,61,61,6,0,22,36,4,55,0,0,0,0,61,6,28,74,12,13,40,4,15,66,0,54,53,21,1,31,29,83,0,33,0,0,80,63,0,0,0,0,0,0,0,0,0,0,0,0,0,0,0,0,0,0,0,0,0,0,0,0,0,0,0,0,0,0,0,0,0,0,0,0,0,0,0,0,0,0],"split_type":[0,0,0,0,0,0,0,0,0,0,0,0,0,0,0,0,0,0,0,0,0,0,0,0,0,0,0,0,0,0,0,0,0,0,0,0,0,0,0,0,0,0,0,0,0,0,0,0,0,0,0,0,0,0,0,0,0,0,0,0,0,0,0,0,0,0,0,0,0,0,0,0,0,0,0,0,0,0,0,0,0,0,0,0,0,0,0,0,0,0,0,0,0,0,0,0,0,0,0],"sum_hessian":[1.048E3,7.11E2,3.37E2,3.07E2,4.04E2,2.09E2,1.28E2,5.3E1,2.54E2,3.33E2,7.1E1,8E1,1.29E2,1.22E2,6E0,5E0,4.8E1,2.42E2,1.2E1,2.31E2,1.02E2,1.3E1,5.8E1,7.6E1,4E0,1.07E2,2.2E1,6E0,1.16E2,4E0,2E0,2E0,3E0,9E0,3.9E1,1.71E2,7.1E1,7E0,5E0,2.17E2,1.4E1,1.7E1,8.5E1,3E0,1E1,2.6E1,3.2E1,4E0,7.2E1,1.9E1,8.8E1,2E0,2E1,1E0,5E0,7.8E1,3.8E1,6E0,3E0,3.6E1,3E0,1.6E2,1.1E1,3.7E1,3.4E1,6E0,1E0,2E0,3E0,1.81E2,3.6E1,1.2E1,2E0,9E0,8E0,3.8E1,4.7E1,2E0,1E0,8E0,2E0,2.1E1,5E0,9E0,2.3E1,1E0,3E0,3E0,6.9E1,1E1,9E0,1.2E1,7.6E1,1.7E1,3E0,6.3E1,1.5E1,3E0,3.5E1],"tree_param":{"num_deleted":"0","num_feature":"90","num_nodes":"99","size_leaf_vector":"1"}},{"base_weights":[6.741402E-5,-1.450068E-3,3.7738294E-3,-3.1778174E-3,-2.0465805E-4,3.3377514E-3,1.1982155E-2,-5.715062E-3,-2.6246149E-3,-8.044928E-3,-1.1301616E-4,2.203739E-3,4.9353545E-3,9.5677376E-4,1.4658769E-2,-4.323901E-3,-1.3347646E-2,2.0950243E-3,-2.7269567E-3,-8.227528E-4,-3.1997114E-3,-4.3173092E-3,3.8852628E-5,1.5291916E-3,4.391515E-3,1.0740452E-2,4.4248076E-3,-1.0351539E-4,4.5171977E-4,3.016676E-3,5.7276324E-3,-2.690634E-3,-7.4222703E-3,-4.540159E-3,-1.2662039E-4,-2.9045898E-3,3.1427443E-3,-2.4063885E-3,-9.567307E-4,4.5098066E-3,-1.1656228E-4,1.7801997E-3,-3.2432675E-3,2.564302E-3,1.1379831E-2,3.344655E-3,4.164273E-3,7.860024E-3,3.7273476E-3,-1.4907189E-3,2.2693565E-4,-3.0788595E-3,2.638829E-4,-7.3632825E-4,-2.231365E-3,2.0372183E-3,-1.2125731E-4,4.1750912E-4,-9.341437E-4,1.5090407E-4,2.0039738E-3,2.7531476E-3,-5.574021E-5,-3.3592098E-4,6.5357453E-4,-1.3921947E-3,7.71153E-4,5.80826E-5,1.2286716E-3,4.0545943E-3,9.946764E-4,1.9583703E-4,1.2073041E-3,1.3363936E-3,3.4679756E-3,5.4347736E-4,1.6245891E-3],"categories":[],"categories_nodes":[],"categories_segments":[],"categories_sizes":[],"default_left":[0,0,0,0,0,0,0,0,0,0,0,0,0,0,0,0,0,0,0,0,0,0,0,0,0,0,0,0,0,0,0,0,0,0,0,0,0,0,0,0,0,0,0,0,0,0,0,0,0,0,0,0,0,0,0,0,0,0,0,0,0,0,0,0,0,0,0,0,0,0,0,0,0,0,0,0,0],"id":12,"left_children":[1,3,5,7,9,11,13,15,17,19,21,23,25,27,29,31,33,-1,35,-1,-1,37,39,41,43,45,47,-1,-1,-1,-1,49,51,-1,-1,53,55,-1,57,59,61,63,65,67,69,71,-1,73,75,-1,-1,-1,-1,-1,-1,-1,-1,-1,-1,-1,-1,-1,-1,-1,-1,-1,-1,-1,-1,-1,-1,-1,-1,-1,-1,-1,-1],"loss_changes":[5.9054876E-3,1.602408E-3,1.0517454E-3,4.2292662E-4,3.1091855E-4,5.1632896E-4,4.2863516E-4,5.262847E-4,2.7273537E-4,4.0231476E-5,2.7472313E-4,2.4711504E-4,3.0812854E-4,3.3781478E-6,5.290727E-5,2.2293167E-4,1.7831533E-4,0E0,2.7604774E-4,0E0,0E0,1.7903885E-4,2.8958448E-4,1.650978E-4,4.8158446E-4,1.626088E-4,2.3904676E-4,0E0,0E0,0E0,0E0,2.6293882E-4,3.863437E-4,0E0,0E0,4.898831E-4,1.0625804E-4,0E0,4.992523E-5,1.18372234E-4,2.6102847E-4,1.4916033E-4,6.879727E-5,1.1900274E-4,9.295717E-5,4.6914975E-6,0E0,1.7529645E-4,2.973912E-4,0E0,0E0,0E0,0E0,0E0,0E0,0E0,0E0,0E0,0E0,0E0,0E0,0E0,0E0,0E0,0E0,0E0,0E0,0E0,0E0,0E0,0E0,0E0,0E0,0E0,0E0,0E0,0E0],"parents":[2147483647,0,0,1,1,2,2,3,3,4,4,5,5,6,6,7,7,8,8,9,9,10,10,11,11,12,12,13,13,14,14,15,15,16,16,18,18,21,21,22,22,23,23,24,24,25,25,26,26,31,31,32,32,35,35,36,36,38,38,39,39,40,40,41,41,42,42,43,43,44,44,45,45,47,47,48,48],"right_children":[2,4,6,8,10,12,14,16,18,20,22,24,26,28,30,32,34,-1,36,-1,-1,38,40,42,44,46,48,-1,-1,-1,-1,50,52,-1,-1,54,56,-1,58,60,62,64,66,68,70,72,-1,74,76,-1,-1,-1,-1,-1,-1,-1,-1,-1,-1,-1,-1,-1,-1,-1,-1,-1,-1,-1,-1,-1,-1,-1,-1,-1,-1,-1,-1],"split_conditions":[5.4388523E-1,3.622398E-1,8.1596625E-1,1.8177395E-1,3.052317E-1,6.3152945E-1,7.2922856E-1,2.497552E-1,1.7070664E-1,3.4446403E-1,2.5069118E-1,5.990338E-1,4.9955943E-1,7.4277145E-1,7.825702E-1,1.6172923E-1,1.9358395E-1,2.0950243E-3,4.0965444E-1,-8.227528E-4,-3.1997114E-3,3.6281952E-1,2.5967658E-1,6.3444364E-1,6.2322694E-1,6.476961E-1,5.000011E-1,-1.0351539E-4,4.5171977E-4,3.016676E-3,5.7276324E-3,1.9631378E-1,1.9758491E-1,-4.540159E-3,-1.2662039E-4,3.7793905E-1,5.028164E-1,-2.4063885E-3,2.5117123E-1,2.4586397E-1,2.5892434E-1,4.7128224E-1,5.680644E-1,5.163437E-1,5.1649594E-1,5.3314865E-1,4.164273E-3,7.4409795E-1,7.713492E-1,-1.4907189E-3,2.2693565E-4,-3.0788595E-3,2.638829E-4,-7.3632825E-4,-2.231365E-3,2.0372183E-3,-1.2125731E-4,4.1750912E-4,-9.341437E-4,1.5090407E-4,2.0039738E-3,2.7531476E-3,-5.574021E-5,-3.3592098E-4,6.5357453E-4,-1.3921947E-3,7.71153E-4,5.80826E-5,1.2286716E-3,4.0545943E-3,9.946764E-4,1.9583703E-4,1.2073041E-3,1.3363936E-3,3.4679756E-3,5.4347736E-4,1.6245891E-3],"split_indices":[89,89,16,12,78,70,34,47,11,51,17,2,34,0,34,14,5,0,79,0,0,69,18,72,87,69,11,0,0,0,0,65,21,0,0,80,0,0,23,20,70,43,0,47,35,1,0,58,50,0,0,0,0,0,0,0,0,0,0,0,0,0,0,0,0,0,0,0,0,0,0,0,0,0,0,0,0],"split_type":[0,0,0,0,0,0,0,0,0,0,0,0,0,0,0,0,0,0,0,0,0,0,0,0,0,0,0,0,0,0,0,0,0,0,0,0,0,0,0,0,0,0,0,0,0,0,0,0,0,0,0,0,0,0,0,0,0,0,0,0,0,0,0,0,0,0,0,0,0,0,0,0,0,0,0,0,0],"sum_hessian":[1.048E3,7.44E2,3.04E2,3.11E2,4.33E2,2.9E2,1.4E1,5.4E1,2.57E2,4E0,4.29E2,1.71E2,1.19E2,3E0,1.1E1,4.7E1,7E0,2E0,2.55E2,2E0,2E0,1.4E1,4.15E2,1.32E2,3.9E1,8E0,1.11E2,1E0,2E0,7E0,4E0,3.2E1,1.5E1,6E0,1E0,2.48E2,7E0,6E0,8E0,1.3E1,4.02E2,1.26E2,6E0,3.2E1,7E0,3E0,5E0,1.7E1,9.4E1,1.9E1,1.3E1,1.1E1,4E0,2.27E2,2.1E1,3E0,4E0,4E0,4E0,5E0,8E0,2E0,4E2,1.5E1,1.11E2,5E0,1E0,1.3E1,1.9E1,5E0,2E0,1E0,2E0,1E1,7E0,4.5E1,4.9E1],"tree_param":{"num_deleted":"0","num_feature":"90","num_nodes":"77","size_leaf_vector":"1"}},{"base_weights":[6.4221575E-5,-1.5049853E-3,2.045883E-3,-3.0548542E-3,-7.8799337E-4,1.1521197E-3,4.170763E-3,-1.7248015E-3,-4.051801E-3,-3.218329E-3,-7.114751E-4,1.9790842E-3,8.169914E-5,3.7413011E-3,1.1612006E-2,-2.5805742E-3,1.6487293E-3,-7.077834E-3,-2.3704236E-3,2.8239645E-3,-9.049823E-4,1.6937705E-3,8.992238E-3,-1.689185E-3,8.7778E-4,7.4647944E-3,3.2319534E-3,1.9853034E-3,4.819566E-3,-2.028314E-3,-2.6406108E-3,5.489588E-3,-9.453378E-4,-8.337618E-3,-4.8767455E-4,2.0795134E-3,-2.8982738E-3,-1.3789071E-3,5.516417E-3,-1.0447836E-3,3.4693207E-3,-3.212295E-4,2.4345433E-3,9.0093614E-4,3.2361783E-3,-5.72747E-3,-7.945676E-4,4.2465255E-3,2.3333641E-4,9.166111E-3,1.4839321E-4,2.4332379E-3,5.9338715E-3,-9.029799E-4,6.6923763E-4,4.071564E-4,2.0613333E-3,-1.7149844E-3,4.6754035E-4,-2.6165475E-3,4.7829153E-4,1.0654137E-3,-8.440715E-4,-1.1871379E-3,4.355212E-5,-1.2850303E-3,5.404204E-4,6.231606E-4,2.2218828E-3,-1.5566092E-4,-8.6374633E-4,1.8475275E-3,-1.0345482E-3,1.4331586E-3,-6.885082E-4,-2.1869333E-3,7.925454E-4,-1.8974483E-3,-2.3189485E-4,4.0073178E-4,-4.8093288E-4,6.989342E-4,2.8242946E-3,-1.4170341E-3,2.0087743E-4,3.1320949E-3,1.2022868E-3,5.762069E-4,2.2724727E-3,-6.669313E-4,2.1283445E-3],"categories":[],"categories_nodes":[],"categories_segments":[],"categories_sizes":[],"default_left":[0,0,0,0,0,0,0,0,0,0,0,0,0,0,0,0,0,0,0,0,0,0,0,0,0,0,0,0,0,0,0,0,0,0,0,0,0,0,0,0,0,0,0,0,0,0,0,0,0,0,0,0,0,0,0,0,0,0,0,0,0,0,0,0,0,0,0,0,0,0,0,0,0,0,0,0,0,0,0,0,0,0,0,0,0,0,0,0,0,0,0],"id":13,"left_children":[1,3,5,7,9,11,13,15,17,-1,19,21,23,25,27,29,31,33,35,37,39,41,43,45,47,49,51,-1,-1,53,-1,55,57,59,61,-1,63,65,67,69,71,73,75,-1,-1,77,79,81,83,85,-1,87,89,-1,-1,-1,-1,-1,-1,-1,-1,-1,-1,-1,-1,-1,-1,-1,-1,-1,-1,-1,-1,-1,-1,-1,-1,-1,-1,-1,-1,-1,-1,-1,-1,-1,-1,-1,-1,-1,-1],"loss_changes":[3.265088E-3,6.487814E-4,8.7639573E-4,2.3831974E-4,2.9811813E-4,2.9018385E-4,3.943704E-4,2.3809967E-4,5.174525E-4,0E0,2.762089E-4,3.549449E-4,2.0448917E-4,2.2432255E-4,4.9371272E-5,2.0547805E-4,1.7456806E-4,3.031143E-4,3.5888923E-4,2.452433E-4,2.3600724E-4,2.6796764E-4,4.2858766E-5,1.5802158E-4,2.1610578E-4,1.733427E-4,2.3805501E-4,0E0,0E0,2.6174457E-4,0E0,3.063763E-5,1.40319E-4,1.3219868E-4,7.575302E-5,0E0,2.1326361E-4,9.085181E-5,6.911086E-5,3.5448812E-4,2.4446996E-4,5.040635E-4,2.833024E-4,0E0,0E0,1.8787803E-5,6.759522E-5,1.3655209E-4,1.869686E-4,3.703474E-5,0E0,2.2790348E-4,2.6191556E-4,0E0,0E0,0E0,0E0,0E0,0E0,0E0,0E0,0E0,0E0,0E0,0E0,0E0,0E0,0E0,0E0,0E0,0E0,0E0,0E0,0E0,0E0,0E0,0E0,0E0,0E0,0E0,0E0,0E0,0E0,0E0,0E0,0E0,0E0,0E0,0E0,0E0,0E0],"parents":[2147483647,0,0,1,1,2,2,3,3,4,4,5,5,6,6,7,7,8,8,10,10,11,11,12,12,13,13,14,14,15,15,16,16,17,17,18,18,19,19,20,20,21,21,22,22,23,23,24,24,25,25,26,26,29,29,31,31,32,32,33,33,34,34,36,36,37,37,38,38,39,39,40,40,41,41,42,42,45,45,46,46,47,47,48,48,49,49,51,51,52,52],"right_children":[2,4,6,8,10,12,14,16,18,-1,20,22,24,26,28,30,32,34,36,38,40,42,44,46,48,50,52,-1,-1,54,-1,56,58,60,62,-1,64,66,68,70,72,74,76,-1,-1,78,80,82,84,86,-1,88,90,-1,-1,-1,-1,-1,-1,-1,-1,-1,-1,-1,-1,-1,-1,-1,-1,-1,-1,-1,-1,-1,-1,-1,-1,-1,-1,-1,-1,-1,-1,-1,-1,-1,-1,-1,-1,-1,-1],"split_conditions":[4.8720986E-1,2.9685342E-1,6.3152945E-1,2.2669668E-1,1.5651056E-1,5.408019E-1,8.6725885E-1,2.78542E-1,2.6373962E-1,-3.218329E-3,2.7265725E-1,6.0863066E-1,5.426188E-1,5.2125365E-1,8.243039E-1,2.8791705E-1,2.871911E-1,2.802628E-1,2.2984344E-1,2.187308E-1,5.22744E-1,5.080478E-1,5.8569604E-1,5.274993E-1,5.5674803E-1,5.838521E-1,8.278643E-1,1.9853034E-3,4.819566E-3,2.2289868E-1,-2.6406108E-3,1.7698012E-1,1.9325893E-1,3.3522195E-1,2.7993783E-1,2.0795134E-3,3.3217812E-1,2.9288805E-1,2.546682E-1,4.4716135E-1,5.1903176E-1,4.6739626E-1,4.3765774E-1,9.0093614E-4,3.2361783E-3,6.3152945E-1,5.773713E-1,6.302098E-1,5.490057E-1,5.0830966E-1,1.4839321E-4,8.3933896E-1,7.2922856E-1,-9.029799E-4,6.6923763E-4,4.071564E-4,2.0613333E-3,-1.7149844E-3,4.6754035E-4,-2.6165475E-3,4.7829153E-4,1.0654137E-3,-8.440715E-4,-1.1871379E-3,4.355212E-5,-1.2850303E-3,5.404204E-4,6.231606E-4,2.2218828E-3,-1.5566092E-4,-8.6374633E-4,1.8475275E-3,-1.0345482E-3,1.4331586E-3,-6.885082E-4,-2.1869333E-3,7.925454E-4,-1.8974483E-3,-2.3189485E-4,4.0073178E-4,-4.8093288E-4,6.989342E-4,2.8242946E-3,-1.4170341E-3,2.0087743E-4,3.1320949E-3,1.2022868E-3,5.762069E-4,2.2724727E-3,-6.669313E-4,2.1283445E-3],"split_indices":[87,89,70,42,30,56,85,82,45,0,71,30,75,40,20,68,82,12,39,14,66,83,17,59,74,0,69,0,0,37,0,26,4,70,11,0,34,82,73,53,63,82,78,0,0,1,34,36,77,21,0,58,50,0,0,0,0,0,0,0,0,0,0,0,0,0,0,0,0,0,0,0,0,0,0,0,0,0,0,0,0,0,0,0,0,0,0,0,0,0,0],"split_type":[0,0,0,0,0,0,0,0,0,0,0,0,0,0,0,0,0,0,0,0,0,0,0,0,0,0,0,0,0,0,0,0,0,0,0,0,0,0,0,0,0,0,0,0,0,0,0,0,0,0,0,0,0,0,0,0,0,0,0,0,0,0,0,0,0,0,0,0,0,0,0,0,0,0,0,0,0,0,0,0,0,0,0,0,0,0,0,0,0,0,0],"sum_hessian":[1.048E3,5.85E2,4.63E2,1.84E2,4.01E2,3.27E2,1.36E2,8E1,1.04E2,2E0,3.99E2,1.84E2,1.43E2,1.3E2,6E0,6.4E1,1.6E1,3.6E1,6.8E1,2E1,3.79E2,1.78E2,6E0,4.4E1,9.9E1,1.4E1,1.16E2,4E0,2E0,6E1,4E0,6E0,1E1,3E1,6E0,3E0,6.5E1,8E0,1.2E1,3.68E2,1.1E1,4.8E1,1.3E2,2E0,4E0,7E0,3.7E1,1.5E1,8.4E1,1.1E1,3E0,9.1E1,2.5E1,4.9E1,1.1E1,2E0,4E0,3E0,7E0,2.9E1,1E0,2E0,4E0,4.8E1,1.7E1,4E0,4E0,5E0,7E0,2.87E2,8.1E1,8E0,3E0,1.3E1,3.5E1,2E0,1.28E2,6E0,1E0,1E1,2.7E1,1.2E1,3E0,6E0,7.8E1,8E0,3E0,8.4E1,7E0,3E0,2.2E1],"tree_param":{"num_deleted":"0","num_feature":"90","num_nodes":"91","size_leaf_vector":"1"}},{"base_weights":[5.946799E-5,-8.969398E-4,1.8466904E-3,-2.21236E-3,-4.3684855E-4,1.496624E-3,5.5813887E-3,-1.9827844E-3,-9.713208E-3,-4.6895645E-3,-3.332883E-4,6.3358787E-3,1.3287454E-3,3.8091242E-3,4.9775676E-3,-2.2973751E-3,1.2477245E-3,-3.866932E-3,4.4895711E-4,-1.8492109E-3,-2.9723907E-3,3.7815808E-3,-4.6038924E-4,-4.7484937E-4,9.503249E-3,-1.6219678E-3,1.55808E-3,9.742414E-4,7.507781E-3,-1.7191998E-3,-4.809976E-3,3.967881E-3,-1.3088286E-3,-9.5866836E-4,-9.93222E-4,6.702598E-3,3.8786605E-4,-2.9588956E-3,-2.7059013E-4,1.1106074E-2,9.38955E-4,4.212165E-3,-2.9994026E-3,7.122271E-3,1.3041536E-3,-8.107699E-4,5.4204226E-3,3.1021894E-3,1.4396333E-3,-1.3634649E-3,-3.3993184E-4,-1.8612193E-3,-1.12496324E-4,3.2561124E-4,1.2673847E-3,-1.2274571E-3,2.2933187E-4,-3.9776447E-4,-8.127094E-6,3.1649173E-4,2.2076075E-3,6.1598537E-4,-5.372621E-4,-3.7866866E-4,-2.4945852E-3,1.1548267E-4,-3.9672747E-4,1.2150705E-3,4.0864307E-3,1.5801498E-3,-1.1757016E-6,2.638323E-4,-1.4173745E-3,-5.897105E-4,2.4130235E-3,3.5176787E-4,1.9426806E-3,-7.820505E-4,3.3033578E-4,1.8653558E-3,3.3460557E-4],"categories":[],"categories_nodes":[],"categories_segments":[],"categories_sizes":[],"default_left":[0,0,0,0,0,0,0,0,0,0,0,0,0,0,0,0,0,0,0,0,0,0,0,0,0,0,0,0,0,0,0,0,0,0,0,0,0,0,0,0,0,0,0,0,0,0,0,0,0,0,0,0,0,0,0,0,0,0,0,0,0,0,0,0,0,0,0,0,0,0,0,0,0,0,0,0,0,0,0,0,0],"id":14,"left_children":[1,3,5,7,9,11,13,15,17,19,21,23,25,27,-1,29,31,-1,-1,33,-1,35,37,-1,39,41,43,45,47,49,51,53,55,57,-1,59,61,63,65,67,-1,69,71,73,75,77,79,-1,-1,-1,-1,-1,-1,-1,-1,-1,-1,-1,-1,-1,-1,-1,-1,-1,-1,-1,-1,-1,-1,-1,-1,-1,-1,-1,-1,-1,-1,-1,-1,-1,-1],"loss_changes":[1.7947261E-3,4.1299948E-4,4.7015247E-4,2.8553716E-4,2.2216643E-4,2.6455004E-4,5.4171856E-4,1.7868436E-4,1.97332E-4,1.5954342E-4,2.6167388E-4,2.9093836E-4,2.2313156E-4,2.8627293E-4,0E0,2.2126111E-4,1.1646087E-4,0E0,0E0,8.540079E-6,0E0,1.4609679E-4,2.2824487E-4,0E0,4.696322E-5,2.0550129E-4,4.1881856E-4,1.3931494E-4,4.246802E-5,2.1014508E-4,1.7697364E-4,1.3350364E-6,5.5051176E-5,2.3586958E-6,0E0,2.1879736E-5,3.2705284E-5,2.9849636E-4,3.1078933E-4,5.131791E-5,0E0,2.2260501E-5,1.3798897E-4,1.2463768E-4,1.9044173E-4,4.751083E-5,1.0229851E-5,0E0,0E0,0E0,0E0,0E0,0E0,0E0,0E0,0E0,0E0,0E0,0E0,0E0,0E0,0E0,0E0,0E0,0E0,0E0,0E0,0E0,0E0,0E0,0E0,0E0,0E0,0E0,0E0,0E0,0E0,0E0,0E0,0E0,0E0],"parents":[2147483647,0,0,1,1,2,2,3,3,4,4,5,5,6,6,7,7,8,8,9,9,10,10,11,11,12,12,13,13,15,15,16,16,19,19,21,21,22,22,24,24,25,25,26,26,27,27,28,28,29,29,30,30,31,31,32,32,33,33,35,35,36,36,37,37,38,38,39,39,41,41,42,42,43,43,44,44,45,45,46,46],"right_children":[2,4,6,8,10,12,14,16,18,20,22,24,26,28,-1,30,32,-1,-1,34,-1,36,38,-1,40,42,44,46,48,50,52,54,56,58,-1,60,62,64,66,68,-1,70,72,74,76,78,80,-1,-1,-1,-1,-1,-1,-1,-1,-1,-1,-1,-1,-1,-1,-1,-1,-1,-1,-1,-1,-1,-1,-1,-1,-1,-1,-1,-1,-1,-1,-1,-1,-1,-1],"split_conditions":[5.178863E-1,2.937561E-1,8.310266E-1,3.9148185E-1,2.388195E-1,4.8542777E-1,8.2221967E-1,3.256459E-1,5.043911E-1,2.4785618E-1,2.1992043E-1,3.7536222E-1,4.7224504E-1,8.0418324E-1,4.9775676E-3,2.7233103E-1,3.5884413E-1,-3.866932E-3,4.4895711E-4,2.2723919E-1,-2.9723907E-3,2.5575516E-1,2.5037476E-1,-4.7484937E-4,5.1827264E-1,3.55863E-1,4.904247E-1,8.606756E-1,7.248066E-1,1.8676879E-1,2.7446616E-1,2.2982658E-1,4.009922E-1,2.187308E-1,-9.93222E-4,1.7464118E-1,2.4384111E-1,3.7615266E-1,4.0722328E-1,3.9417037E-1,9.38955E-4,3.7128583E-1,4.263458E-1,3.8038835E-1,8.290575E-1,8.385057E-1,7.4277145E-1,3.1021894E-3,1.4396333E-3,-1.3634649E-3,-3.3993184E-4,-1.8612193E-3,-1.12496324E-4,3.2561124E-4,1.2673847E-3,-1.2274571E-3,2.2933187E-4,-3.9776447E-4,-8.127094E-6,3.1649173E-4,2.2076075E-3,6.1598537E-4,-5.372621E-4,-3.7866866E-4,-2.4945852E-3,1.1548267E-4,-3.9672747E-4,1.2150705E-3,4.0864307E-3,1.5801498E-3,-1.1757016E-6,2.638323E-4,-1.4173745E-3,-5.897105E-4,2.4130235E-3,3.5176787E-4,1.9426806E-3,-7.820505E-4,3.3033578E-4,1.8653558E-3,3.3460557E-4],"split_indices":[74,88,83,64,59,81,34,40,0,61,6,2,49,55,0,32,40,0,0,59,0,59,7,0,71,5,53,85,8,61,9,6,14,59,0,1,52,77,0,58,0,0,51,11,0,87,0,0,0,0,0,0,0,0,0,0,0,0,0,0,0,0,0,0,0,0,0,0,0,0,0,0,0,0,0,0,0,0,0,0,0],"split_type":[0,0,0,0,0,0,0,0,0,0,0,0,0,0,0,0,0,0,0,0,0,0,0,0,0,0,0,0,0,0,0,0,0,0,0,0,0,0,0,0,0,0,0,0,0,0,0,0,0,0,0,0,0,0,0,0,0,0,0,0,0,0,0,0,0,0,0,0,0,0,0,0,0,0,0,0,0,0,0,0,0],"sum_hessian":[1.048E3,6.83E2,3.65E2,1.76E2,5.07E2,3.35E2,3E1,1.72E2,4E0,1.1E1,4.96E2,1E1,3.25E2,2.7E1,3E0,1.57E2,1.5E1,3E0,1E0,8E0,3E0,1.4E1,4.82E2,3E0,7E0,2.3E1,3.02E2,1.6E1,1.1E1,1.29E2,2.8E1,7E0,8E0,6E0,2E0,7E0,7E0,3.3E1,4.49E2,5E0,2E0,4E0,1.9E1,1.2E1,2.9E2,1.2E1,4E0,4E0,7E0,2.1E1,1.08E2,2.1E1,7E0,1E0,6E0,3E0,5E0,4E0,2E0,1E0,6E0,4E0,3E0,2.6E1,7E0,2.77E2,1.72E2,2E0,3E0,3E0,1E0,6E0,1.3E1,1E0,1.1E1,2.84E2,6E0,6E0,6E0,3E0,1E0],"tree_param":{"num_deleted":"0","num_feature":"90","num_nodes":"81","size_leaf_vector":"1"}},{"base_weights":[5.130264E-5,-1.1081955E-3,9.378915E-4,-1.2077601E-3,5.436476E-3,5.0097035E-4,2.3948906E-3,-8.4176724E-4,-2.9929385E-3,-1.0281702E-3,2.4683906E-3,4.570037E-3,3.3412833E-4,-1.5350402E-3,2.5440773E-3,-1.1936256E-3,2.2112124E-3,-1.270332E-3,-6.456243E-3,3.5534354E-4,-8.1802014E-4,-8.7966524E-5,8.305237E-3,-3.9209705E-3,5.031484E-4,4.807083E-3,1.7039543E-3,-1.4874137E-3,1.1494332E-3,4.8864265E-3,-3.1451526E-4,-2.34759E-3,3.4889102E-3,-1.5890707E-3,-9.595086E-3,3.3039823E-3,-2.3346047E-3,9.070499E-3,2.126813E-4,-1.0454763E-3,-7.879466E-3,4.025096E-3,3.1973943E-4,5.851209E-3,-3.5446882E-4,-1.0167015E-3,2.884474E-3,-3.2557047E-4,-1.4088999E-3,6.690939E-4,-1.9291305E-3,-1.6325315E-4,2.6656282E-3,8.580278E-4,-7.464382E-4,-1.2958586E-3,7.6059264E-4,1.6037208E-3,-7.876784E-4,-1.3455391E-3,2.1196605E-4,-3.2862378E-3,-1.5226603E-4,1.1982203E-3,1.8505902E-4,-1.2747796E-3,-9.448752E-5,7.373125E-4,2.8769653E-3,-1.495497E-3,3.164895E-4,-8.210898E-4,-2.8167218E-3,5.435782E-4,2.7768093E-3,-5.997021E-5,4.236339E-4,2.389023E-3,1.2001991E-3,-9.555996E-4,1.3445378E-3,7.670588E-5,-2.3052765E-3,1.899767E-3,4.1357699E-4],"categories":[],"categories_nodes":[],"categories_segments":[],"categories_sizes":[],"default_left":[0,0,0,0,0,0,0,0,0,0,0,0,0,0,0,0,0,0,0,0,0,0,0,0,0,0,0,0,0,0,0,0,0,0,0,0,0,0,0,0,0,0,0,0,0,0,0,0,0,0,0,0,0,0,0,0,0,0,0,0,0,0,0,0,0,0,0,0,0,0,0,0,0,0,0,0,0,0,0,0,0,0,0,0,0],"id":15,"left_children":[1,3,5,7,9,11,13,15,17,19,-1,21,23,-1,25,27,29,31,33,-1,-1,35,37,39,41,43,45,47,49,51,53,55,57,59,61,63,65,67,-1,69,71,73,75,77,79,81,83,-1,-1,-1,-1,-1,-1,-1,-1,-1,-1,-1,-1,-1,-1,-1,-1,-1,-1,-1,-1,-1,-1,-1,-1,-1,-1,-1,-1,-1,-1,-1,-1,-1,-1,-1,-1,-1,-1],"loss_changes":[1.0794094E-3,3.0305196E-4,3.7757342E-4,2.9084046E-4,1.3478183E-4,3.1008414E-4,1.6654568E-4,4.043964E-4,4.4520764E-4,1.450473E-5,0E0,3.139049E-4,3.1985797E-4,0E0,2.484714E-4,2.3299945E-4,2.6505446E-4,2.7479095E-4,3.6668498E-4,0E0,0E0,7.629783E-5,5.170121E-5,1.8526692E-4,2.7389062E-4,1.9608921E-4,3.2411143E-4,3.8078072E-4,3.2567306E-4,4.1745795E-4,1.5202395E-4,4.2498868E-4,1.2757143E-4,7.629989E-5,1.7969497E-4,4.95357E-6,2.186327E-5,7.3421397E-6,0E0,9.628088E-5,2.8644485E-5,2.2634448E-4,2.3074457E-4,8.540286E-5,1.1011154E-4,2.6495988E-4,3.547389E-4,0E0,0E0,0E0,0E0,0E0,0E0,0E0,0E0,0E0,0E0,0E0,0E0,0E0,0E0,0E0,0E0,0E0,0E0,0E0,0E0,0E0,0E0,0E0,0E0,0E0,0E0,0E0,0E0,0E0,0E0,0E0,0E0,0E0,0E0,0E0,0E0,0E0,0E0],"parents":[2147483647,0,0,1,1,2,2,3,3,4,4,5,5,6,6,7,7,8,8,9,9,11,11,12,12,14,14,15,15,16,16,17,17,18,18,21,21,22,22,23,23,24,24,25,25,26,26,27,27,28,28,29,29,30,30,31,31,32,32,33,33,34,34,35,35,36,36,37,37,39,39,40,40,41,41,42,42,43,43,44,44,45,45,46,46],"right_children":[2,4,6,8,10,12,14,16,18,20,-1,22,24,-1,26,28,30,32,34,-1,-1,36,38,40,42,44,46,48,50,52,54,56,58,60,62,64,66,68,-1,70,72,74,76,78,80,82,84,-1,-1,-1,-1,-1,-1,-1,-1,-1,-1,-1,-1,-1,-1,-1,-1,-1,-1,-1,-1,-1,-1,-1,-1,-1,-1,-1,-1,-1,-1,-1,-1,-1,-1,-1,-1,-1,-1],"split_conditions":[4.0636808E-1,5.2125365E-1,6.3152945E-1,3.789827E-1,4.5319742E-1,3.942801E-1,4.7770268E-1,3.6907193E-1,3.9213848E-1,4.6055442E-1,2.4683906E-3,3.9361355E-1,3.256902E-1,-1.5350402E-3,5.4267377E-1,4.4801247E-1,3.55863E-1,3.870388E-1,3.7653366E-1,3.5534354E-4,-8.1802014E-4,3.6265403E-1,4.4716135E-1,4.4408193E-1,3.4641498E-1,8.269236E-1,7.918379E-1,3.757715E-1,5.2114594E-1,3.7430188E-1,3.5771093E-1,3.6281952E-1,3.8836056E-1,3.5998702E-1,5.045003E-1,3.5754544E-1,3.604907E-1,2.5689632E-1,2.126813E-4,2.916244E-1,4.2074597E-1,3.7615266E-1,5.4794705E-1,5.12059E-1,5.2043706E-1,8.2387984E-1,8.138632E-1,-3.2557047E-4,-1.4088999E-3,6.690939E-4,-1.9291305E-3,-1.6325315E-4,2.6656282E-3,8.580278E-4,-7.464382E-4,-1.2958586E-3,7.6059264E-4,1.6037208E-3,-7.876784E-4,-1.3455391E-3,2.1196605E-4,-3.2862378E-3,-1.5226603E-4,1.1982203E-3,1.8505902E-4,-1.2747796E-3,-9.448752E-5,7.373125E-4,2.8769653E-3,-1.495497E-3,3.164895E-4,-8.210898E-4,-2.8167218E-3,5.435782E-4,2.7768093E-3,-5.997021E-5,4.236339E-4,2.389023E-3,1.2001991E-3,-9.555996E-4,1.3445378E-3,7.670588E-5,-2.3052765E-3,1.899767E-3,4.1357699E-4],"split_indices":[80,7,70,84,24,75,19,84,43,0,0,77,37,0,27,29,62,69,88,0,0,14,0,65,38,84,71,17,27,86,59,41,9,85,38,0,7,25,0,39,0,24,1,17,5,83,71,0,0,0,0,0,0,0,0,0,0,0,0,0,0,0,0,0,0,0,0,0,0,0,0,0,0,0,0,0,0,0,0,0,0,0,0,0,0],"split_type":[0,0,0,0,0,0,0,0,0,0,0,0,0,0,0,0,0,0,0,0,0,0,0,0,0,0,0,0,0,0,0,0,0,0,0,0,0,0,0,0,0,0,0,0,0,0,0,0,0,0,0,0,0,0,0,0,0,0,0,0,0,0,0,0,0,0,0,0,0,0,0,0,0,0,0,0,0,0,0,0,0,0,0,0,0],"sum_hessian":[1.048E3,4.54E2,5.94E2,4.48E2,6E0,4.58E2,1.36E2,3.73E2,7.5E1,2E0,4E0,1.7E1,4.41E2,2E0,1.34E2,3.35E2,3.8E1,5.1E1,2.4E1,1E0,1E0,8E0,9E0,1.6E1,4.25E2,3.5E1,9.9E1,2.98E2,3.7E1,1.8E1,2E1,4.2E1,9E0,1E1,1.4E1,3E0,5E0,8E0,1E0,1E1,6E0,2E1,4.05E2,2.9E1,6E0,3E1,6.9E1,2.66E2,3.2E1,3.3E1,4E0,8E0,1E1,8E0,1.2E1,3E1,1.2E1,7E0,2E0,4E0,6E0,1.2E1,2E0,2E0,1E0,2E0,3E0,1E0,7E0,3E0,7E0,2E0,4E0,1.5E1,5E0,2.75E2,1.3E2,1.2E1,1.7E1,4E0,2E0,2.6E1,4E0,2E1,4.9E1],"tree_param":{"num_deleted":"0","num_feature":"90","num_nodes":"85","size_leaf_vector":"1"}},{"base_weights":[3.835998E-5,-6.857495E-4,7.962712E-4,-5.845039E-4,-5.0665364E-3,-3.7346E-3,9.122493E-4,-2.6358338E-3,-4.2390055E-4,8.107335E-4,-6.018484E-3,-6.1054975E-3,4.9029786E-5,5.7134354E-3,7.7264104E-4,-9.510363E-4,-6.206976E-3,-4.912562E-4,4.2841947E-3,-2.0931032E-3,-7.790432E-4,-2.948061E-4,-2.0090833E-3,-8.856655E-4,6.863125E-4,8.379822E-3,3.301018E-3,-3.6703576E-3,8.923602E-4,2.2357528E-3,-1.7769317E-3,-9.272829E-3,-1.5956511E-3,-1.5770076E-4,-1.545197E-3,1.6503114E-3,2.4841726E-4,3.0735324E-3,9.298504E-4,1.3012076E-3,4.8134208E-4,-3.7763716E-4,-4.2679487E-3,5.484432E-3,7.8204874E-4,-1.2852922E-4,8.562828E-4,-1.1832924E-3,-2.7223502E-4,-8.107335E-4,-2.9752457E-3,2.3012684E-4,-1.2642264E-3,-1.3540164E-4,8.5105415E-4,-2.0826305E-3,-2.9116907E-4,-2.0849258E-4,-1.376318E-3,2.2600573E-3,4.541874E-6,1.7565374E-4,1.056303E-3],"categories":[],"categories_nodes":[],"categories_segments":[],"categories_sizes":[],"default_left":[0,0,0,0,0,0,0,0,0,0,0,0,0,0,0,0,0,0,0,0,0,0,0,0,0,0,0,0,0,0,0,0,0,0,0,0,0,0,0,0,0,0,0,0,0,0,0,0,0,0,0,0,0,0,0,0,0,0,0,0,0,0,0],"id":16,"left_children":[1,3,5,7,9,11,13,15,17,-1,19,21,23,25,27,29,31,33,35,-1,-1,-1,-1,-1,-1,37,39,41,43,45,47,49,51,53,55,-1,-1,-1,-1,-1,-1,-1,57,59,61,-1,-1,-1,-1,-1,-1,-1,-1,-1,-1,-1,-1,-1,-1,-1,-1,-1,-1],"loss_changes":[5.7624845E-4,2.3521713E-4,2.729792E-4,1.7217362E-4,1.05012616E-4,1.16917145E-4,3.3139854E-4,2.2272972E-4,1.5717468E-4,0E0,1.795945E-5,1.7657963E-5,4.7066784E-5,6.239218E-5,2.6284848E-4,7.5035554E-5,1.5485552E-4,1.6955382E-4,2.4883877E-5,0E0,0E0,0E0,0E0,0E0,0E0,2.7341099E-5,8.864605E-6,1.33622525E-5,2.3683262E-4,1.1110007E-5,3.7879596E-5,2.8479844E-6,4.03527E-5,3.2486758E-4,3.5300635E-4,0E0,0E0,0E0,0E0,0E0,0E0,0E0,8.2372135E-6,1.2316389E-4,2.4878868E-4,0E0,0E0,0E0,0E0,0E0,0E0,0E0,0E0,0E0,0E0,0E0,0E0,0E0,0E0,0E0,0E0,0E0,0E0],"parents":[2147483647,0,0,1,1,2,2,3,3,4,4,5,5,6,6,7,7,8,8,10,10,11,11,12,12,13,13,14,14,15,15,16,16,17,17,18,18,25,25,26,26,27,27,28,28,29,29,30,30,31,31,32,32,33,33,34,34,42,42,43,43,44,44],"right_children":[2,4,6,8,10,12,14,16,18,-1,20,22,24,26,28,30,32,34,36,-1,-1,-1,-1,-1,-1,38,40,42,44,46,48,50,52,54,56,-1,-1,-1,-1,-1,-1,-1,58,60,62,-1,-1,-1,-1,-1,-1,-1,-1,-1,-1,-1,-1,-1,-1,-1,-1,-1,-1],"split_conditions":[4.5554426E-1,5.18604E-1,3.256902E-1,1.6590701E-1,3.3305255E-1,3.738119E-1,3.7128583E-1,2.1992043E-1,5.2395856E-1,8.107335E-4,5.0357753E-1,3.9685357E-1,4.237732E-1,3.815408E-1,3.758259E-1,6.621092E-2,1.872015E-1,3.8836056E-1,5.1993465E-1,-2.0931032E-3,-7.790432E-4,-2.948061E-4,-2.0090833E-3,-8.856655E-4,6.863125E-4,3.6889288E-1,4.6471325E-1,3.4347183E-1,3.8533002E-1,1.6638024E-1,1.820097E-1,4.932762E-2,1.9631378E-1,3.744032E-1,3.725058E-1,1.6503114E-3,2.4841726E-4,3.0735324E-3,9.298504E-4,1.3012076E-3,4.8134208E-4,-3.7763716E-4,3.3304483E-1,3.880744E-1,8.310266E-1,-1.2852922E-4,8.562828E-4,-1.1832924E-3,-2.7223502E-4,-8.107335E-4,-2.9752457E-3,2.3012684E-4,-1.2642264E-3,-1.3540164E-4,8.5105415E-4,-2.0826305E-3,-2.9116907E-4,-2.0849258E-4,-1.376318E-3,2.2600573E-3,4.541874E-6,1.7565374E-4,1.056303E-3],"split_indices":[74,54,37,16,4,27,41,76,12,0,61,0,3,51,39,17,9,46,10,0,0,0,0,0,0,6,80,32,48,46,74,0,21,46,49,0,0,0,0,0,0,0,18,44,83,0,0,0,0,0,0,0,0,0,0,0,0,0,0,0,0,0,0],"split_type":[0,0,0,0,0,0,0,0,0,0,0,0,0,0,0,0,0,0,0,0,0,0,0,0,0,0,0,0,0,0,0,0,0,0,0,0,0,0,0,0,0,0,0,0,0,0,0,0,0,0,0,0,0,0,0,0,0,0,0,0,0,0,0],"sum_hessian":[1.048E3,5.36E2,5.12E2,5.25E2,1.1E1,1.2E1,5E2,3.7E1,4.88E2,1E0,1E1,7E0,5E0,1.3E1,4.87E2,2.6E1,1.1E1,4.82E2,6E0,7E0,3E0,1E0,6E0,2E0,3E0,5E0,8E0,1.2E1,4.75E2,5E0,2.1E1,6E0,5E0,3.67E2,1.15E2,4E0,2E0,3E0,2E0,4E0,4E0,3E0,9E0,1E1,4.65E2,1E0,4E0,5E0,1.6E1,1E0,5E0,3E0,2E0,3.35E2,3.2E1,1E1,1.05E2,1E0,8E0,7E0,3E0,4.35E2,3E1],"tree_param":{"num_deleted":"0","num_feature":"90","num_nodes":"63","size_leaf_vector":"1"}},{"base_weights":[2.4416284E-5,-4.561879E-4,6.90653E-4,-4.206285E-4,-2.2532495E-3,-2.0880841E-3,8.279454E-4,-1.3789751E-3,-2.1319924E-4,-2.7355717E-3,4.0428937E-4,6.526973E-3,7.1554794E-4,-9.1802893E-4,-5.8044447E-3,2.795251E-3,-3.7042788E-4,-3.644492E-3,3.5651922E-4,9.2393166E-4,2.3938017E-3,3.2698475E-3,5.565255E-4,-1.603273E-3,3.3569005E-3,-2.6417873E-3,-1.0417402E-3,-2.7326772E-3,4.6847374E-3,-4.421856E-3,-2.4738818E-4,-1.8826127E-4,-4.095023E-3,-6.859303E-5,4.045755E-4,-3.965482E-3,4.4922987E-3,-4.252503E-3,6.6837034E-4,-2.3318808E-4,-1.404137E-3,1.2485386E-3,4.770227E-4,-7.496208E-4,2.2875072E-4,-1.3231986E-3,-1.1145697E-4,1.7327855E-3,1.422447E-4,7.7198225E-4,-1.9690658E-3,1.8147074E-4,-2.3109985E-4,-5.450093E-4,-1.3957829E-3,-1.8331319E-3,3.704086E-4,2.1146666E-3,4.5819528E-4,4.5896173E-4,-1.5499603E-3,1.461005E-4,9.104987E-4],"categories":[],"categories_nodes":[],"categories_segments":[],"categories_sizes":[],"default_left":[0,0,0,0,0,0,0,0,0,0,0,0,0,0,0,0,0,0,0,0,0,0,0,0,0,0,0,0,0,0,0,0,0,0,0,0,0,0,0,0,0,0,0,0,0,0,0,0,0,0,0,0,0,0,0,0,0,0,0,0,0,0,0],"id":17,"left_children":[1,3,5,7,-1,9,11,13,15,17,-1,19,21,23,25,27,29,31,33,-1,-1,35,37,39,41,-1,43,45,47,49,51,-1,53,-1,-1,55,57,59,61,-1,-1,-1,-1,-1,-1,-1,-1,-1,-1,-1,-1,-1,-1,-1,-1,-1,-1,-1,-1,-1,-1,-1,-1],"loss_changes":[3.3620084E-4,1.4986465E-4,1.6958863E-4,1.20569806E-4,0E0,5.0402792E-5,2.6436336E-4,2.1498087E-4,2.3801572E-4,5.1887677E-5,0E0,1.5478232E-5,1.6593706E-4,2.9538962E-4,1.3377969E-4,2.739255E-4,2.366841E-4,1.6459438E-5,3.2109438E-6,0E0,0E0,2.3009023E-4,2.1260962E-4,2.1494726E-4,1.3291923E-5,0E0,1.5049161E-5,2.60952E-5,8.4559724E-5,2.2663004E-4,2.0727116E-4,0E0,6.7920046E-6,0E0,0E0,5.2161166E-5,1.4841915E-4,5.5471566E-5,1.6248848E-4,0E0,0E0,0E0,0E0,0E0,0E0,0E0,0E0,0E0,0E0,0E0,0E0,0E0,0E0,0E0,0E0,0E0,0E0,0E0,0E0,0E0,0E0,0E0,0E0],"parents":[2147483647,0,0,1,1,2,2,3,3,5,5,6,6,7,7,8,8,9,9,11,11,12,12,13,13,14,14,15,15,16,16,17,17,18,18,21,21,22,22,23,23,24,24,26,26,27,27,28,28,29,29,30,30,32,32,35,35,36,36,37,37,38,38],"right_children":[2,4,6,8,-1,10,12,14,16,18,-1,20,22,24,26,28,30,32,34,-1,-1,36,38,40,42,-1,44,46,48,50,52,-1,54,-1,-1,56,58,60,62,-1,-1,-1,-1,-1,-1,-1,-1,-1,-1,-1,-1,-1,-1,-1,-1,-1,-1,-1,-1,-1,-1,-1,-1],"split_conditions":[4.9500376E-1,5.512831E-1,3.8704914E-1,2.5600916E-1,-2.2532495E-3,4.2552164E-1,4.3540487E-1,2.6890713E-1,2.6890713E-1,5.423327E-1,4.0428937E-4,3.7128583E-1,4.939667E-1,2.7227104E-1,2.583274E-1,1.951551E-1,2.2197646E-1,3.7371802E-1,4.0504208E-1,9.2393166E-4,2.3938017E-3,4.3408862E-1,4.8971084E-1,2.4564946E-1,2.8409854E-1,-2.6417873E-3,1.6590701E-1,1.8666057E-1,3.0292517E-1,1.8177395E-1,3.4899175E-1,-1.8826127E-4,3.8502216E-1,-6.859303E-5,4.045755E-4,5.2395856E-1,5.081157E-1,4.6423328E-1,8.278643E-1,-2.3318808E-4,-1.404137E-3,1.2485386E-3,4.770227E-4,-7.496208E-4,2.2875072E-4,-1.3231986E-3,-1.1145697E-4,1.7327855E-3,1.422447E-4,7.7198225E-4,-1.9690658E-3,1.8147074E-4,-2.3109985E-4,-5.450093E-4,-1.3957829E-3,-1.8331319E-3,3.704086E-4,2.1146666E-3,4.5819528E-4,4.5896173E-4,-1.5499603E-3,1.461005E-4,9.104987E-4],"split_indices":[76,62,45,84,0,0,53,79,83,78,0,9,82,23,88,48,62,1,0,0,0,63,84,24,25,0,8,0,1,8,32,0,55,0,0,0,63,50,62,0,0,0,0,0,0,0,0,0,0,0,0,0,0,0,0,0,0,0,0,0,0,0,0],"split_type":[0,0,0,0,0,0,0,0,0,0,0,0,0,0,0,0,0,0,0,0,0,0,0,0,0,0,0,0,0,0,0,0,0,0,0,0,0,0,0,0,0,0,0,0,0,0,0,0,0,0,0,0,0,0,0,0,0,0,0,0,0,0,0],"sum_hessian":[1.048E3,6.09E2,4.39E2,6.07E2,2E0,2E1,4.19E2,1.07E2,5E2,1.7E1,3E0,7E0,4.12E2,9.8E1,9E0,2.4E1,4.76E2,1.3E1,4E0,3E0,4E0,2.3E1,3.89E2,8.5E1,1.3E1,5E0,4E0,6E0,1.8E1,1.3E1,4.63E2,2E0,1.1E1,3E0,1E0,3E0,2E1,8E0,3.81E2,6.8E1,1.7E1,8E0,5E0,2E0,2E0,3E0,3E0,1.4E1,4E0,3E0,1E1,1.76E2,2.87E2,3E0,8E0,2E0,1E0,1E1,1E1,1E0,7E0,3.55E2,2.6E1],"tree_param":{"num_deleted":"0","num_feature":"90","num_nodes":"63","size_leaf_vector":"1"}},{"base_weights":[1.4107991E-5,-6.201672E-4,3.2986823E-4,-5.141571E-4,-5.0745755E-3,5.4135225E-3,2.4097877E-4,-4.0619998E-4,-4.4634375E-3,-2.0841346E-3,1.0860861E-4,2.66893E-3,3.2640595E-3,-1.2170223E-3,4.1281228E-4,-7.328192E-4,9.3117537E-4,-1.5229516E-3,6.616563E-5,4.165462E-3,7.276734E-5,5.751975E-4,-4.2917375E-3,-4.8843976E-3,5.07971E-4,-4.470565E-4,-3.2775423E-3,4.3061376E-3,4.5777074E-4,1.3473884E-3,3.3157022E-4,-2.0762086E-4,2.4036616E-4,4.716722E-3,-8.2128827E-4,-5.9571015E-3,-2.9910935E-4,-6.3340794E-3,1.0927817E-3,3.6190439E-3,3.6277005E-4,-2.1450597E-4,4.2255982E-4,-1.4870891E-3,3.9921107E-4,7.323384E-4,1.9802332E-3,-2.1850086E-4,5.390918E-4,-7.826936E-4,2.6117084E-3,4.6399797E-4,-8.37894E-4,-7.564446E-4,-2.4679527E-3,-5.007893E-4,5.4928515E-4,-2.66679E-3,-7.536132E-4,-1.2356043E-5,5.041078E-4,4.0897727E-4,2.1952665E-3,1.2363911E-3,7.88623E-5],"categories":[],"categories_nodes":[],"categories_segments":[],"categories_sizes":[],"default_left":[0,0,0,0,0,0,0,0,0,0,0,0,0,0,0,0,0,0,0,0,0,0,0,0,0,0,0,0,0,0,0,0,0,0,0,0,0,0,0,0,0,0,0,0,0,0,0,0,0,0,0,0,0,0,0,0,0,0,0,0,0,0,0,0,0],"id":18,"left_children":[1,3,5,7,9,11,13,15,17,-1,-1,-1,19,21,23,25,27,-1,-1,29,31,33,35,37,39,41,43,45,47,-1,-1,-1,-1,49,51,53,55,57,59,61,63,-1,-1,-1,-1,-1,-1,-1,-1,-1,-1,-1,-1,-1,-1,-1,-1,-1,-1,-1,-1,-1,-1,-1,-1],"loss_changes":[2.1029712E-4,1.6219287E-4,3.1546562E-4,1.4399967E-4,8.39571E-5,6.0798106E-5,1.7337047E-4,1.4657776E-4,2.6964044E-5,0E0,0E0,0E0,2.5586633E-5,4.0473987E-4,3.139999E-4,1.9414807E-4,1.03478465E-4,0E0,0E0,2.0159205E-6,2.225944E-6,2.75702E-4,1.77746E-4,1.0223687E-4,2.733394E-4,1.21834026E-4,2.1555426E-4,1.8122868E-5,9.502655E-5,0E0,0E0,0E0,0E0,3.7337717E-4,1.7239887E-4,1.2739655E-4,2.9323646E-5,6.5564964E-5,2.0680923E-6,2.1528665E-4,2.1743515E-4,0E0,0E0,0E0,0E0,0E0,0E0,0E0,0E0,0E0,0E0,0E0,0E0,0E0,0E0,0E0,0E0,0E0,0E0,0E0,0E0,0E0,0E0,0E0,0E0],"parents":[2147483647,0,0,1,1,2,2,3,3,4,4,5,5,6,6,7,7,8,8,12,12,13,13,14,14,15,15,16,16,19,19,20,20,21,21,22,22,23,23,24,24,25,25,26,26,27,27,28,28,33,33,34,34,35,35,36,36,37,37,38,38,39,39,40,40],"right_children":[2,4,6,8,10,12,14,16,18,-1,-1,-1,20,22,24,26,28,-1,-1,30,32,34,36,38,40,42,44,46,48,-1,-1,-1,-1,50,52,54,56,58,60,62,64,-1,-1,-1,-1,-1,-1,-1,-1,-1,-1,-1,-1,-1,-1,-1,-1,-1,-1,-1,-1,-1,-1,-1,-1],"split_conditions":[3.5179833E-1,4.7109887E-1,3.1840128E-1,3.880744E-1,3.256459E-1,3.052317E-1,3.5363472E-1,3.7106448E-1,3.4300533E-1,-2.0841346E-3,1.0860861E-4,2.66893E-3,3.3873692E-1,3.3788896E-1,3.345996E-1,3.7650543E-1,3.6630282E-1,-1.5229516E-3,6.616563E-5,3.4746847E-1,3.1703764E-1,3.5748324E-1,4.4408193E-1,4.35442E-1,3.335719E-1,3.609934E-1,3.793635E-1,3.6231396E-1,3.6015022E-1,1.3473884E-3,3.3157022E-4,-2.0762086E-4,2.4036616E-4,3.824492E-1,3.2232234E-1,3.3522195E-1,5.0744754E-1,3.824492E-1,3.6466795E-1,3.622398E-1,3.5623136E-1,-2.1450597E-4,4.2255982E-4,-1.4870891E-3,3.9921107E-4,7.323384E-4,1.9802332E-3,-2.1850086E-4,5.390918E-4,-7.826936E-4,2.6117084E-3,4.6399797E-4,-8.37894E-4,-7.564446E-4,-2.4679527E-3,-5.007893E-4,5.4928515E-4,-2.66679E-3,-7.536132E-4,-1.2356043E-5,5.041078E-4,4.0897727E-4,2.1952665E-3,1.2363911E-3,7.88623E-5],"split_indices":[21,50,13,28,19,13,78,52,18,0,0,0,15,78,14,66,51,0,0,16,0,12,20,58,58,83,11,33,8,0,0,0,0,39,76,5,9,23,0,40,80,0,0,0,0,0,0,0,0,0,0,0,0,0,0,0,0,0,0,0,0,0,0,0,0],"split_type":[0,0,0,0,0,0,0,0,0,0,0,0,0,0,0,0,0,0,0,0,0,0,0,0,0,0,0,0,0,0,0,0,0,0,0,0,0,0,0,0,0,0,0,0,0,0,0,0,0,0,0,0,0,0,0,0,0,0,0,0,0,0,0,0,0],"sum_hessian":[1.048E3,3.48E2,7E2,3.41E2,7E0,1.1E1,6.89E2,3.33E2,8E0,5E0,2E0,3E0,8E0,7.2E1,6.17E2,2.68E2,6.5E1,7E0,1E0,6E0,2E0,4.6E1,2.6E1,1E1,6.07E2,2.42E2,2.6E1,7E0,5.8E1,5E0,1E0,1E0,1E0,1.1E1,3.5E1,1.8E1,8E0,8E0,2E0,2.6E1,5.81E2,2.12E2,3E1,1.9E1,7E0,5E0,2E0,3.1E1,2.7E1,4E0,7E0,1.6E1,1.9E1,8E0,1E1,5E0,3E0,4E0,4E0,1E0,1E0,1.7E1,9E0,1.4E1,5.67E2],"tree_param":{"num_deleted":"0","num_feature":"90","num_nodes":"65","size_leaf_vector":"1"}},{"base_weights":[1.2141079E-5,-3.790743E-5,3.464679E-3,-7.461809E-5,4.68415E-3,3.855449E-3,1.0319764E-3,-1.915283E-5,-3.019107E-3,5.1253266E-3,2.3938717E-4,1.9585093E-5,1.977101E-3,-2.0647915E-4,8.758412E-4,-2.4430317E-4,-6.0750777E-3,2.6635232E-4,1.7050804E-3,-7.1837305E-4,7.4187515E-4,-1.13432834E-4,-3.644037E-3,7.420476E-3,5.995792E-4,-9.929404E-4,1.3189837E-3,-4.7157207E-4,-2.2826137E-3,1.2987086E-3,-1.2541562E-4,-1.2258454E-5,-1.1943538E-3,-1.456283E-4,-1.5257079E-3,1.0215044E-4,3.0553096E-3,1.06106214E-4,1.136157E-3,-2.6956202E-5,6.5467716E-4,-4.283756E-4,2.1616818E-4,4.232526E-5,4.404396E-4],"categories":[],"categories_nodes":[],"categories_segments":[],"categories_sizes":[],"default_left":[0,0,0,0,0,0,0,0,0,0,0,0,0,0,0,0,0,0,0,0,0,0,0,0,0,0,0,0,0,0,0,0,0,0,0,0,0,0,0,0,0,0,0,0,0],"id":19,"left_children":[1,3,5,7,9,-1,11,13,15,17,-1,19,-1,21,23,25,27,-1,-1,-1,29,31,33,35,37,-1,39,41,-1,43,-1,-1,-1,-1,-1,-1,-1,-1,-1,-1,-1,-1,-1,-1,-1],"loss_changes":[1.8139264E-4,1.797666E-4,3.2926758E-4,1.6783188E-4,9.626179E-6,0E0,7.3025E-5,1.6951335E-4,1.596305E-4,1.1513621E-5,0E0,2.270118E-5,0E0,2.66983E-4,3.119568E-4,5.708036E-5,7.375551E-5,0E0,0E0,0E0,7.00179E-6,2.285976E-4,9.771105E-5,1.3351013E-4,1.3112395E-4,0E0,9.925781E-6,4.449178E-6,0E0,1.1657703E-6,0E0,0E0,0E0,0E0,0E0,0E0,0E0,0E0,0E0,0E0,0E0,0E0,0E0,0E0,0E0],"parents":[2147483647,0,0,1,1,2,2,3,3,4,4,6,6,7,7,8,8,9,9,11,11,13,13,14,14,15,15,16,16,20,20,21,21,22,22,23,23,24,24,26,26,27,27,29,29],"right_children":[2,4,6,8,10,-1,12,14,16,18,-1,20,-1,22,24,26,28,-1,-1,-1,30,32,34,36,38,-1,40,42,-1,44,-1,-1,-1,-1,-1,-1,-1,-1,-1,-1,-1,-1,-1,-1,-1],"split_conditions":[8.2327104E-1,8.476761E-1,6.0322785E-1,7.9632044E-1,8.150807E-1,3.855449E-3,8.1596625E-1,5.4794705E-1,7.956563E-1,4.7741127E-1,2.3938717E-4,6.4175653E-1,1.977101E-3,5.423327E-1,5.018228E-1,7.6311296E-1,7.925751E-1,2.6635232E-4,1.7050804E-3,-7.1837305E-4,8.476761E-1,6.4175653E-1,5.361219E-1,5.138633E-1,8.20006E-1,-9.929404E-4,7.9632044E-1,7.4277145E-1,-2.2826137E-3,5.981727E-1,-1.2541562E-4,-1.2258454E-5,-1.1943538E-3,-1.456283E-4,-1.5257079E-3,1.0215044E-4,3.0553096E-3,1.06106214E-4,1.136157E-3,-2.6956202E-5,6.5467716E-4,-4.283756E-4,2.1616818E-4,4.232526E-5,4.404396E-4],"split_indices":[38,57,2,37,15,0,10,1,54,2,0,16,0,0,23,53,35,0,0,0,59,36,1,7,51,0,55,0,0,4,0,0,0,0,0,0,0,0,0,0,0,0,0,0,0],"split_type":[0,0,0,0,0,0,0,0,0,0,0,0,0,0,0,0,0,0,0,0,0,0,0,0,0,0,0,0,0,0,0,0,0,0,0,0,0,0,0,0,0,0,0,0,0],"sum_hessian":[1.048E3,1.034E3,1.4E1,1.027E3,7E0,2E0,1.2E1,1.009E3,1.8E1,6E0,1E0,1.1E1,1E0,8.35E2,1.74E2,1E1,8E0,1E0,5E0,2E0,9E0,8.14E2,2.1E1,6E0,1.68E2,3E0,7E0,2E0,6E0,6E0,3E0,8E2,1.4E1,7E0,1.4E1,2E0,4E0,1.57E2,1.1E1,3E0,4E0,1E0,1E0,1E0,5E0],"tree_param":{"num_deleted":"0","num_feature":"90","num_nodes":"45","size_leaf_vector":"1"}},{"base_weights":[1.4547298E-5,-2.0695665E-4,6.480603E-4,-8.279465E-5,-2.6226696E-3,5.0798357E-3,5.4604263E-4,-2.0449038E-4,1.999925E-3,-3.3483848E-3,2.836728E-3,2.5393566E-4,2.2287907E-3,-5.733203E-4,8.945386E-4,-2.3340789E-4,1.980436E-3,-7.4374833E-4,4.179484E-3,-9.0879574E-4,-5.2265446E-3,1.2627543E-3,1.5560984E-4,2.9164553E-4,-1.7737449E-4,1.6877771E-4,-3.008759E-3,5.778926E-3,7.173404E-4,-1.2221138E-4,-1.9699293E-3,5.6016445E-3,-2.2836123E-3,2.6936878E-3,7.940292E-3,-2.8641622E-3,2.4038553E-4,-3.1141163E-4,-6.274277E-3,1.6900421E-3,-2.9989379E-4,-1.493001E-3,-1.5100688E-3,-5.4378214E-4,7.3462822E-3,3.4481129E-3,4.908245E-4,-5.143923E-5,1.5775487E-3,-1.9297482E-3,-3.5790866E-4,2.0416023E-3,2.9858353E-4,-8.595465E-4,3.5743715E-4,-4.868813E-4,1.0995627E-3,4.3587686E-4,2.6841545E-3,-4.129708E-5,-1.0145796E-3,2.2079547E-4,-3.9796234E-4,-7.6380017E-4,-2.2195678E-3,-7.599294E-4,2.1728604E-4,-1.2385324E-4,-1.1627257E-3,5.861521E-4,2.410201E-3,1.7272035E-3,-4.046304E-6,9.0931615E-5,1.0246738E-3],"categories":[],"categories_nodes":[],"categories_segments":[],"categories_sizes":[],"default_left":[0,0,0,0,0,0,0,0,0,0,0,0,0,0,0,0,0,0,0,0,0,0,0,0,0,0,0,0,0,0,0,0,0,0,0,0,0,0,0,0,0,0,0,0,0,0,0,0,0,0,0,0,0,0,0,0,0,0,0,0,0,0,0,0,0,0,0,0,0,0,0,0,0,0,0],"id":20,"left_children":[1,3,5,7,9,11,13,15,17,19,21,23,-1,25,27,29,-1,31,33,35,37,-1,-1,-1,-1,39,41,43,45,47,49,51,53,55,57,59,61,-1,63,-1,65,67,-1,-1,69,71,73,-1,-1,-1,-1,-1,-1,-1,-1,-1,-1,-1,-1,-1,-1,-1,-1,-1,-1,-1,-1,-1,-1,-1,-1,-1,-1,-1,-1],"loss_changes":[1.4733571E-4,2.3313599E-4,1.2020263E-4,1.8822138E-4,1.6005323E-4,6.614317E-5,1.0466782E-4,1.395053E-4,2.4828844E-4,1.5103605E-4,1.3723624E-5,2.395857E-6,0E0,1.1617721E-4,1.7241751E-4,1.3473273E-4,0E0,1.9844179E-4,1.0713062E-4,3.664163E-5,7.686729E-5,0E0,0E0,0E0,0E0,1.297468E-4,3.8521568E-5,9.6606425E-5,1.2078314E-4,1.7528117E-4,1.3793852E-4,1.5405443E-5,3.5748126E-5,8.143486E-5,2.6192836E-5,8.00467E-6,9.5185615E-6,0E0,4.403782E-5,0E0,1.093333E-4,2.4137371E-5,0E0,0E0,6.553775E-6,1.1998227E-4,9.998666E-5,0E0,0E0,0E0,0E0,0E0,0E0,0E0,0E0,0E0,0E0,0E0,0E0,0E0,0E0,0E0,0E0,0E0,0E0,0E0,0E0,0E0,0E0,0E0,0E0,0E0,0E0,0E0,0E0],"parents":[2147483647,0,0,1,1,2,2,3,3,4,4,5,5,6,6,7,7,8,8,9,9,10,10,11,11,13,13,14,14,15,15,17,17,18,18,19,19,20,20,25,25,26,26,27,27,28,28,29,29,30,30,31,31,32,32,33,33,34,34,35,35,36,36,38,38,40,40,41,41,44,44,45,45,46,46],"right_children":[2,4,6,8,10,12,14,16,18,20,22,24,-1,26,28,30,-1,32,34,36,38,-1,-1,-1,-1,40,42,44,46,48,50,52,54,56,58,60,62,-1,64,-1,66,68,-1,-1,70,72,74,-1,-1,-1,-1,-1,-1,-1,-1,-1,-1,-1,-1,-1,-1,-1,-1,-1,-1,-1,-1,-1,-1,-1,-1,-1,-1,-1,-1],"split_conditions":[5.638641E-1,5.4451305E-1,4.8387128E-1,5.2857876E-1,6.377427E-1,4.174243E-1,5.217832E-1,6.375253E-1,5.176591E-1,5.8382165E-1,5.0830966E-1,3.9881477E-1,2.2287907E-3,5.163437E-1,4.821743E-1,5.1818913E-1,1.980436E-3,4.3540487E-1,5.460322E-1,5.22928E-1,5.5181354E-1,1.2627543E-3,1.5560984E-4,2.9164553E-4,-1.7737449E-4,3.8533002E-1,5.178863E-1,3.815408E-1,5.176591E-1,5.2417415E-1,4.395793E-1,4.4801247E-1,5.281042E-1,5.176591E-1,3.9323527E-1,3.918647E-1,6.055769E-1,-3.1141163E-4,5.0523406E-1,1.6900421E-3,4.980719E-1,5.201495E-1,-1.5100688E-3,-5.4378214E-4,3.9361355E-1,5.422334E-1,8.315722E-1,-5.143923E-5,1.5775487E-3,-1.9297482E-3,-3.5790866E-4,2.0416023E-3,2.9858353E-4,-8.595465E-4,3.5743715E-4,-4.868813E-4,1.0995627E-3,4.3587686E-4,2.6841545E-3,-4.129708E-5,-1.0145796E-3,2.2079547E-4,-3.9796234E-4,-7.6380017E-4,-2.2195678E-3,-7.599294E-4,2.1728604E-4,-1.2385324E-4,-1.1627257E-3,5.861521E-4,2.410201E-3,1.7272035E-3,-4.046304E-6,9.0931615E-5,1.0246738E-3],"split_indices":[87,82,54,87,57,0,51,35,76,52,0,0,0,51,32,82,0,70,85,69,38,0,0,0,0,3,50,2,60,83,69,1,81,72,7,1,65,0,89,0,40,52,0,0,0,31,48,0,0,0,0,0,0,0,0,0,0,0,0,0,0,0,0,0,0,0,0,0,0,0,0,0,0,0,0],"split_type":[0,0,0,0,0,0,0,0,0,0,0,0,0,0,0,0,0,0,0,0,0,0,0,0,0,0,0,0,0,0,0,0,0,0,0,0,0,0,0,0,0,0,0,0,0,0,0,0,0,0,0,0,0,0,0,0,0,0,0,0,0,0,0,0,0,0,0,0,0,0,0,0,0,0,0],"sum_hessian":[1.048E3,7.77E2,2.71E2,7.4E2,3.7E1,5E0,2.66E2,7E2,4E1,3.3E1,4E0,2E0,3E0,6.3E1,2.03E2,6.98E2,2E0,1.8E1,2.2E1,1.5E1,1.8E1,2E0,2E0,1E0,1E0,4.9E1,1.4E1,6E0,1.97E2,6.57E2,4.1E1,3E0,1.5E1,1.7E1,5E0,5E0,1E1,4E0,1.4E1,3E0,4.6E1,9E0,5E0,1E0,5E0,1.4E1,1.83E2,6.52E2,5E0,5E0,3.6E1,2E0,1E0,1.3E1,2E0,3E0,1.4E1,1E0,4E0,1E0,4E0,8E0,2E0,4E0,1E1,1.4E1,3.2E1,7E0,2E0,1E0,4E0,8E0,6E0,1.73E2,1E1],"tree_param":{"num_deleted":"0","num_feature":"90","num_nodes":"75","size_leaf_vector":"1"}},{"base_weights":[1.939357E-5,-4.3379045E-3,4.4416935E-5,-1.6356272E-3,1.8495397E-4,6.531743E-6,2.6429058E-3,-1.9690915E-5,3.3589378E-3,3.0661642E-3,6.909187E-4,2.6243835E-5,-2.4483611E-3,3.657988E-3,1.8983783E-4,-9.974837E-5,1.5268386E-3,-1.0662609E-6,3.920036E-3,-2.0950334E-3,-1.1615679E-3,2.1275283E-4,1.2093784E-3,-5.928934E-4,4.731953E-4,4.7876943E-6,-1.6976298E-3,1.5528292E-3,-5.4245E-4,-1.238519E-3,-4.7803842E-5,2.700346E-4,-1.1766404E-4],"categories":[],"categories_nodes":[],"categories_segments":[],"categories_sizes":[],"default_left":[0,0,0,0,0,0,0,0,0,0,0,0,0,0,0,0,0,0,0,0,0,0,0,0,0,0,0,0,0,0,0,0,0],"id":21,"left_children":[1,3,5,-1,-1,7,9,11,13,-1,15,17,19,21,-1,23,-1,25,27,-1,29,-1,-1,-1,31,-1,-1,-1,-1,-1,-1,-1,-1],"loss_changes":[1.1456962E-4,3.648214E-5,1.0275853E-4,0E0,0E0,9.0612404E-5,2.1481031E-4,1.14190516E-4,4.207286E-6,0E0,4.571885E-5,1.0687571E-4,1.02766826E-4,4.846108E-6,0E0,1.383716E-5,0E0,9.631767E-5,5.9724065E-5,0E0,4.691688E-5,0E0,0E0,0E0,4.04764E-6,0E0,0E0,0E0,0E0,0E0,0E0,0E0,0E0],"parents":[2147483647,0,0,1,1,2,2,5,5,6,6,7,7,8,8,10,10,11,11,12,12,13,13,15,15,17,17,18,18,20,20,24,24],"right_children":[2,4,6,-1,-1,8,10,12,14,-1,16,18,20,22,-1,24,-1,26,28,-1,30,-1,-1,-1,32,-1,-1,-1,-1,-1,-1,-1,-1],"split_conditions":[1.6032325E-1,1.7070664E-1,8.2327104E-1,-1.6356272E-3,1.8495397E-4,8.476761E-1,6.0322785E-1,7.9632044E-1,8.150807E-1,3.0661642E-3,8.1596625E-1,8.528263E-1,7.9200387E-1,4.7741127E-1,1.8983783E-4,6.4175653E-1,1.5268386E-3,8.290575E-1,8.087711E-1,-2.0950334E-3,7.248066E-1,2.1275283E-4,1.2093784E-3,-5.928934E-4,8.476761E-1,4.7876943E-6,-1.6976298E-3,1.5528292E-3,-5.4245E-4,-1.238519E-3,-4.7803842E-5,2.700346E-4,-1.1766404E-4],"split_indices":[62,2,38,0,0,57,2,37,15,0,10,70,38,2,0,16,0,42,6,0,21,0,0,0,59,0,0,0,0,0,0,0,0],"split_type":[0,0,0,0,0,0,0,0,0,0,0,0,0,0,0,0,0,0,0,0,0,0,0,0,0,0,0,0,0,0,0,0,0],"sum_hessian":[1.048E3,5E0,1.043E3,4E0,1E0,1.029E3,1.4E1,1.022E3,7E0,2E0,1.2E1,1.004E3,1.8E1,6E0,1E0,1.1E1,1E0,9.98E2,6E0,3E0,1.5E1,1E0,5E0,2E0,9E0,