{"learner":{"attributes":{"scikit_learn":"{\"_estimator_type\": \"regressor\"}"},"feature_names":[],"feature_types":[],"gradient_booster":{"model":{"gbtree_model_param":{"num_parallel_tree":"1","num_trees":"100"},"iteration_indptr":[0,1,2,3,4,5,6,7,8,9,10,11,12,13,14,15,16,17,18,19,20,21,22,23,24,25,26,27,28,29,30,31,32,33,34,35,36,37,38,39,40,41,42,43,44,45,46,47,48,49,50,51,52,53,54,55,56,57,58,59,60,61,62,63,64,65,66,67,68,69,70,71,72,73,74,75,76,77,78,79,80,81,82,83,84,85,86,87,88,89,90,91,92,93,94,95,96,97,98,99,100],"tree_info":[0,0,0,0,0,0,0,0,0,0,0,0,0,0,0,0,0,0,0,0,0,0,0,0,0,0,0,0,0,0,0,0,0,0,0,0,0,0,0,0,0,0,0,0,0,0,0,0,0,0,0,0,0,0,0,0,0,0,0,0,0,0,0,0,0,0,0,0,0,0,0,0,0,0,0,0,0,0,0,0,0,0,0,0,0,0,0,0,0,0,0,0,0,0,0,0,0,0,0,0],"trees":[{"base_weights":[-8.673357E-9,-1.0696794E-1,1.2288438E-1,-1.8932731E-1,-5.1021587E-2,8.142531E-2,1.8508118E-1,-2.4498487E-1,-1.5770671E-1,-9.4675556E-2,-3.018013E-2,4.214064E-2,1.06048495E-1,1.5683094E-1,6.3665E-2,-9.111883E-2,-6.495454E-2,-5.2165363E-2,-4.1058786E-2,-1.04177736E-1,-1.9854415E-2,-4.6510488E-2,-1.6752446E-2,1.473014E-2,4.9384303E-2,2.7408056E-2,3.520468E-2,4.1648716E-2,5.1448803E-2,-3.154908E-2,-4.8314095E-3,-5.6004446E-2,-3.9324712E-2,-2.5245275E-2,-6.0620913E-3,7.151313E-3,2.6566926E-2,1.2191097E-2,6.331068E-2,-1.722923E-2,-5.923525E-3,-1.607372E-3,-1.1947987E-2,-7.730338E-3,1.3077423E-3,1.244142E-3,-2.723327E-3,-6.6599925E-4,2.845408E-3,9.922011E-3,3.0496584E-3,1.9448124E-2,2.6728169E-3],"categories":[],"categories_nodes":[],"categories_segments":[],"categories_sizes":[],"default_left":[0,0,0,0,0,0,0,0,0,0,0,0,0,0,0,0,0,0,0,0,0,0,0,0,0,0,0,0,0,0,0,0,0,0,0,0,0,0,0,0,0,0,0,0,0,0,0,0,0,0,0,0,0],"id":0,"left_children":[1,3,5,7,9,11,13,15,17,19,21,23,25,27,-1,-1,-1,-1,-1,29,-1,31,33,35,37,-1,-1,-1,-1,-1,-1,39,41,43,45,47,49,-1,51,-1,-1,-1,-1,-1,-1,-1,-1,-1,-1,-1,-1,-1,-1],"loss_changes":[1.2908085E1,2.4093857E0,1.1633601E0,3.3446836E-1,2.828238E-1,2.6250982E-1,1.0623598E-1,5.9670925E-2,2.2737026E-2,2.0451784E-2,4.6146497E-2,2.0716235E-2,1.7330408E-2,7.4338913E-4,0E0,0E0,0E0,0E0,0E0,4.731655E-3,0E0,4.3468922E-3,1.0651134E-2,1.9630268E-3,7.7817887E-3,0E0,0E0,0E0,0E0,0E0,0E0,8.8299066E-4,7.754192E-4,1.1332668E-3,1.7001783E-3,3.7092506E-4,6.24225E-4,0E0,1.9797385E-3,0E0,0E0,0E0,0E0,0E0,0E0,0E0,0E0,0E0,0E0,0E0,0E0,0E0,0E0],"parents":[2147483647,0,0,1,1,2,2,3,3,4,4,5,5,6,6,7,7,8,8,9,9,10,10,11,11,12,12,13,13,19,19,21,21,22,22,23,23,24,24,31,31,32,32,33,33,34,34,35,35,36,36,38,38],"right_children":[2,4,6,8,10,12,14,16,18,20,22,24,26,28,-1,-1,-1,-1,-1,30,-1,32,34,36,38,-1,-1,-1,-1,-1,-1,40,42,44,46,48,50,-1,52,-1,-1,-1,-1,-1,-1,-1,-1,-1,-1,-1,-1,-1,-1],"split_conditions":[4.1483295E-1,2.8484556E-1,5.4304326E-1,2.0263323E-1,3.4236047E-1,4.792533E-1,5.956928E-1,1.4507975E-1,2.5231978E-1,3.221515E-1,3.749246E-1,4.2934692E-1,5.1134306E-1,5.6712973E-1,6.3665E-2,-9.111883E-2,-6.495454E-2,-5.2165363E-2,-4.1058786E-2,4.0192193E-1,-1.9854415E-2,3.5573155E-1,3.9265642E-1,4.3384635E-1,4.6715212E-1,2.7408056E-2,3.520468E-2,4.1648716E-2,5.1448803E-2,-3.154908E-2,-4.8314095E-3,3.94899E-1,2.563018E-1,5.1043147E-1,3.1167608E-1,3.2739654E-1,4.9864972E-1,1.2191097E-2,5.27523E-1,-1.722923E-2,-5.923525E-3,-1.607372E-3,-1.1947987E-2,-7.730338E-3,1.3077423E-3,1.244142E-3,-2.723327E-3,-6.6599925E-4,2.845408E-3,9.922011E-3,3.0496584E-3,1.9448124E-2,2.6728169E-3],"split_indices":[29,29,29,29,29,29,29,29,29,29,29,29,29,29,0,0,0,0,0,21,0,29,29,25,29,0,0,0,0,0,0,26,11,2,6,17,17,0,4,0,0,0,0,0,0,0,0,0,0,0,0,0,0],"split_type":[0,0,0,0,0,0,0,0,0,0,0,0,0,0,0,0,0,0,0,0,0,0,0,0,0,0,0,0,0,0,0,0,0,0,0,0,0,0,0,0,0,0,0,0,0,0,0,0,0,0,0,0,0],"sum_hessian":[9.8E2,5.24E2,4.56E2,2.11E2,3.13E2,2.75E2,1.81E2,7.4E1,1.37E2,1E2,2.13E2,1.07E2,1.68E2,9.2E1,8.9E1,2.1E1,5.3E1,7.3E1,6.4E1,7.3E1,2.7E1,9.5E1,1.18E2,2.3E1,8.4E1,7.7E1,9.1E1,4.6E1,4.6E1,7.2E1,1E0,3.8E1,5.7E1,6.5E1,5.3E1,1.5E1,8E0,5.4E1,3E1,3.6E1,2E0,1E0,5.6E1,6.4E1,1E0,1.2E1,4.1E1,3E0,1.2E1,5E0,3E0,2.9E1,1E0],"tree_param":{"num_deleted":"0","num_feature":"30","num_nodes":"53","size_leaf_vector":"1"}},{"base_weights":[-8.2883664E-5,-7.554449E-2,8.660733E-2,-1.2891385E-1,-3.218593E-2,5.25721E-2,1.2433843E-1,-1.700824E-1,-1.0445112E-1,-5.4763682E-2,-1.7122265E-2,3.1313542E-2,7.157542E-2,2.9863069E-2,4.3340378E-2,-6.568024E-2,-4.5588497E-2,-3.4627125E-2,-2.6621133E-2,-6.830399E-2,-4.347096E-2,-2.3029815E-2,-4.7063893E-3,1.6915018E-2,3.9257098E-2,1.7724069E-2,2.2652483E-2,-2.0736754E-2,-4.106699E-3,-1.32242935E-2,-4.7900886E-3,-2.870688E-2,-1.8645773E-2,3.4903362E-3,-6.6990345E-3,1.1187237E-2,2.7980616E-2,4.212761E-2,2.0915492E-2,-7.064414E-3,-1.0412894E-2,-5.073001E-3,-1.134863E-2,-1.2328228E-6,3.1440766E-3,-5.4067397E-3,-9.454664E-4,-8.7906425E-5,4.048503E-3,7.185459E-4,9.613579E-3,3.6162124E-3,1.3029117E-2,6.2434E-4,8.088713E-3],"categories":[],"categories_nodes":[],"categories_segments":[],"categories_sizes":[],"default_left":[0,0,0,0,0,0,0,0,0,0,0,0,0,0,0,0,0,0,0,0,0,0,0,0,0,0,0,0,0,0,0,0,0,0,0,0,0,0,0,0,0,0,0,0,0,0,0,0,0,0,0,0,0,0,0],"id":1,"left_children":[1,3,5,7,9,11,13,15,17,19,21,23,25,-1,-1,-1,-1,-1,-1,27,29,31,33,35,37,-1,-1,-1,-1,-1,-1,39,41,43,45,47,49,51,53,-1,-1,-1,-1,-1,-1,-1,-1,-1,-1,-1,-1,-1,-1,-1,-1],"loss_changes":[6.424032E0,1.2107105E0,5.803366E-1,2.1890211E-1,9.8032534E-2,9.552258E-2,9.3426466E-2,4.286027E-2,1.5621066E-2,1.4767945E-2,1.2800753E-2,1.2603521E-2,1.7799735E-3,0E0,0E0,0E0,0E0,0E0,0E0,1.3336539E-3,4.034862E-4,2.4264678E-3,9.707054E-4,2.4123713E-3,3.0149594E-3,0E0,0E0,0E0,0E0,0E0,0E0,7.3101744E-4,1.6911235E-3,2.9315375E-4,1.8311741E-3,7.9876906E-4,1.3791891E-3,1.9447803E-3,1.3105576E-3,0E0,0E0,0E0,0E0,0E0,0E0,0E0,0E0,0E0,0E0,0E0,0E0,0E0,0E0,0E0,0E0],"parents":[2147483647,0,0,1,1,2,2,3,3,4,4,5,5,6,6,7,7,8,8,9,9,10,10,11,11,12,12,19,19,20,20,21,21,22,22,23,23,24,24,31,31,32,32,33,33,34,34,35,35,36,36,37,37,38,38],"right_children":[2,4,6,8,10,12,14,16,18,20,22,24,26,-1,-1,-1,-1,-1,-1,28,30,32,34,36,38,-1,-1,-1,-1,-1,-1,40,42,44,46,48,50,52,54,-1,-1,-1,-1,-1,-1,-1,-1,-1,-1,-1,-1,-1,-1,-1,-1],"split_conditions":[4.1483295E-1,2.9526243E-1,5.264256E-1,2.1465056E-1,3.5573155E-1,4.8394272E-1,5.787337E-1,4.942715E-2,2.6157996E-1,3.221515E-1,3.916285E-1,4.4186828E-1,5.01663E-1,2.9863069E-2,4.3340378E-2,-6.568024E-2,-4.5588497E-2,-3.4627125E-2,-2.6621133E-2,4.0192193E-1,4.9941534E-1,3.706112E-1,3.2747996E-1,5.1043147E-1,5.222086E-1,1.7724069E-2,2.2652483E-2,-2.0736754E-2,-4.106699E-3,-1.32242935E-2,-4.7900886E-3,3.6537904E-1,4.5978335E-1,3.1278357E-1,3.6133343E-1,3.477086E-1,4.7159243E-1,3.8617185E-1,5.0653917E-1,-7.064414E-3,-1.0412894E-2,-5.073001E-3,-1.134863E-2,-1.2328228E-6,3.1440766E-3,-5.4067397E-3,-9.454664E-4,-8.7906425E-5,4.048503E-3,7.185459E-4,9.613579E-3,3.6162124E-3,1.3029117E-2,6.2434E-4,8.088713E-3],"split_indices":[29,29,29,29,29,29,29,2,29,29,29,29,29,0,0,0,0,0,0,21,3,29,10,10,12,0,0,0,0,0,0,21,5,9,19,14,3,19,17,0,0,0,0,0,0,0,0,0,0,0,0,0,0,0,0],"split_type":[0,0,0,0,0,0,0,0,0,0,0,0,0,0,0,0,0,0,0,0,0,0,0,0,0,0,0,0,0,0,0,0,0,0,0,0,0,0,0,0,0,0,0,0,0,0,0,0,0,0,0,0,0,0,0],"sum_hessian":[9.8E2,5.24E2,4.56E2,2.34E2,2.9E2,2.41E2,2.15E2,8.5E1,1.49E2,1.15E2,1.75E2,1.15E2,1.26E2,9.9E1,1.16E2,2E1,6.5E1,8.4E1,6.5E1,5E1,6.5E1,1.18E2,5.7E1,4.2E1,7.3E1,3.4E1,9.2E1,4.9E1,1E0,6.3E1,2E0,4.9E1,6.9E1,1.1E1,4.6E1,2.9E1,1.3E1,6.2E1,1.1E1,2.9E1,2E1,6.5E1,4E0,8E0,3E0,1E1,3.6E1,5E0,2.4E1,2E0,1.1E1,3E0,5.9E1,3E0,8E0],"tree_param":{"num_deleted":"0","num_feature":"30","num_nodes":"55","size_leaf_vector":"1"}},{"base_weights":[-1.5918892E-4,-5.2502092E-2,6.1976504E-2,-8.730985E-2,-1.8781008E-2,4.4201974E-2,9.78274E-2,-1.1619982E-1,-6.7248404E-2,-3.2184437E-2,-1.0421616E-2,2.4501149E-2,5.6017894E-2,2.6609946E-2,3.5215728E-2,-4.4823814E-2,-3.0708512E-2,-2.1947853E-2,-1.6769215E-2,-3.7782636E-2,-2.630124E-2,-1.5369559E-2,-2.4669545E-3,1.7686984E-2,3.43379E-2,1.4278579E-2,6.1431836E-2,-1.1550809E-2,-4.028213E-3,-1.9611847E-2,-3.028733E-2,-1.2728938E-2,-2.0665169E-2,-3.6249792E-3,2.9152364E-3,9.292457E-3,1.9807445E-2,3.5053924E-2,3.175244E-4,9.170041E-3,1.8601852E-2,-6.2473686E-3,-1.3756693E-3,-9.623518E-3,-2.9190863E-3,-6.369602E-3,-2.7150658E-3,-2.387969E-3,-7.752935E-3,-5.0955225E-4,-4.3700947E-3,1.1728741E-3,6.105861E-3,7.106131E-3,4.1427775E-3,1.0618752E-2,3.0014545E-3],"categories":[],"categories_nodes":[],"categories_segments":[],"categories_sizes":[],"default_left":[0,0,0,0,0,0,0,0,0,0,0,0,0,0,0,0,0,0,0,0,0,0,0,0,0,0,0,0,0,0,0,0,0,0,0,0,0,0,0,0,0,0,0,0,0,0,0,0,0,0,0,0,0,0,0,0,0],"id":2,"left_children":[1,3,5,7,9,11,13,15,17,19,21,23,25,-1,-1,-1,-1,-1,-1,27,29,31,33,35,37,-1,39,-1,-1,41,43,45,47,49,-1,51,53,55,-1,-1,-1,-1,-1,-1,-1,-1,-1,-1,-1,-1,-1,-1,-1,-1,-1,-1,-1],"loss_changes":[3.1938217E0,6.239718E-1,2.8179324E-1,1.4403427E-1,3.014069E-2,6.892812E-2,1.6008854E-2,3.34239E-2,6.444812E-3,2.4315417E-3,6.613789E-3,7.101029E-3,5.6488514E-3,0E0,0E0,0E0,0E0,0E0,0E0,3.7740916E-4,8.458905E-4,1.1912584E-3,9.6647535E-4,1.0619592E-3,1.0590255E-3,0E0,7.238984E-5,0E0,0E0,3.2362808E-4,8.660741E-4,2.0600334E-3,1.9652713E-3,1.2611048E-3,0E0,8.730184E-4,9.527989E-4,3.1277537E-5,0E0,0E0,0E0,0E0,0E0,0E0,0E0,0E0,0E0,0E0,0E0,0E0,0E0,0E0,0E0,0E0,0E0,0E0,0E0],"parents":[2147483647,0,0,1,1,2,2,3,3,4,4,5,5,6,6,7,7,8,8,9,9,10,10,11,11,12,12,19,19,20,20,21,21,22,22,23,23,24,24,26,26,29,29,30,30,31,31,32,32,33,33,35,35,36,36,37,37],"right_children":[2,4,6,8,10,12,14,16,18,20,22,24,26,-1,-1,-1,-1,-1,-1,28,30,32,34,36,38,-1,40,-1,-1,42,44,46,48,50,-1,52,54,56,-1,-1,-1,-1,-1,-1,-1,-1,-1,-1,-1,-1,-1,-1,-1,-1,-1,-1,-1],"split_conditions":[4.2045105E-1,3.0902898E-1,5.569593E-1,2.272636E-1,3.6197406E-1,4.8925135E-1,6.2321043E-1,1.6282637E-1,2.8106028E-1,3.4236047E-1,3.916285E-1,4.6715212E-1,5.165817E-1,2.6609946E-2,3.5215728E-2,-4.4823814E-2,-3.0708512E-2,-2.1947853E-2,-1.6769215E-2,4.3384635E-1,3.519618E-1,3.8719222E-1,4.658505E-1,4.2934692E-1,5.27523E-1,1.4278579E-2,3.757739E-1,-1.1550809E-2,-4.028213E-3,3.8112792E-1,4.2982632E-1,3.3166537E-1,3.4838775E-1,4.217864E-1,2.9152364E-3,4.3966943E-1,4.681905E-1,5.213063E-1,3.175244E-4,9.170041E-3,1.8601852E-2,-6.2473686E-3,-1.3756693E-3,-9.623518E-3,-2.9190863E-3,-6.369602E-3,-2.7150658E-3,-2.387969E-3,-7.752935E-3,-5.0955225E-4,-4.3700947E-3,1.1728741E-3,6.105861E-3,7.106131E-3,4.1427775E-3,1.0618752E-2,3.0014545E-3],"split_indices":[29,29,29,28,29,29,29,29,29,29,29,29,29,0,0,0,0,0,0,13,12,22,17,29,4,0,6,0,0,5,13,2,5,27,0,26,24,9,0,0,0,0,0,0,0,0,0,0,0,0,0,0,0,0,0,0,0],"split_type":[0,0,0,0,0,0,0,0,0,0,0,0,0,0,0,0,0,0,0,0,0,0,0,0,0,0,0,0,0,0,0,0,0,0,0,0,0,0,0,0,0,0,0,0,0,0,0,0,0,0,0,0,0,0,0,0,0],"sum_hessian":[9.8E2,5.32E2,4.48E2,2.61E2,2.71E2,3.01E2,1.47E2,1.05E2,1.56E2,1.03E2,1.68E2,1.14E2,1.87E2,1.04E2,4.3E1,2.8E1,7.7E1,9.9E1,5.7E1,5E1,5.3E1,1.03E2,6.5E1,6.9E1,4.5E1,7.7E1,1.1E2,4.8E1,2E0,2.2E1,3.1E1,7.1E1,3.2E1,6E1,5E0,1.5E1,5.4E1,4.4E1,1E0,3E0,1.07E2,2E1,2E0,2.8E1,3E0,2E1,5.1E1,1E1,2.2E1,5.2E1,8E0,1.1E1,4E0,3.1E1,2.3E1,4.3E1,1E0],"tree_param":{"num_deleted":"0","num_feature":"30","num_nodes":"57","size_leaf_vector":"1"}},{"base_weights":[-1.4695118E-4,-3.769304E-2,4.2986184E-2,-6.3023545E-2,-1.5132719E-2,2.9421873E-2,6.7271374E-2,-8.275145E-2,-4.7853258E-2,-2.5886958E-2,-8.69196E-3,1.6864419E-2,3.8684443E-2,5.6749623E-2,7.886022E-2,-3.410766E-2,-2.2270178E-2,-5.6066107E-2,-4.2780336E-2,-1.0863633E-2,-2.283828E-2,-1.2129228E-2,-3.1859179E-3,1.1312189E-2,2.4160728E-2,3.3853207E-2,4.200556E-2,5.7510477E-2,7.861171E-3,5.179498E-3,7.945929E-2,-4.50203E-3,-1.6976148E-2,-4.302284E-3,-4.325298E-2,-3.216226E-2,-2.1120444E-2,-1.7738633E-2,-1.0225929E-2,-5.0765197E-3,1.6998828E-3,7.5973617E-3,1.6814597E-2,2.4582641E-2,2.6989728E-4,2.666976E-2,3.5849858E-2,3.6220178E-2,4.5834556E-2,1.1017563E-2,1.76662E-2,2.3990992E-2,6.3268486E-3,-1.311852E-2,-4.4669155E-3,-2.7447448E-3,-1.0064597E-2,-4.7069234E-3,-7.245266E-3,6.4883084E-4,-5.5863596E-3,-3.3499417E-3,1.1116312E-3,-1.8261547E-3,2.4203674E-3,2.3634143E-3,-2.017964E-3,2.8577659E-3,-1.352435E-3,9.251484E-3,3.2852334E-3,7.840632E-3,5.12979E-3,9.530369E-3,1.5065289E-3,2.6667328E-3,1.0855356E-2,1.1148274E-2,5.327339E-3,1.3968098E-2,5.392927E-3],"categories":[],"categories_nodes":[],"categories_segments":[],"categories_sizes":[],"default_left":[0,0,0,0,0,0,0,0,0,0,0,0,0,0,0,0,0,0,0,0,0,0,0,0,0,0,0,0,0,0,0,0,0,0,0,0,0,0,0,0,0,0,0,0,0,0,0,0,0,0,0,0,0,0,0,0,0,0,0,0,0,0,0,0,0,0,0,0,0,0,0,0,0,0,0,0,0,0,0,0,0],"id":3,"left_children":[1,3,5,7,9,11,13,15,17,19,21,23,25,27,29,-1,-1,31,33,-1,35,37,39,41,43,45,47,49,-1,-1,51,-1,-1,-1,53,55,57,59,61,63,65,67,69,71,-1,73,75,77,79,-1,-1,-1,-1,-1,-1,-1,-1,-1,-1,-1,-1,-1,-1,-1,-1,-1,-1,-1,-1,-1,-1,-1,-1,-1,-1,-1,-1,-1,-1,-1,-1],"loss_changes":[1.5903306E0,2.990651E-1,1.485619E-1,6.9961786E-2,1.9100055E-2,3.3660352E-2,1.5400112E-2,1.9495308E-2,3.5176277E-3,2.4466962E-3,3.2922896E-3,4.8715547E-3,1.2896061E-3,5.6144595E-4,1.3955534E-3,0E0,0E0,2.4189055E-4,6.1634183E-4,0E0,6.5013766E-4,9.7165257E-4,6.459898E-4,1.3848506E-3,5.078502E-4,1.0525435E-4,4.6648085E-4,2.9852986E-4,0E0,0E0,5.1933527E-4,0E0,0E0,0E0,5.6248903E-4,4.4016168E-5,8.224696E-4,4.9694534E-4,1.1289287E-3,7.133386E-4,1.0941894E-3,1.1168469E-3,2.047034E-3,1.6897172E-4,0E0,2.0477585E-3,1.7460436E-4,8.6933374E-5,2.5480986E-4,0E0,0E0,0E0,0E0,0E0,0E0,0E0,0E0,0E0,0E0,0E0,0E0,0E0,0E0,0E0,0E0,0E0,0E0,0E0,0E0,0E0,0E0,0E0,0E0,0E0,0E0,0E0,0E0,0E0,0E0,0E0,0E0],"parents":[2147483647,0,0,1,1,2,2,3,3,4,4,5,5,6,6,7,7,8,8,9,9,10,10,11,11,12,12,13,13,14,14,17,17,18,18,20,20,21,21,22,22,23,23,24,24,25,25,26,26,27,27,30,30,34,34,35,35,36,36,37,37,38,38,39,39,40,40,41,41,42,42,43,43,45,45,46,46,47,47,48,48],"right_children":[2,4,6,8,10,12,14,16,18,20,22,24,26,28,30,-1,-1,32,34,-1,36,38,40,42,44,46,48,50,-1,-1,52,-1,-1,-1,54,56,58,60,62,64,66,68,70,72,-1,74,76,78,80,-1,-1,-1,-1,-1,-1,-1,-1,-1,-1,-1,-1,-1,-1,-1,-1,-1,-1,-1,-1,-1,-1,-1,-1,-1,-1,-1,-1,-1,-1,-1,-1],"split_conditions":[4.1483295E-1,2.9904446E-1,5.4943156E-1,2.2747898E-1,3.5573155E-1,4.9055144E-1,6.061986E-1,4.942715E-2,2.5192633E-1,3.0902898E-1,3.8719222E-1,4.6400845E-1,5.165817E-1,6.4373535E-1,5.410707E-1,-3.410766E-2,-2.2270178E-2,7.538636E-2,1.927508E-1,-1.0863633E-2,2.8622833E-1,3.369585E-1,4.059656E-1,4.482446E-1,5.294214E-1,4.6872127E-1,5.1963353E-1,5.3795576E-1,7.861171E-3,5.179498E-3,6.382089E-1,-4.50203E-3,-1.6976148E-2,-4.302284E-3,3.8276014E-1,2.3351002E-1,3.4412643E-1,2.563018E-1,4.029183E-1,5.1114124E-1,4.106414E-1,4.5876232E-1,4.681905E-1,5.1963353E-1,2.6989728E-4,4.7018394E-1,4.386573E-1,5.410707E-1,6.3498044E-1,1.1017563E-2,1.76662E-2,2.3990992E-2,6.3268486E-3,-1.311852E-2,-4.4669155E-3,-2.7447448E-3,-1.0064597E-2,-4.7069234E-3,-7.245266E-3,6.4883084E-4,-5.5863596E-3,-3.3499417E-3,1.1116312E-3,-1.8261547E-3,2.4203674E-3,2.3634143E-3,-2.017964E-3,2.8577659E-3,-1.352435E-3,9.251484E-3,3.2852334E-3,7.840632E-3,5.12979E-3,9.530369E-3,1.5065289E-3,2.6667328E-3,1.0855356E-2,1.1148274E-2,5.327339E-3,1.3968098E-2,5.392927E-3],"split_indices":[29,28,29,29,29,29,29,2,26,29,29,29,29,2,22,0,0,3,7,0,23,16,29,26,4,11,16,27,0,0,14,0,0,0,16,3,21,11,27,6,27,23,24,16,0,15,19,12,0,0,0,0,0,0,0,0,0,0,0,0,0,0,0,0,0,0,0,0,0,0,0,0,0,0,0,0,0,0,0,0,0],"split_type":[0,0,0,0,0,0,0,0,0,0,0,0,0,0,0,0,0,0,0,0,0,0,0,0,0,0,0,0,0,0,0,0,0,0,0,0,0,0,0,0,0,0,0,0,0,0,0,0,0,0,0,0,0,0,0,0,0,0,0,0,0,0,0,0,0,0,0,0,0,0,0,0,0,0,0,0,0,0,0,0,0],"sum_hessian":[9.8E2,5.24E2,4.56E2,2.46E2,2.78E2,2.94E2,1.62E2,1.05E2,1.41E2,1.03E2,1.75E2,1.26E2,1.68E2,8.8E1,7.4E1,2E1,8.5E1,5E1,9.1E1,2.1E1,8.2E1,1.07E2,6.8E1,7.3E1,5.3E1,7.3E1,9.5E1,8.5E1,3E0,1E0,7.3E1,1E0,4.9E1,2E0,8.9E1,1E1,7.2E1,2.5E1,8.2E1,4.9E1,1.9E1,4.5E1,2.8E1,5.2E1,1E0,1.9E1,5.4E1,4.2E1,5.3E1,7E0,7.8E1,7.2E1,1E0,8.7E1,2E0,1E0,9E0,2.8E1,4.4E1,1E0,2.4E1,7.7E1,5E0,4.6E1,3E0,1.1E1,8E0,3.9E1,6E0,7E0,2.1E1,4.1E1,1.1E1,1.5E1,4E0,1E0,5.3E1,3.9E1,3E0,5.1E1,2E0],"tree_param":{"num_deleted":"0","num_feature":"30","num_nodes":"81","size_leaf_vector":"1"}},{"base_weights":[-8.4402585E-5,-2.6235117E-2,3.0958839E-2,-4.726244E-2,-1.2309563E-2,2.2257425E-2,4.923435E-2,-7.2529815E-2,-4.0404294E-2,-2.3540078E-2,-7.144737E-3,1.3147483E-2,2.8561344E-2,4.472465E-2,1.891441E-2,-2.2724042E-2,-1.1859323E-2,-4.710218E-2,-3.4286477E-2,-2.5951054E-2,-1.5971066E-2,-1.2154961E-2,-3.8258897E-3,5.855024E-3,1.5750585E-2,2.598561E-2,3.261662E-2,4.5455202E-2,1.3635948E-2,-1.963187E-3,-4.7543924E-2,-3.5010614E-2,-5.421616E-3,-2.6271533E-2,-3.3534318E-4,-8.747894E-3,-1.8061781E-2,-8.192762E-3,-1.4616927E-2,-5.9678187E-3,1.8068652E-4,9.05796E-3,-1.9566498E-3,1.6490016E-2,2.2805084E-3,2.6572041E-2,1.0903443E-2,4.11925E-2,2.9048486E-2,6.0053947E-3,4.5986276E-2,6.255627E-4,5.037338E-3,-1.43664E-2,-3.2091336E-3,-1.05733145E-2,-2.2360326E-3,-1.0010541E-3,-7.962E-3,-7.379979E-4,-3.130159E-3,-6.0736956E-3,-2.2383125E-3,-2.8303515E-3,5.2902326E-3,-4.943899E-3,-1.8019545E-3,-1.4008232E-3,-6.0975603E-3,2.072537E-3,-6.0185295E-4,1.4014526E-3,4.5511457E-3,-1.3854585E-3,3.69882E-3,5.588271E-4,5.0953072E-3,9.1449474E-4,1.4897884E-4,4.907547E-3,8.196059E-3,9.646953E-4,4.183028E-3,1.3360655E-2,5.758151E-3,9.5737877E-4,8.853317E-3,1.3861197E-2,3.4689726E-3],"categories":[],"categories_nodes":[],"categories_segments":[],"categories_sizes":[],"default_left":[0,0,0,0,0,0,0,0,0,0,0,0,0,0,0,0,0,0,0,0,0,0,0,0,0,0,0,0,0,0,0,0,0,0,0,0,0,0,0,0,0,0,0,0,0,0,0,0,0,0,0,0,0,0,0,0,0,0,0,0,0,0,0,0,0,0,0,0,0,0,0,0,0,0,0,0,0,0,0,0,0,0,0,0,0,0,0,0,0],"id":4,"left_children":[1,3,5,7,9,11,13,15,17,19,21,23,25,27,-1,-1,-1,29,31,33,35,37,39,41,43,45,47,49,51,-1,53,55,-1,57,-1,59,61,63,65,67,69,71,73,75,77,79,81,83,85,-1,87,-1,-1,-1,-1,-1,-1,-1,-1,-1,-1,-1,-1,-1,-1,-1,-1,-1,-1,-1,-1,-1,-1,-1,-1,-1,-1,-1,-1,-1,-1,-1,-1,-1,-1,-1,-1,-1,-1],"loss_changes":[7.9719085E-1,1.5548974E-1,7.030538E-2,3.3806413E-2,1.8508986E-2,1.7197564E-2,6.1507523E-3,1.6765296E-3,5.3100586E-3,1.4286563E-3,3.6449507E-3,2.3186225E-3,1.032576E-3,1.9239038E-3,0E0,0E0,0E0,1.0863543E-3,4.4749677E-4,5.675219E-4,2.4974067E-4,7.386692E-4,1.1596214E-3,8.9343335E-4,8.8869035E-4,7.274151E-4,8.2302094E-4,5.519241E-4,1.1076551E-4,0E0,4.6393275E-4,2.9776245E-4,0E0,3.6707148E-4,0E0,5.914236E-5,3.1195953E-4,1.3209004E-3,7.510781E-4,1.5455671E-3,7.200697E-4,5.994383E-4,4.7519212E-4,6.046761E-4,6.7044202E-6,3.9362162E-4,9.538734E-5,3.9540417E-4,5.0386414E-4,0E0,2.6014447E-4,0E0,0E0,0E0,0E0,0E0,0E0,0E0,0E0,0E0,0E0,0E0,0E0,0E0,0E0,0E0,0E0,0E0,0E0,0E0,0E0,0E0,0E0,0E0,0E0,0E0,0E0,0E0,0E0,0E0,0E0,0E0,0E0,0E0,0E0,0E0,0E0,0E0,0E0],"parents":[2147483647,0,0,1,1,2,2,3,3,4,4,5,5,6,6,7,7,8,8,9,9,10,10,11,11,12,12,13,13,17,17,18,18,19,19,20,20,21,21,22,22,23,23,24,24,25,25,26,26,27,27,28,28,30,30,31,31,33,33,35,35,36,36,37,37,38,38,39,39,40,40,41,41,42,42,43,43,44,44,45,45,46,46,47,47,48,48,50,50],"right_children":[2,4,6,8,10,12,14,16,18,20,22,24,26,28,-1,-1,-1,30,32,34,36,38,40,42,44,46,48,50,52,-1,54,56,-1,58,-1,60,62,64,66,68,70,72,74,76,78,80,82,84,86,-1,88,-1,-1,-1,-1,-1,-1,-1,-1,-1,-1,-1,-1,-1,-1,-1,-1,-1,-1,-1,-1,-1,-1,-1,-1,-1,-1,-1,-1,-1,-1,-1,-1,-1,-1,-1,-1,-1,-1],"split_conditions":[4.2045105E-1,2.839442E-1,5.6041545E-1,1.8233752E-1,3.4236047E-1,4.9497887E-1,6.297045E-1,1.9704476E-1,2.367764E-1,3.6068633E-1,3.706112E-1,4.4015622E-1,5.315624E-1,6.409993E-1,1.891441E-2,-2.2724042E-2,-1.1859323E-2,8.3731286E-2,3.5209686E-1,3.396739E-1,3.811741E-1,3.4911317E-1,3.957637E-1,4.8420462E-1,5.410707E-1,5.546431E-1,5.2149624E-1,5.457054E-1,5.908488E-1,-1.963187E-3,3.2595187E-1,4.0064934E-1,-5.421616E-3,2.632158E-1,-3.3534318E-4,3.4981543E-1,4.739916E-1,3.9815387E-1,4.0612742E-1,4.5978335E-1,4.0064934E-1,4.136686E-1,5.165817E-1,3.870733E-1,5.023204E-1,5.0045276E-1,5.345678E-1,5.746407E-1,5.018304E-1,6.0053947E-3,6.4782244E-1,6.255627E-4,5.037338E-3,-1.43664E-2,-3.2091336E-3,-1.05733145E-2,-2.2360326E-3,-1.0010541E-3,-7.962E-3,-7.379979E-4,-3.130159E-3,-6.0736956E-3,-2.2383125E-3,-2.8303515E-3,5.2902326E-3,-4.943899E-3,-1.8019545E-3,-1.4008232E-3,-6.0975603E-3,2.072537E-3,-6.0185295E-4,1.4014526E-3,4.5511457E-3,-1.3854585E-3,3.69882E-3,5.588271E-4,5.0953072E-3,9.1449474E-4,1.4897884E-4,4.907547E-3,8.196059E-3,9.646953E-4,4.183028E-3,1.3360655E-2,5.758151E-3,9.5737877E-4,8.853317E-3,1.3861197E-2,3.4689726E-3],"split_indices":[29,28,29,28,29,29,29,5,29,16,29,27,14,25,0,0,0,9,13,29,6,17,27,15,10,20,22,28,2,0,6,0,0,27,0,12,3,27,19,5,27,24,14,20,5,29,1,9,20,0,3,0,0,0,0,0,0,0,0,0,0,0,0,0,0,0,0,0,0,0,0,0,0,0,0,0,0,0,0,0,0,0,0,0,0,0,0,0,0],"split_type":[0,0,0,0,0,0,0,0,0,0,0,0,0,0,0,0,0,0,0,0,0,0,0,0,0,0,0,0,0,0,0,0,0,0,0,0,0,0,0,0,0,0,0,0,0,0,0,0,0,0,0,0,0,0,0,0,0,0,0,0,0,0,0,0,0,0,0,0,0,0,0,0,0,0,0,0,0,0,0,0,0,0,0,0,0,0,0,0,0],"sum_hessian":[9.8E2,5.32E2,4.48E2,2.11E2,3.21E2,3.05E2,1.43E2,4.3E1,1.68E2,1E2,2.21E2,1.26E2,1.79E2,1.11E2,3.2E1,3.8E1,5E0,7.7E1,9.1E1,7.4E1,2.6E1,8.7E1,1.34E2,3.4E1,9.2E1,1.14E2,6.5E1,1.08E2,3E0,1E0,7.6E1,8.6E1,5E0,7.3E1,1E0,7E0,1.9E1,3.5E1,5.2E1,8.7E1,4.7E1,2.4E1,1E1,8.7E1,5E0,1.09E2,5E0,1.6E1,4.9E1,3E0,1.05E2,1E0,2E0,7.5E1,1E0,8.5E1,1E0,1E0,7.2E1,2E0,5E0,1.5E1,4E0,3.4E1,1E0,4.2E1,1E1,8.1E1,6E0,1.1E1,3.6E1,1.5E1,9E0,9E0,1E0,3E0,8.4E1,3E0,2E0,9E0,1E2,2E0,3E0,1.3E1,3E0,1E0,4.8E1,1.04E2,1E0],"tree_param":{"num_deleted":"0","num_feature":"30","num_nodes":"89","size_leaf_vector":"1"}},{"base_weights":[-5.303227E-5,-1.9640781E-2,2.076935E-2,-3.5660665E-2,-1.0913789E-2,1.2923532E-2,3.2511353E-2,-1.5897276E-2,-3.0253414E-2,-1.9863887E-2,-6.974991E-3,5.3992574E-3,1.7106147E-2,2.6624557E-2,3.9779574E-2,-3.3771627E-2,-2.6021104E-2,-2.5041895E-2,-1.7899228E-2,-1.0078869E-2,-4.192928E-3,4.0821237E-3,1.3574964E-2,1.30988555E-2,1.8503653E-2,6.075263E-3,2.715382E-2,4.10279E-2,2.4956908E-2,-2.9772567E-3,-3.431121E-2,-2.6709834E-2,-2.5488497E-3,-1.7763444E-3,-2.7380127E-2,-1.4688312E-2,-2.1855228E-2,-8.782673E-3,-1.698308E-2,-2.6937108E-3,-7.3529407E-3,5.836828E-3,-5.2913104E-4,1.8868366E-2,3.3723663E-3,1.5420518E-2,5.8615697E-3,2.2323165E-2,1.6640848E-2,7.6934695E-5,2.3788156E-3,2.7437588E-2,2.507943E-3,3.546652E-2,1.4007343E-2,5.3173007E-4,8.2900245E-3,-1.0398175E-2,-1.5306608E-3,-2.6762488E-3,-8.141937E-3,-1.6644449E-3,-8.446665E-3,-1.1993633E-3,-4.607018E-3,-6.9971853E-3,-1.7229528E-3,-2.7611952E-3,4.496697E-3,-8.054872E-3,-1.8977574E-3,-1.8406232E-3,-4.1833805E-4,-2.6131726E-3,2.0112032E-3,5.2840414E-4,2.755241E-3,-3.5820396E-3,8.2690554E-4,6.548211E-4,6.204369E-3,4.245557E-4,1.4573454E-3,3.803698E-3,6.091172E-3,2.3063533E-3,-1.0192157E-3,6.0398844E-3,1.1264831E-2,5.032246E-4,5.292606E-3,1.7597795E-3,8.27747E-3,2.323392E-3,1.0786131E-2],"categories":[],"categories_nodes":[],"categories_segments":[],"categories_sizes":[],"default_left":[0,0,0,0,0,0,0,0,0,0,0,0,0,0,0,0,0,0,0,0,0,0,0,0,0,0,0,0,0,0,0,0,0,0,0,0,0,0,0,0,0,0,0,0,0,0,0,0,0,0,0,0,0,0,0,0,0,0,0,0,0,0,0,0,0,0,0,0,0,0,0,0,0,0,0,0,0,0,0,0,0,0,0,0,0,0,0,0,0,0,0,0,0,0,0],"id":5,"left_children":[1,3,5,7,9,11,13,-1,15,17,19,21,23,25,27,29,31,33,35,37,39,41,43,45,47,49,51,53,55,-1,57,59,-1,-1,61,63,65,67,69,71,73,75,77,79,81,83,85,87,89,-1,-1,91,-1,93,-1,-1,-1,-1,-1,-1,-1,-1,-1,-1,-1,-1,-1,-1,-1,-1,-1,-1,-1,-1,-1,-1,-1,-1,-1,-1,-1,-1,-1,-1,-1,-1,-1,-1,-1,-1,-1,-1,-1,-1,-1],"loss_changes":[4.0052208E-1,7.035236E-2,4.343164E-2,1.507704E-2,1.1459563E-2,8.9398585E-3,7.070303E-3,0E0,1.1760592E-3,5.690716E-4,1.9438323E-3,1.0645092E-3,7.880591E-4,1.0096431E-3,5.118698E-4,5.8595836E-4,5.8175623E-4,9.555984E-4,6.443653E-4,8.173585E-4,5.6291115E-4,7.394048E-4,6.924595E-4,7.665409E-4,5.8193505E-4,4.1121675E-5,3.306046E-4,7.0618093E-4,5.095019E-4,0E0,5.3749233E-4,2.4738908E-4,0E0,0E0,2.1622516E-4,2.601603E-4,6.2329974E-4,1.069379E-3,1.5125438E-3,3.7153304E-4,8.026799E-4,8.8418834E-4,1.007668E-3,2.2709672E-4,1.0569071E-5,2.5130901E-4,2.628501E-4,6.11322E-4,1.37862E-3,0E0,0E0,1.8027425E-4,0E0,2.8886274E-4,0E0,0E0,0E0,0E0,0E0,0E0,0E0,0E0,0E0,0E0,0E0,0E0,0E0,0E0,0E0,0E0,0E0,0E0,0E0,0E0,0E0,0E0,0E0,0E0,0E0,0E0,0E0,0E0,0E0,0E0,0E0,0E0,0E0,0E0,0E0,0E0,0E0,0E0,0E0,0E0,0E0],"parents":[2147483647,0,0,1,1,2,2,3,3,4,4,5,5,6,6,8,8,9,9,10,10,11,11,12,12,13,13,14,14,15,15,16,16,17,17,18,18,19,19,20,20,21,21,22,22,23,23,24,24,25,25,26,26,27,27,28,28,30,30,31,31,34,34,35,35,36,36,37,37,38,38,39,39,40,40,41,41,42,42,43,43,44,44,45,45,46,46,47,47,48,48,51,51,53,53],"right_children":[2,4,6,8,10,12,14,-1,16,18,20,22,24,26,28,30,32,34,36,38,40,42,44,46,48,50,52,54,56,-1,58,60,-1,-1,62,64,66,68,70,72,74,76,78,80,82,84,86,88,90,-1,-1,92,-1,94,-1,-1,-1,-1,-1,-1,-1,-1,-1,-1,-1,-1,-1,-1,-1,-1,-1,-1,-1,-1,-1,-1,-1,-1,-1,-1,-1,-1,-1,-1,-1,-1,-1,-1,-1,-1,-1,-1,-1,-1,-1],"split_conditions":[4.059656E-1,2.6388094E-1,5.3915817E-1,1.8082128E-1,3.145132E-1,4.701279E-1,6.020361E-1,-1.5897276E-2,2.305393E-1,2.2624454E-1,3.6730656E-1,5.2149624E-1,4.9497887E-1,4.2934692E-1,6.382089E-1,7.495772E-2,2.8106028E-1,2.5685084E-1,2.9592207E-1,3.8617185E-1,3.79527E-1,4.7505084E-1,5.3795576E-1,5.053338E-1,4.9618417E-1,3.903237E-1,6.3410485E-1,5.915341E-1,5.908488E-1,-2.9772567E-3,3.442308E-1,8.3731286E-2,-2.5488497E-3,-1.7763444E-3,2.3351002E-1,2.2187857E-1,3.8325453E-1,3.9293557E-1,3.84497E-1,3.6500797E-1,5.1114124E-1,4.0547737E-1,4.8434997E-1,5.165817E-1,5.0821036E-1,4.943646E-1,5.215903E-1,5.262069E-1,4.4377586E-1,7.6934695E-5,2.3788156E-3,4.9500394E-1,2.507943E-3,5.410707E-1,1.4007343E-2,5.3173007E-4,8.2900245E-3,-1.0398175E-2,-1.5306608E-3,-2.6762488E-3,-8.141937E-3,-1.6644449E-3,-8.446665E-3,-1.1993633E-3,-4.607018E-3,-6.9971853E-3,-1.7229528E-3,-2.7611952E-3,4.496697E-3,-8.054872E-3,-1.8977574E-3,-1.8406232E-3,-4.1833805E-4,-2.6131726E-3,2.0112032E-3,5.2840414E-4,2.755241E-3,-3.5820396E-3,8.2690554E-4,6.548211E-4,6.204369E-3,4.245557E-4,1.4573454E-3,3.803698E-3,6.091172E-3,2.3063533E-3,-1.0192157E-3,6.0398844E-3,1.1264831E-2,5.032246E-4,5.292606E-3,1.7597795E-3,8.27747E-3,2.323392E-3,1.0786131E-2],"split_indices":[29,29,29,29,29,29,29,0,29,2,29,14,29,10,18,10,26,28,17,23,5,16,11,15,21,3,26,14,2,0,1,9,0,0,22,7,18,27,25,25,6,22,16,13,3,25,26,15,9,0,0,27,0,22,0,0,0,0,0,0,0,0,0,0,0,0,0,0,0,0,0,0,0,0,0,0,0,0,0,0,0,0,0,0,0,0,0,0,0,0,0,0,0,0,0],"split_type":[0,0,0,0,0,0,0,0,0,0,0,0,0,0,0,0,0,0,0,0,0,0,0,0,0,0,0,0,0,0,0,0,0,0,0,0,0,0,0,0,0,0,0,0,0,0,0,0,0,0,0,0,0,0,0,0,0,0,0,0,0,0,0,0,0,0,0,0,0,0,0,0,0,0,0,0,0,0,0,0,0,0,0,0,0,0,0,0,0,0,0,0,0,0,0],"sum_hessian":[9.8E2,5.05E2,4.75E2,1.77E2,3.28E2,2.86E2,1.89E2,4E1,1.37E2,9.9E1,2.29E2,1.03E2,1.83E2,1.07E2,8.2E1,7.1E1,6.6E1,2.4E1,7.5E1,1.07E2,1.22E2,9E1,1.3E1,5E1,1.33E2,3E0,1.04E2,7.4E1,8E0,2E0,6.9E1,6.3E1,3E0,3E0,2.1E1,4.4E1,3.1E1,9.2E1,1.5E1,8.4E1,3.8E1,6.5E1,2.5E1,8E0,5E0,3.7E1,1.3E1,4E1,9.3E1,1E0,2E0,1.02E2,2E0,4.1E1,3.3E1,1E0,7E0,6.8E1,1E0,2E0,6.1E1,1E0,2E1,3E0,4.1E1,2.8E1,3E0,9.1E1,1E0,7E0,8E0,2.2E1,6.2E1,3.5E1,3E0,3E1,3.5E1,5E0,2E1,1E0,7E0,3E0,2E0,2.6E1,1.1E1,1.1E1,2E0,3.7E1,3E0,6E0,8.7E1,1E0,1.01E2,1E0,4E1],"tree_param":{"num_deleted":"0","num_feature":"30","num_nodes":"95","size_leaf_vector":"1"}},{"base_weights":[-2.4043433E-5,-1.3180133E-2,1.5593373E-2,-2.2949483E-2,-5.4578003E-3,1.0101826E-2,2.3026051E-2,-1.2032331E-2,-1.9847546E-2,-9.718774E-3,-2.8903175E-3,5.8999974E-3,1.2648914E-2,1.8776082E-2,2.8278707E-2,-2.4323342E-2,-1.6558986E-2,-1.3814283E-2,-8.5051665E-3,-5.801658E-3,-1.4803009E-3,5.303274E-3,1.6177088E-2,1.8860409E-2,1.1881566E-2,5.4937503E-3,1.9367518E-2,2.5343325E-2,3.4438882E-2,-1.0482518E-2,-2.5460226E-2,-1.4833741E-2,-2.1401688E-2,-1.1316894E-2,-7.0416015E-3,-7.1261036E-3,-1.3926723E-2,-4.281392E-3,-1.6917799E-2,-9.2893495E-4,-1.087835E-2,7.089825E-3,9.312486E-4,5.4720687E-3,1.1886791E-3,5.178094E-4,1.9887632E-2,2.7957186E-3,1.2319013E-2,2.861394E-3,-1.7298063E-3,1.9727468E-2,1.0260423E-2,2.5721803E-2,4.5197012E-4,1.0602161E-2,2.0551356E-3,-4.1013374E-3,1.7756582E-3,-8.6258575E-3,-6.4797592E-3,-5.51772E-3,-3.7475633E-3,-7.0298905E-3,-2.9128867E-3,-4.367564E-3,-1.8885667E-3,-2.4427068E-3,3.015856E-4,-6.156168E-3,-1.7356426E-3,-1.6470011E-3,2.6708187E-3,-1.1263579E-3,-5.5457773E-3,3.139061E-3,-3.912207E-4,-5.4676817E-3,1.4979573E-3,1.2108344E-3,3.1813139E-3,-1.581131E-3,1.1956587E-3,6.576482E-3,2.6441396E-3,1.2730326E-3,-1.1007518E-3,-4.924715E-4,3.7604398E-3,6.539226E-5,-8.438051E-4,6.00447E-3,2.3907335E-3,7.030428E-4,3.4125352E-3,1.7437757E-3,7.789455E-3],"categories":[],"categories_nodes":[],"categories_segments":[],"categories_sizes":[],"default_left":[0,0,0,0,0,0,0,0,0,0,0,0,0,0,0,0,0,0,0,0,0,0,0,0,0,0,0,0,0,0,0,0,0,0,0,0,0,0,0,0,0,0,0,0,0,0,0,0,0,0,0,0,0,0,0,0,0,0,0,0,0,0,0,0,0,0,0,0,0,0,0,0,0,0,0,0,0,0,0,0,0,0,0,0,0,0,0,0,0,0,0,0,0,0,0,0,0],"id":6,"left_children":[1,3,5,7,9,11,13,-1,15,17,19,21,23,25,27,29,31,33,35,37,39,41,43,45,47,49,51,53,55,57,59,61,63,65,-1,67,69,71,73,75,77,79,81,-1,-1,-1,83,85,87,-1,89,91,93,95,-1,-1,-1,-1,-1,-1,-1,-1,-1,-1,-1,-1,-1,-1,-1,-1,-1,-1,-1,-1,-1,-1,-1,-1,-1,-1,-1,-1,-1,-1,-1,-1,-1,-1,-1,-1,-1,-1,-1,-1,-1,-1,-1],"loss_changes":[2.0176584E-1,4.008542E-2,1.8094175E-2,1.171159E-2,3.242962E-3,2.708001E-3,3.7105232E-3,0E0,2.555728E-3,4.3918472E-4,7.631588E-4,5.274664E-4,5.432982E-4,7.4200705E-4,6.280467E-4,1.0391511E-3,6.767623E-4,3.1322753E-4,5.6618033E-4,9.5843757E-4,6.531605E-4,7.4323895E-4,5.3731957E-5,2.4728663E-4,5.4585E-4,1.9178119E-4,1.3523176E-4,5.0255284E-4,3.5490282E-4,4.9929775E-4,3.451407E-4,5.28628E-4,4.612198E-4,2.5019958E-4,0E0,6.11424E-4,7.9387333E-4,9.252727E-4,7.508579E-5,5.35037E-4,9.0728956E-4,6.8700453E-4,5.703143E-4,0E0,0E0,0E0,1.4464557E-4,9.044491E-5,4.3931417E-4,0E0,6.9407142E-6,1.717098E-4,2.6292517E-5,1.3456866E-4,0E0,0E0,0E0,0E0,0E0,0E0,0E0,0E0,0E0,0E0,0E0,0E0,0E0,0E0,0E0,0E0,0E0,0E0,0E0,0E0,0E0,0E0,0E0,0E0,0E0,0E0,0E0,0E0,0E0,0E0,0E0,0E0,0E0,0E0,0E0,0E0,0E0,0E0,0E0,0E0,0E0,0E0,0E0],"parents":[2147483647,0,0,1,1,2,2,3,3,4,4,5,5,6,6,8,8,9,9,10,10,11,11,12,12,13,13,14,14,15,15,16,16,17,17,18,18,19,19,20,20,21,21,22,22,23,23,24,24,25,25,26,26,27,27,28,28,29,29,30,30,31,31,32,32,33,33,35,35,36,36,37,37,38,38,39,39,40,40,41,41,42,42,46,46,47,47,48,48,50,50,51,51,52,52,53,53],"right_children":[2,4,6,8,10,12,14,-1,16,18,20,22,24,26,28,30,32,34,36,38,40,42,44,46,48,50,52,54,56,58,60,62,64,66,-1,68,70,72,74,76,78,80,82,-1,-1,-1,84,86,88,-1,90,92,94,96,-1,-1,-1,-1,-1,-1,-1,-1,-1,-1,-1,-1,-1,-1,-1,-1,-1,-1,-1,-1,-1,-1,-1,-1,-1,-1,-1,-1,-1,-1,-1,-1,-1,-1,-1,-1,-1,-1,-1,-1,-1,-1,-1],"split_conditions":[4.1945028E-1,2.9526243E-1,5.3915817E-1,8.3731286E-2,3.546962E-1,4.792533E-1,6.020361E-1,-1.2032331E-2,2.305393E-1,2.8245866E-1,3.6500797E-1,5.2402794E-1,4.543846E-1,4.51842E-1,6.12163E-1,1.5662676E-1,2.9596967E-1,3.0340597E-1,4.2630887E-1,3.7091297E-1,5.215903E-1,4.8928094E-1,5.081022E-1,3.8535115E-1,4.4186828E-1,3.9293557E-1,6.4782244E-1,6.4782244E-1,6.382089E-1,2.2478653E-1,1.9704476E-1,2.5231978E-1,3.5573155E-1,2.59386E-1,-7.0416015E-3,3.8993245E-1,4.2934692E-1,4.2495278E-1,3.3717844E-1,3.551843E-1,4.730953E-1,4.5011064E-1,5.089388E-1,5.4720687E-3,1.1886791E-3,5.178094E-4,4.584291E-1,5.406336E-1,4.5978335E-1,2.861394E-3,3.9417124E-1,6.050378E-1,6.0853034E-1,4.8199266E-1,4.5197012E-4,1.0602161E-2,2.0551356E-3,-4.1013374E-3,1.7756582E-3,-8.6258575E-3,-6.4797592E-3,-5.51772E-3,-3.7475633E-3,-7.0298905E-3,-2.9128867E-3,-4.367564E-3,-1.8885667E-3,-2.4427068E-3,3.015856E-4,-6.156168E-3,-1.7356426E-3,-1.6470011E-3,2.6708187E-3,-1.1263579E-3,-5.5457773E-3,3.139061E-3,-3.912207E-4,-5.4676817E-3,1.4979573E-3,1.2108344E-3,3.1813139E-3,-1.581131E-3,1.1956587E-3,6.576482E-3,2.6441396E-3,1.2730326E-3,-1.1007518E-3,-4.924715E-4,3.7604398E-3,6.539226E-5,-8.438051E-4,6.00447E-3,2.3907335E-3,7.030428E-4,3.4125352E-3,1.7437757E-3,7.789455E-3],"split_indices":[28,29,29,1,29,29,29,0,26,21,25,19,21,8,13,14,19,25,2,26,0,18,1,13,18,0,17,26,14,1,1,27,18,16,0,18,14,7,2,24,12,28,14,0,0,0,18,0,21,0,0,28,2,6,0,0,0,0,0,0,0,0,0,0,0,0,0,0,0,0,0,0,0,0,0,0,0,0,0,0,0,0,0,0,0,0,0,0,0,0,0,0,0,0,0,0,0],"split_type":[0,0,0,0,0,0,0,0,0,0,0,0,0,0,0,0,0,0,0,0,0,0,0,0,0,0,0,0,0,0,0,0,0,0,0,0,0,0,0,0,0,0,0,0,0,0,0,0,0,0,0,0,0,0,0,0,0,0,0,0,0,0,0,0,0,0,0,0,0,0,0,0,0,0,0,0,0,0,0,0,0,0,0,0,0,0,0,0,0,0,0,0,0,0,0,0,0],"sum_hessian":[9.8E2,5.32E2,4.48E2,2.34E2,2.98E2,2.59E2,1.89E2,3.4E1,2E2,1.11E2,1.87E2,9.9E1,1.6E2,1.07E2,8.2E1,8.2E1,1.18E2,2.3E1,8.8E1,6E1,1.27E2,9.5E1,4E0,1.5E1,1.45E2,5E0,1.02E2,5.9E1,2.3E1,7E0,7.5E1,9E1,2.8E1,2E1,3E0,7.2E1,1.6E1,5.4E1,6E0,1.21E2,6E0,6.7E1,2.8E1,3E0,1E0,1E0,1.4E1,7E0,1.38E2,3E0,2E0,9.7E1,5E0,5.8E1,1E0,2.2E1,1E0,6E0,1E0,3.7E1,3.8E1,3.3E1,5.7E1,2.3E1,5E0,1.1E1,9E0,6.4E1,8E0,8E0,8E0,5E1,4E0,1E0,5E0,3E0,1.18E2,4E0,2E0,3.7E1,3E1,9E0,1.9E1,1.1E1,3E0,6E0,1E0,2E0,1.36E2,1E0,1E0,9.4E1,3E0,1E0,4E0,1E0,5.7E1],"tree_param":{"num_deleted":"0","num_feature":"30","num_nodes":"97","size_leaf_vector":"1"}},{"base_weights":[-3.4964403E-5,-1.03494115E-2,1.0112856E-2,-1.7785368E-2,-5.892897E-3,5.8397036E-3,1.5932385E-2,-9.890141E-3,-1.5707575E-2,-1.01409545E-2,-3.932203E-3,2.445375E-3,8.09495E-3,1.3104192E-2,2.0067906E-2,-1.9181998E-2,-1.3842194E-2,-1.7591026E-2,-9.070121E-3,-4.1693673E-3,6.6728294E-3,-4.0806895E-3,3.3086715E-3,1.101773E-2,6.9078426E-3,2.3229974E-3,1.3619598E-2,2.217339E-2,1.5382753E-2,-1.37343565E-2,-2.495189E-2,-1.24867E-2,-1.7689094E-2,-6.326139E-4,-2.128927E-2,-6.8313098E-3,-1.2293263E-2,-3.5393294E-3,-1.2602078E-2,2.3788176E-3,2.4698675E-4,1.8446684E-3,-6.6352994E-3,2.9055641E-3,4.733118E-3,6.2888097E-3,1.4777248E-2,1.9631452E-4,7.962469E-3,1.3276793E-3,-1.9556682E-3,1.5477965E-2,1.153796E-2,1.8069904E-2,2.6055356E-2,1.0326913E-2,1.8344115E-2,-4.32299E-3,8.787476E-4,-7.931471E-3,-1.571788E-3,-4.488224E-3,-2.7294292E-3,-5.9018484E-3,-2.3393529E-3,9.496808E-5,-3.7964436E-4,-6.7480444E-3,-1.7483399E-3,-2.3826782E-3,-3.7799927E-4,-4.065997E-3,-1.2462303E-3,-1.4820652E-3,-5.894446E-4,-4.350099E-3,-1.2694113E-3,-9.793908E-4,1.901725E-3,-2.4220324E-3,-7.379182E-4,1.3041227E-3,-1.469072E-4,9.432447E-4,3.2493463E-3,5.1048277E-3,1.3435245E-3,-1.3531409E-3,4.3151082E-4,-1.8746436E-3,2.4868671E-3,5.5584314E-5,-9.35635E-4,3.314948E-3,5.1223896E-3,2.2093256E-3,4.213825E-3,6.4773792E-3,4.232108E-3,3.3036054E-3,8.055041E-3,3.4905507E-3,6.2630174E-4,2.2650005E-3,5.783999E-3],"categories":[],"categories_nodes":[],"categories_segments":[],"categories_sizes":[],"default_left":[0,0,0,0,0,0,0,0,0,0,0,0,0,0,0,0,0,0,0,0,0,0,0,0,0,0,0,0,0,0,0,0,0,0,0,0,0,0,0,0,0,0,0,0,0,0,0,0,0,0,0,0,0,0,0,0,0,0,0,0,0,0,0,0,0,0,0,0,0,0,0,0,0,0,0,0,0,0,0,0,0,0,0,0,0,0,0,0,0,0,0,0,0,0,0,0,0,0,0,0,0,0,0,0,0],"id":7,"left_children":[1,3,5,7,9,11,13,-1,15,17,19,21,23,25,27,29,31,33,35,37,39,41,43,45,47,49,51,53,55,57,59,61,63,65,67,69,71,73,75,-1,-1,77,79,81,-1,83,85,87,89,-1,91,93,95,97,99,101,103,-1,-1,-1,-1,-1,-1,-1,-1,-1,-1,-1,-1,-1,-1,-1,-1,-1,-1,-1,-1,-1,-1,-1,-1,-1,-1,-1,-1,-1,-1,-1,-1,-1,-1,-1,-1,-1,-1,-1,-1,-1,-1,-1,-1,-1,-1,-1,-1],"loss_changes":[1.027851E-1,1.603362E-2,1.221649E-2,5.223278E-3,2.5088415E-3,2.177203E-3,2.1815002E-3,0E0,7.844195E-4,6.063152E-4,5.585144E-4,6.670372E-4,5.2067265E-4,6.740652E-4,4.7766417E-4,1.3546478E-3,3.474988E-4,6.7641214E-4,5.365978E-4,1.0551724E-3,3.0223368E-5,2.2415763E-4,4.7184702E-4,7.604351E-4,8.832058E-4,7.1629256E-5,2.8949603E-4,4.0530972E-4,2.447553E-4,3.799498E-4,5.939761E-4,5.68104E-4,3.5675615E-4,2.2027048E-6,3.6482234E-5,3.1803385E-4,2.9239617E-4,4.182025E-4,1.6109948E-4,0E0,0E0,1.3551145E-4,4.0192157E-5,4.964529E-4,0E0,2.9448024E-4,5.232892E-4,1.11717236E-4,5.538217E-4,0E0,8.048361E-6,2.4261326E-4,5.350923E-4,1.1405256E-4,1.5186146E-5,1.1583709E-4,2.6170164E-5,0E0,0E0,0E0,0E0,0E0,0E0,0E0,0E0,0E0,0E0,0E0,0E0,0E0,0E0,0E0,0E0,0E0,0E0,0E0,0E0,0E0,0E0,0E0,0E0,0E0,0E0,0E0,0E0,0E0,0E0,0E0,0E0,0E0,0E0,0E0,0E0,0E0,0E0,0E0,0E0,0E0,0E0,0E0,0E0,0E0,0E0,0E0,0E0],"parents":[2147483647,0,0,1,1,2,2,3,3,4,4,5,5,6,6,8,8,9,9,10,10,11,11,12,12,13,13,14,14,15,15,16,16,17,17,18,18,19,19,20,20,21,21,22,22,23,23,24,24,25,25,26,26,27,27,28,28,29,29,30,30,31,31,32,32,33,33,34,34,35,35,36,36,37,37,38,38,41,41,42,42,43,43,45,45,46,46,47,47,48,48,50,50,51,51,52,52,53,53,54,54,55,55,56,56],"right_children":[2,4,6,8,10,12,14,-1,16,18,20,22,24,26,28,30,32,34,36,38,40,42,44,46,48,50,52,54,56,58,60,62,64,66,68,70,72,74,76,-1,-1,78,80,82,-1,84,86,88,90,-1,92,94,96,98,100,102,104,-1,-1,-1,-1,-1,-1,-1,-1,-1,-1,-1,-1,-1,-1,-1,-1,-1,-1,-1,-1,-1,-1,-1,-1,-1,-1,-1,-1,-1,-1,-1,-1,-1,-1,-1,-1,-1,-1,-1,-1,-1,-1,-1,-1,-1,-1,-1,-1],"split_conditions":[3.966901E-1,2.6555026E-1,5.2926725E-1,4.942715E-2,3.145132E-1,4.6715212E-1,6.020361E-1,-9.890141E-3,1.9280441E-1,2.1365584E-1,4.7798422E-1,3.6050475E-1,4.658505E-1,4.573391E-1,5.868105E-1,1.9591768E-1,2.925286E-1,2.5685084E-1,2.9818282E-1,4.1166177E-1,5.248384E-1,3.6537904E-1,5.2402794E-1,4.4432202E-1,4.6715212E-1,4.390071E-1,5.479238E-1,6.1107254E-1,6.1107254E-1,2.0263323E-1,2.688761E-1,2.287176E-1,3.442308E-1,9.577325E-2,2.21394E-1,3.009222E-1,3.6942524E-1,3.6730656E-1,4.7440305E-1,2.3788176E-3,2.4698675E-4,3.4838775E-1,4.09497E-1,4.9424002E-1,4.733118E-3,4.8161352E-1,5.204692E-1,4.059656E-1,3.988156E-1,1.3276793E-3,3.9417124E-1,5.089388E-1,5.763392E-1,5.887982E-1,5.433162E-1,6.3410485E-1,6.1107254E-1,-4.32299E-3,8.787476E-4,-7.931471E-3,-1.571788E-3,-4.488224E-3,-2.7294292E-3,-5.9018484E-3,-2.3393529E-3,9.496808E-5,-3.7964436E-4,-6.7480444E-3,-1.7483399E-3,-2.3826782E-3,-3.7799927E-4,-4.065997E-3,-1.2462303E-3,-1.4820652E-3,-5.894446E-4,-4.350099E-3,-1.2694113E-3,-9.793908E-4,1.901725E-3,-2.4220324E-3,-7.379182E-4,1.3041227E-3,-1.469072E-4,9.432447E-4,3.2493463E-3,5.1048277E-3,1.3435245E-3,-1.3531409E-3,4.3151082E-4,-1.8746436E-3,2.4868671E-3,5.5584314E-5,-9.35635E-4,3.314948E-3,5.1223896E-3,2.2093256E-3,4.213825E-3,6.4773792E-3,4.232108E-3,3.3036054E-3,8.055041E-3,3.4905507E-3,6.2630174E-4,2.2650005E-3,5.783999E-3],"split_indices":[29,29,29,2,29,29,29,0,4,0,11,19,17,16,2,17,14,28,23,22,1,24,19,19,14,13,22,21,11,7,22,26,7,0,1,14,21,29,8,0,0,20,29,7,0,28,29,10,7,0,0,18,23,23,10,23,6,0,0,0,0,0,0,0,0,0,0,0,0,0,0,0,0,0,0,0,0,0,0,0,0,0,0,0,0,0,0,0,0,0,0,0,0,0,0,0,0,0,0,0,0,0,0,0,0],"split_type":[0,0,0,0,0,0,0,0,0,0,0,0,0,0,0,0,0,0,0,0,0,0,0,0,0,0,0,0,0,0,0,0,0,0,0,0,0,0,0,0,0,0,0,0,0,0,0,0,0,0,0,0,0,0,0,0,0,0,0,0,0,0,0,0,0,0,0,0,0,0,0,0,0,0,0,0,0,0,0,0,0,0,0,0,0,0,0,0,0,0,0,0,0,0,0,0,0,0,0,0,0,0,0,0,0],"sum_hessian":[9.8E2,4.86E2,4.94E2,1.81E2,3.05E2,2.86E2,2.08E2,2E1,1.61E2,9.5E1,2.1E2,1.15E2,1.71E2,1.26E2,8.2E1,5.3E1,1.08E2,1E1,8.5E1,2.06E2,4E0,1.3E1,1.02E2,4.7E1,1.24E2,6E0,1.2E2,5.4E1,2.8E1,2.9E1,2.4E1,8.3E1,2.5E1,2E0,8E0,5.2E1,3.3E1,1.93E2,1.3E1,3E0,1E0,4E0,9E0,1E2,2E0,2.2E1,2.5E1,1.7E1,1.07E2,4E0,2E0,6E1,6E1,2.9E1,2.5E1,1.2E1,1.6E1,2.8E1,1E0,2.2E1,2E0,4.6E1,3.7E1,2E1,5E0,1E0,1E0,7E0,1E0,4.3E1,9E0,2.8E1,5E0,1.01E2,9.2E1,1E1,3E0,2E0,2E0,6E0,3E0,7E1,3E1,1.4E1,8E0,2E1,5E0,3E0,1.4E1,2E0,1.05E2,1E0,1E0,1.8E1,4.2E1,2.4E1,3.6E1,1.3E1,1.6E1,2E0,2.3E1,1E1,2E0,2E0,1.4E1],"tree_param":{"num_deleted":"0","num_feature":"30","num_nodes":"105","size_leaf_vector":"1"}},{"base_weights":[-2.1100614E-5,-6.510619E-3,8.173087E-3,-1.134715E-2,-2.4150487E-3,5.914029E-3,1.3079594E-2,-2.2001833E-2,-9.964658E-3,-4.0040216E-3,-8.205688E-4,3.7110876E-3,7.1949624E-3,1.2169228E-2,2.0143552E-2,-8.6712465E-3,-1.7211042E-2,-1.3079257E-2,-8.797634E-3,-2.7419045E-3,-6.770459E-3,-4.4302858E-4,-9.807696E-3,1.1308208E-2,2.9374731E-3,6.8296352E-3,1.5665608E-2,1.3813988E-2,1.0383521E-2,2.106005E-3,6.5237423E-3,-5.527149E-3,-4.601568E-3,-5.449095E-3,-1.685244E-2,-7.3945E-3,-1.0974274E-2,-5.633273E-3,-9.2041766E-4,-9.246178E-3,-2.7656916E-3,-1.7650024E-3,1.8174273E-3,-3.6907303E-3,3.998995E-4,5.0959983E-3,4.9503655E-3,2.25175E-3,1.0798965E-2,8.170441E-3,5.3045657E-3,6.109983E-4,5.2792965E-3,4.7537345E-3,1.4715948E-2,9.065639E-3,1.5789358E-2,-3.9117338E-4,-1.6795323E-3,-2.5868579E-3,-3.2870026E-4,-6.5580104E-3,-3.8435578E-3,-3.366824E-3,-1.7509278E-3,-3.5868564E-3,-1.5736717E-3,-1.2539455E-3,-4.4914484E-3,4.6595806E-4,-1.4071718E-3,-1.2573858E-3,-4.0043E-3,-8.658927E-5,-2.0912546E-3,-2.446822E-4,-3.1289738E-3,-1.7749212E-3,9.873176E-4,2.2524567E-3,6.038569E-4,9.633314E-4,-9.4285136E-4,5.0318893E-3,1.1579919E-3,1.9130656E-3,5.4275854E-3,-6.233831E-4,1.8206373E-3,2.198968E-3,-3.373325E-4,3.5146775E-4,4.4835224E-3,1.967314E-3,3.230938E-3,5.8097164E-3,1.4067874E-3],"categories":[],"categories_nodes":[],"categories_segments":[],"categories_sizes":[],"default_left":[0,0,0,0,0,0,0,0,0,0,0,0,0,0,0,0,0,0,0,0,0,0,0,0,0,0,0,0,0,0,0,0,0,0,0,0,0,0,0,0,0,0,0,0,0,0,0,0,0,0,0,0,0,0,0,0,0,0,0,0,0,0,0,0,0,0,0,0,0,0,0,0,0,0,0,0,0,0,0,0,0,0,0,0,0,0,0,0,0,0,0,0,0,0,0,0,0],"id":8,"left_children":[1,3,5,7,9,11,13,15,17,19,21,23,25,27,29,-1,31,33,35,37,39,41,43,45,47,49,51,53,55,-1,-1,-1,57,59,61,63,65,67,69,71,73,75,77,-1,-1,79,-1,81,83,85,87,-1,-1,89,91,93,95,-1,-1,-1,-1,-1,-1,-1,-1,-1,-1,-1,-1,-1,-1,-1,-1,-1,-1,-1,-1,-1,-1,-1,-1,-1,-1,-1,-1,-1,-1,-1,-1,-1,-1,-1,-1,-1,-1,-1,-1],"loss_changes":[5.2219193E-2,1.0827575E-2,4.7331396E-3,3.4779906E-3,7.5172284E-4,8.170232E-4,6.2945485E-4,4.2842142E-4,6.991308E-4,5.016797E-4,5.0460524E-4,6.2503363E-4,4.7478545E-4,2.1782145E-4,1.4172588E-4,0E0,2.0578085E-4,1.6067792E-3,4.258342E-4,5.4254034E-4,4.305034E-4,4.3650594E-4,1.831578E-4,2.3851043E-4,5.3093635E-4,3.2881647E-4,1.4848204E-4,4.2853504E-4,3.0568708E-4,0E0,0E0,0E0,2.5621703E-6,2.8070412E-4,5.090423E-4,5.548266E-4,2.9166462E-4,4.8032939E-4,6.134687E-4,5.2456814E-4,1.9590014E-4,7.483242E-4,6.348993E-4,0E0,0E0,2.9509858E-5,0E0,5.0692295E-4,2.6688504E-4,1.5751338E-3,5.090977E-4,0E0,0E0,1.1424384E-4,1.5317742E-4,1.5589083E-4,3.4586503E-4,0E0,0E0,0E0,0E0,0E0,0E0,0E0,0E0,0E0,0E0,0E0,0E0,0E0,0E0,0E0,0E0,0E0,0E0,0E0,0E0,0E0,0E0,0E0,0E0,0E0,0E0,0E0,0E0,0E0,0E0,0E0,0E0,0E0,0E0,0E0,0E0,0E0,0E0,0E0,0E0],"parents":[2147483647,0,0,1,1,2,2,3,3,4,4,5,5,6,6,7,7,8,8,9,9,10,10,11,11,12,12,13,13,14,14,16,16,17,17,18,18,19,19,20,20,21,21,22,22,23,23,24,24,25,25,26,26,27,27,28,28,32,32,33,33,34,34,35,35,36,36,37,37,38,38,39,39,40,40,41,41,42,42,45,45,47,47,48,48,49,49,50,50,53,53,54,54,55,55,56,56],"right_children":[2,4,6,8,10,12,14,16,18,20,22,24,26,28,30,-1,32,34,36,38,40,42,44,46,48,50,52,54,56,-1,-1,-1,58,60,62,64,66,68,70,72,74,76,78,-1,-1,80,-1,82,84,86,88,-1,-1,90,92,94,96,-1,-1,-1,-1,-1,-1,-1,-1,-1,-1,-1,-1,-1,-1,-1,-1,-1,-1,-1,-1,-1,-1,-1,-1,-1,-1,-1,-1,-1,-1,-1,-1,-1,-1,-1,-1,-1,-1,-1,-1],"split_conditions":[4.2934692E-1,3.011984E-1,5.6712973E-1,6.670653E-2,3.706112E-1,4.9497887E-1,6.409993E-1,8.6584374E-2,1.9344857E-1,3.75723E-1,5.215903E-1,3.6823675E-1,6.3410485E-1,5.6042093E-1,6.0853034E-1,-8.6712465E-3,9.577325E-2,1.8813458E-1,2.7502888E-1,3.118041E-1,3.964176E-1,3.8186696E-1,5.3980863E-1,3.698096E-1,5.294214E-1,5.217967E-1,6.0853034E-1,5.746407E-1,6.409993E-1,2.106005E-3,6.5237423E-3,-5.527149E-3,6.3464835E-2,1.6800606E-1,1.7589639E-1,2.0547199E-1,2.8484556E-1,3.348214E-1,3.5724938E-1,3.7357935E-1,4.2508313E-1,3.872622E-1,3.6537904E-1,-3.6907303E-3,3.998995E-4,3.235051E-1,4.9503655E-3,5.0821036E-1,5.3980863E-1,5.410707E-1,5.239698E-1,6.109983E-4,5.2792965E-3,5.0729454E-1,4.8253423E-1,6.1107254E-1,6.323786E-1,-3.9117338E-4,-1.6795323E-3,-2.5868579E-3,-3.2870026E-4,-6.5580104E-3,-3.8435578E-3,-3.366824E-3,-1.7509278E-3,-3.5868564E-3,-1.5736717E-3,-1.2539455E-3,-4.4914484E-3,4.6595806E-4,-1.4071718E-3,-1.2573858E-3,-4.0043E-3,-8.658927E-5,-2.0912546E-3,-2.446822E-4,-3.1289738E-3,-1.7749212E-3,9.873176E-4,2.2524567E-3,6.038569E-4,9.633314E-4,-9.4285136E-4,5.0318893E-3,1.1579919E-3,1.9130656E-3,5.4275854E-3,-6.233831E-4,1.8206373E-3,2.198968E-3,-3.373325E-4,3.5146775E-4,4.4835224E-3,1.967314E-3,3.230938E-3,5.8097164E-3,1.4067874E-3],"split_indices":[29,29,29,3,29,29,29,29,1,20,0,8,10,2,13,0,19,15,8,22,20,10,1,12,6,22,3,28,9,0,0,0,3,18,3,14,29,26,24,7,16,5,17,0,0,4,0,5,6,15,22,0,0,21,15,21,18,0,0,0,0,0,0,0,0,0,0,0,0,0,0,0,0,0,0,0,0,0,0,0,0,0,0,0,0,0,0,0,0,0,0,0,0,0,0,0,0],"split_type":[0,0,0,0,0,0,0,0,0,0,0,0,0,0,0,0,0,0,0,0,0,0,0,0,0,0,0,0,0,0,0,0,0,0,0,0,0,0,0,0,0,0,0,0,0,0,0,0,0,0,0,0,0,0,0,0,0,0,0,0,0,0,0,0,0,0,0,0,0,0,0,0,0,0,0,0,0,0,0,0,0,0,0,0,0,0,0,0,0,0,0,0,0,0,0,0,0],"sum_hessian":[9.8E2,5.47E2,4.33E2,2.5E2,2.97E2,2.98E2,1.35E2,2.7E1,2.23E2,1.48E2,1.49E2,1.11E2,1.87E2,1.22E2,1.3E1,9E0,1.8E1,5.8E1,1.65E2,1.03E2,4.5E1,1.44E2,5E0,9E0,1.02E2,1.81E2,6E0,6E1,6.2E1,2E0,1.1E1,1.6E1,2E0,2E1,3.8E1,1.03E2,6.2E1,3.9E1,6.4E1,2.7E1,1.8E1,9.1E1,5.3E1,4E0,1E0,5E0,4E0,9.5E1,7E0,9.4E1,8.7E1,1E0,5E0,6E0,5.4E1,5.2E1,1E1,1E0,1E0,1.1E1,9E0,1.5E1,2.3E1,2.8E1,7.5E1,5.2E1,1E1,3.5E1,4E0,3.9E1,2.5E1,1.3E1,1.4E1,1.2E1,6E0,8.3E1,8E0,8E0,4.5E1,2E0,3E0,8.1E1,1.4E1,3E0,4E0,8.1E1,1.3E1,8E0,7.9E1,4E0,2E0,1E0,5.3E1,2.3E1,2.9E1,7E0,3E0],"tree_param":{"num_deleted":"0","num_feature":"30","num_nodes":"97","size_leaf_vector":"1"}},{"base_weights":[-2.0129106E-5,-5.3675687E-3,5.093001E-3,-1.2109024E-2,-4.049452E-3,2.4083822E-3,7.6226075E-3,-2.1100031E-2,-1.06304865E-2,-6.074844E-3,-2.0439231E-3,1.8359136E-3,8.427289E-3,6.1897095E-3,1.0228575E-2,-6.664573E-3,-1.6594693E-3,-9.74376E-3,-2.0031836E-2,1.2870114E-3,-6.348523E-3,-7.804547E-4,-3.7684443E-3,2.2259748E-3,-2.059251E-3,1.2847792E-2,1.1057523E-3,5.76322E-3,1.2394572E-2,1.1296788E-2,5.3281253E-3,-1.10978205E-2,-5.881413E-3,-1.3040499E-3,-6.859914E-3,-5.39222E-3,6.3729943E-3,-1.3074008E-2,-5.9095672E-3,-3.6146773E-3,1.1865505E-3,-9.851495E-3,-2.0133501E-3,2.5384626E-4,3.2029888E-3,-4.6159434E-3,2.6723668E-3,5.781745E-3,4.9624066E-3,3.385216E-3,-7.769645E-4,7.600199E-3,4.212369E-3,4.92287E-3,2.2696853E-3,9.329104E-3,1.4494944E-2,1.4660103E-3,7.1370155E-3,-2.6913725E-3,-6.1030467E-3,2.4450035E-4,-2.3164372E-3,-4.4586585E-4,-1.8596442E-3,3.6943855E-4,2.8170585E-3,-4.2868373E-3,-1.3792813E-4,-1.6805505E-3,-3.853973E-3,1.517821E-4,-1.4894304E-3,-7.740177E-6,1.8373184E-3,-1.0814578E-3,-4.220037E-3,4.5933085E-4,-1.0566311E-3,4.6248996E-4,-1.4746301E-3,1.7156171E-3,6.7490106E-4,-2.2481482E-3,1.4106184E-4,1.2984293E-3,-1.3376623E-3,2.0255991E-3,1.3957323E-4,-6.51303E-4,1.4791989E-3,1.5028818E-3,3.2594602E-3,1.0475329E-3,3.3215717E-3,-3.9316717E-4,1.1699855E-3,4.6815278E-4,2.8898837E-3,5.4870145E-3,3.1477597E-3,7.632584E-4,6.397069E-6,2.3484065E-3,7.363975E-4],"categories":[],"categories_nodes":[],"categories_segments":[],"categories_sizes":[],"default_left":[0,0,0,0,0,0,0,0,0,0,0,0,0,0,0,0,0,0,0,0,0,0,0,0,0,0,0,0,0,0,0,0,0,0,0,0,0,0,0,0,0,0,0,0,0,0,0,0,0,0,0,0,0,0,0,0,0,0,0,0,0,0,0,0,0,0,0,0,0,0,0,0,0,0,0,0,0,0,0,0,0,0,0,0,0,0,0,0,0,0,0,0,0,0,0,0,0,0,0,0,0,0,0,0,0],"id":9,"left_children":[1,3,5,7,9,11,13,15,17,19,21,23,25,27,29,-1,-1,31,33,35,37,39,41,43,45,47,49,51,53,55,57,59,61,-1,-1,63,65,67,69,71,73,75,77,79,81,83,85,87,-1,89,-1,91,93,-1,95,97,99,101,103,-1,-1,-1,-1,-1,-1,-1,-1,-1,-1,-1,-1,-1,-1,-1,-1,-1,-1,-1,-1,-1,-1,-1,-1,-1,-1,-1,-1,-1,-1,-1,-1,-1,-1,-1,-1,-1,-1,-1,-1,-1,-1,-1,-1,-1,-1],"loss_changes":[2.684999E-2,4.2162584E-3,3.3907378E-3,8.125929E-4,1.6245623E-3,8.287089E-4,9.000832E-4,5.0736126E-5,3.8002757E-4,4.1112723E-4,4.4155004E-4,3.4643814E-4,6.6545594E-4,3.7579378E-4,4.1093398E-4,0E0,0E0,2.7466984E-4,1.2290268E-4,3.0612823E-4,4.9251085E-4,6.6770584E-4,8.9832966E-4,3.9418042E-4,2.663786E-4,2.4364772E-4,8.458387E-5,4.238058E-4,3.6926928E-4,3.2416172E-4,1.1528761E-4,7.4159075E-4,2.404052E-4,0E0,0E0,3.389432E-6,6.600151E-5,1.6208191E-4,3.1869393E-4,2.7510902E-4,4.251924E-4,4.495877E-4,3.690367E-4,4.66906E-4,3.1570136E-4,2.084465E-4,1.1375777E-4,2.780874E-5,0E0,6.222563E-5,0E0,5.545062E-4,4.0126068E-4,0E0,2.845811E-5,9.8268036E-5,2.0301994E-4,1.0849219E-5,1.9611325E-5,0E0,0E0,0E0,0E0,0E0,0E0,0E0,0E0,0E0,0E0,0E0,0E0,0E0,0E0,0E0,0E0,0E0,0E0,0E0,0E0,0E0,0E0,0E0,0E0,0E0,0E0,0E0,0E0,0E0,0E0,0E0,0E0,0E0,0E0,0E0,0E0,0E0,0E0,0E0,0E0,0E0,0E0,0E0,0E0,0E0,0E0],"parents":[2147483647,0,0,1,1,2,2,3,3,4,4,5,5,6,6,7,7,8,8,9,9,10,10,11,11,12,12,13,13,14,14,17,17,18,18,19,19,20,20,21,21,22,22,23,23,24,24,25,25,26,26,27,27,28,28,29,29,30,30,31,31,32,32,35,35,36,36,37,37,38,38,39,39,40,40,41,41,42,42,43,43,44,44,45,45,46,46,47,47,49,49,51,51,52,52,54,54,55,55,56,56,57,57,58,58],"right_children":[2,4,6,8,10,12,14,16,18,20,22,24,26,28,30,-1,-1,32,34,36,38,40,42,44,46,48,50,52,54,56,58,60,62,-1,-1,64,66,68,70,72,74,76,78,80,82,84,86,88,-1,90,-1,92,94,-1,96,98,100,102,104,-1,-1,-1,-1,-1,-1,-1,-1,-1,-1,-1,-1,-1,-1,-1,-1,-1,-1,-1,-1,-1,-1,-1,-1,-1,-1,-1,-1,-1,-1,-1,-1,-1,-1,-1,-1,-1,-1,-1,-1,-1,-1,-1,-1,-1,-1],"split_conditions":[3.94899E-1,1.9280441E-1,5.165817E-1,8.6584374E-2,3.145132E-1,5.433162E-1,5.945437E-1,5.6445993E-2,2.339266E-1,1.860278E-1,3.7341642E-1,5.2292955E-1,5.222086E-1,6.409993E-1,6.2670296E-1,-6.664573E-3,-1.6594693E-3,1.9280441E-1,1.6545318E-1,1.9091238E-1,1.8314274E-1,3.5057172E-1,3.6360535E-1,4.2934692E-1,5.1544166E-1,5.117314E-1,5.847491E-1,5.1996523E-1,6.382089E-1,5.945437E-1,6.323786E-1,1.784192E-1,1.5957892E-1,-1.3040499E-3,-6.859914E-3,1.9328742E-1,1.9499825E-1,2.688761E-1,3.8247612E-1,3.306952E-1,3.947875E-1,3.5130873E-1,3.6853406E-1,4.7165576E-1,4.458079E-1,5.1963353E-1,5.465712E-1,5.3508383E-1,4.9624066E-3,5.7047683E-1,-7.769645E-4,4.8253423E-1,6.409993E-1,4.92287E-3,6.1380446E-1,4.8605165E-1,5.757366E-1,5.945437E-1,6.4782244E-1,-2.6913725E-3,-6.1030467E-3,2.4450035E-4,-2.3164372E-3,-4.4586585E-4,-1.8596442E-3,3.6943855E-4,2.8170585E-3,-4.2868373E-3,-1.3792813E-4,-1.6805505E-3,-3.853973E-3,1.517821E-4,-1.4894304E-3,-7.740177E-6,1.8373184E-3,-1.0814578E-3,-4.220037E-3,4.5933085E-4,-1.0566311E-3,4.6248996E-4,-1.4746301E-3,1.7156171E-3,6.7490106E-4,-2.2481482E-3,1.4106184E-4,1.2984293E-3,-1.3376623E-3,2.0255991E-3,1.3957323E-4,-6.51303E-4,1.4791989E-3,1.5028818E-3,3.2594602E-3,1.0475329E-3,3.3215717E-3,-3.9316717E-4,1.1699855E-3,4.6815278E-4,2.8898837E-3,5.4870145E-3,3.1477597E-3,7.632584E-4,6.397069E-6,2.3484065E-3,7.363975E-4],"split_indices":[29,4,29,29,29,12,28,3,12,6,22,12,26,9,17,0,0,12,1,5,15,28,18,29,24,7,14,0,5,14,19,10,1,0,0,0,4,3,9,29,6,0,28,0,24,8,2,0,0,9,0,3,14,0,1,7,3,0,18,0,0,0,0,0,0,0,0,0,0,0,0,0,0,0,0,0,0,0,0,0,0,0,0,0,0,0,0,0,0,0,0,0,0,0,0,0,0,0,0,0,0,0,0,0,0],"split_type":[0,0,0,0,0,0,0,0,0,0,0,0,0,0,0,0,0,0,0,0,0,0,0,0,0,0,0,0,0,0,0,0,0,0,0,0,0,0,0,0,0,0,0,0,0,0,0,0,0,0,0,0,0,0,0,0,0,0,0,0,0,0,0,0,0,0,0,0,0,0,0,0,0,0,0,0,0,0,0,0,0,0,0,0,0,0,0,0,0,0,0,0,0,0,0,0,0,0,0,0,0,0,0,0,0],"sum_hessian":[9.8E2,4.79E2,5.01E2,7.7E1,4.02E2,2.44E2,2.57E2,9E0,6.8E1,1.99E2,2.03E2,2.24E2,2E1,1.68E2,8.9E1,8E0,1E0,6.4E1,4E0,7E0,1.92E2,1.18E2,8.5E1,2.04E2,2E1,1.2E1,8E0,1.59E2,9E0,7.2E1,1.7E1,4.6E1,1.8E1,1E0,3E0,3E0,4E0,1E1,1.82E2,4.8E1,7E1,1.8E1,6.7E1,6.8E1,1.36E2,1.3E1,7E0,5E0,7E0,5E0,3E0,7.1E1,8.8E1,6E0,3E0,4.7E1,2.5E1,6E0,1.1E1,3.9E1,7E0,4E0,1.4E1,1E0,2E0,2E0,2E0,9E0,1E0,1.76E2,6E0,1.2E1,3.6E1,5.7E1,1.3E1,8E0,1E1,2E1,4.7E1,5.5E1,1.3E1,3.6E1,1E2,8E0,5E0,6E0,1E0,4E0,1E0,1E0,4E0,4.1E1,3E1,8.1E1,7E0,1E0,2E0,2E0,4.5E1,1.1E1,1.4E1,3E0,3E0,9E0,2E0],"tree_param":{"num_deleted":"0","num_feature":"30","num_nodes":"105","size_leaf_vector":"1"}},{"base_weights":[-1.8934812E-5,-3.2822525E-3,4.311579E-3,-7.034081E-3,-1.7507274E-3,3.1817388E-3,6.7696995E-3,-1.4368895E-2,-6.131849E-3,-2.9924992E-3,-2.3857961E-4,-2.2462492E-3,3.4232517E-3,6.136666E-3,1.0437985E-2,-4.6233376E-3,-2.1386594E-3,-5.4670493E-3,-5.0748773E-3,-2.5765507E-3,-8.8991355E-3,6.094072E-3,-5.2836485E-4,2.580782E-4,-6.3047884E-3,9.753402E-3,3.2003934E-3,9.103331E-3,5.4546874E-3,6.6445647E-3,1.3493121E-2,-6.6579008E-3,-4.0490185E-3,-3.5945433E-3,-9.61197E-4,-5.941391E-4,-1.216172E-2,7.857149E-3,-9.371192E-4,-7.0233416E-4,2.8865994E-3,-5.5746734E-4,4.250631E-4,-2.5250048E-3,3.2141805E-4,1.1506655E-2,2.4113457E-3,2.8688689E-3,7.446462E-3,2.4094433E-3,1.0142873E-2,1.5709758E-3,6.098602E-3,6.6843035E-4,2.2410506E-3,4.5594745E-3,1.5050352E-3,-1.8163734E-3,-5.6755035E-3,-3.2345144E-4,-1.823434E-3,-2.0323899E-4,-1.5135055E-3,3.0963513E-4,-1.2137139E-3,-6.4785185E-4,1.01123755E-4,-4.328484E-3,-1.5464433E-3,3.1226033E-3,1.0023997E-3,1.9062746E-4,-5.9595203E-4,1.5556813E-6,-3.3655466E-4,3.2240152E-4,3.919862E-3,1.5825481E-4,9.268508E-4,9.252716E-4,-1.2337089E-3,2.652922E-3,5.3020124E-4,1.4706731E-3,-1.667142E-5,3.183028E-3,4.0010514E-4,-1.1624206E-4,1.6696107E-3,1.6469465E-3,3.313078E-3],"categories":[],"categories_nodes":[],"categories_segments":[],"categories_sizes":[],"default_left":[0,0,0,0,0,0,0,0,0,0,0,0,0,0,0,0,0,0,0,0,0,0,0,0,0,0,0,0,0,0,0,0,0,0,0,0,0,0,0,0,0,0,0,0,0,0,0,0,0,0,0,0,0,0,0,0,0,0,0,0,0,0,0,0,0,0,0,0,0,0,0,0,0,0,0,0,0,0,0,0,0,0,0,0,0,0,0,0,0,0,0],"id":10,"left_children":[1,3,5,7,9,11,13,15,17,19,21,23,25,27,29,-1,-1,31,-1,33,35,37,39,41,43,45,47,49,51,53,55,57,59,61,63,65,67,69,-1,71,-1,73,-1,-1,-1,75,77,79,81,83,85,87,89,-1,-1,-1,-1,-1,-1,-1,-1,-1,-1,-1,-1,-1,-1,-1,-1,-1,-1,-1,-1,-1,-1,-1,-1,-1,-1,-1,-1,-1,-1,-1,-1,-1,-1,-1,-1,-1,-1],"loss_changes":[1.3877489E-2,3.2054554E-3,1.150474E-3,9.839609E-4,7.4850523E-4,3.891699E-4,2.4246937E-4,1.8414576E-5,9.542606E-4,5.1512243E-4,3.3537464E-4,1.3375797E-4,3.623783E-4,1.8301234E-4,1.18953176E-4,0E0,0E0,2.0776642E-4,0E0,3.352951E-4,3.721147E-4,1.5455714E-4,3.1401604E-4,9.2953405E-6,8.690613E-5,8.810585E-5,3.6011706E-4,1.14733004E-4,2.3049372E-4,1.9818195E-5,5.383289E-5,4.3283566E-4,3.9130333E-4,5.297073E-4,5.021967E-4,8.016415E-6,8.4440806E-5,4.5876775E-5,0E0,2.9674335E-4,0E0,1.911123E-6,0E0,0E0,0E0,9.984255E-5,2.2028325E-6,3.93081E-4,1.350703E-4,2.4851584E-5,5.5818353E-5,1.1949868E-4,1.8622703E-4,0E0,0E0,0E0,0E0,0E0,0E0,0E0,0E0,0E0,0E0,0E0,0E0,0E0,0E0,0E0,0E0,0E0,0E0,0E0,0E0,0E0,0E0,0E0,0E0,0E0,0E0,0E0,0E0,0E0,0E0,0E0,0E0,0E0,0E0,0E0,0E0,0E0,0E0],"parents":[2147483647,0,0,1,1,2,2,3,3,4,4,5,5,6,6,7,7,8,8,9,9,10,10,11,11,12,12,13,13,14,14,17,17,19,19,20,20,21,21,22,22,23,23,24,24,25,25,26,26,27,27,28,28,29,29,30,30,31,31,32,32,33,33,34,34,35,35,36,36,37,37,39,39,41,41,45,45,46,46,47,47,48,48,49,49,50,50,51,51,52,52],"right_children":[2,4,6,8,10,12,14,16,18,20,22,24,26,28,30,-1,-1,32,-1,34,36,38,40,42,44,46,48,50,52,54,56,58,60,62,64,66,68,70,-1,72,-1,74,-1,-1,-1,76,78,80,82,84,86,88,90,-1,-1,-1,-1,-1,-1,-1,-1,-1,-1,-1,-1,-1,-1,-1,-1,-1,-1,-1,-1,-1,-1,-1,-1,-1,-1,-1,-1,-1,-1,-1,-1,-1,-1,-1,-1,-1,-1],"split_conditions":[4.3712652E-1,2.559878E-1,5.6932294E-1,6.438911E-2,3.6500797E-1,4.1146487E-1,6.382089E-1,6.4442806E-2,2.7438155E-1,3.6839968E-1,3.310482E-1,3.916285E-1,4.2508313E-1,5.2127075E-1,6.1380446E-1,-4.6233376E-3,-2.1386594E-3,2.0547199E-1,-5.0748773E-3,3.2084975E-1,3.6742634E-1,3.957637E-1,5.3980863E-1,3.7898704E-1,4.1494143E-1,5.1114124E-1,6.12163E-1,5.0894976E-1,5.763392E-1,5.54295E-1,5.558798E-1,2.4674892E-1,2.2844833E-1,2.7968377E-1,3.6133343E-1,3.1285903E-1,4.7524115E-1,3.6068633E-1,-9.371192E-4,3.6893904E-1,2.8865994E-3,3.4265703E-1,4.250631E-4,-2.5250048E-3,3.2141805E-4,3.1111476E-1,5.1996523E-1,6.046665E-1,6.382089E-1,5.0561047E-1,5.5238247E-1,6.409993E-1,6.409993E-1,6.6843035E-4,2.2410506E-3,4.5594745E-3,1.5050352E-3,-1.8163734E-3,-5.6755035E-3,-3.2345144E-4,-1.823434E-3,-2.0323899E-4,-1.5135055E-3,3.0963513E-4,-1.2137139E-3,-6.4785185E-4,1.01123755E-4,-4.328484E-3,-1.5464433E-3,3.1226033E-3,1.0023997E-3,1.9062746E-4,-5.9595203E-4,1.5556813E-6,-3.3655466E-4,3.2240152E-4,3.919862E-3,1.5825481E-4,9.268508E-4,9.252716E-4,-1.2337089E-3,2.652922E-3,5.3020124E-4,1.4706731E-3,-1.667142E-5,3.183028E-3,4.0010514E-4,-1.1624206E-4,1.6696107E-3,1.6469465E-3,3.313078E-3],"split_indices":[28,24,28,12,25,21,29,13,19,24,20,14,23,16,15,0,0,14,0,24,4,0,9,4,0,5,8,23,23,0,0,22,9,24,27,0,0,24,0,7,0,0,0,0,0,0,0,14,17,1,1,6,9,0,0,0,0,0,0,0,0,0,0,0,0,0,0,0,0,0,0,0,0,0,0,0,0,0,0,0,0,0,0,0,0,0,0,0,0,0,0],"split_type":[0,0,0,0,0,0,0,0,0,0,0,0,0,0,0,0,0,0,0,0,0,0,0,0,0,0,0,0,0,0,0,0,0,0,0,0,0,0,0,0,0,0,0,0,0,0,0,0,0,0,0,0,0,0,0,0,0,0,0,0,0,0,0,0,0,0,0,0,0,0,0,0,0,0,0,0,0,0,0,0,0,0,0,0,0,0,0,0,0,0,0],"sum_hessian":[9.8E2,5.59E2,4.21E2,1.61E2,3.98E2,2.9E2,1.31E2,1.6E1,1.45E2,2.18E2,1.8E2,1.2E1,2.78E2,1.14E2,1.7E1,1.3E1,3E0,1.38E2,7E0,2.05E2,1.3E1,7E0,1.73E2,8E0,4E0,8E0,2.7E2,1.9E1,9.5E1,9E0,8E0,7.3E1,6.5E1,1.25E2,8E1,4E0,9E0,6E0,1E0,1.71E2,2E0,5E0,3E0,3E0,1E0,6E0,2E0,2.52E2,1.8E1,3E0,1.6E1,1.4E1,8.1E1,2E0,7E0,6E0,2E0,7.1E1,2E0,2.7E1,3.8E1,4.2E1,8.3E1,4.9E1,3.1E1,1E0,3E0,6E0,3E0,3E0,3E0,8.4E1,8.7E1,3E0,2E0,1E0,5E0,1E0,1E0,2.45E2,7E0,1.4E1,4E0,1E0,2E0,1.5E1,1E0,1E1,4E0,7.4E1,7E0],"tree_param":{"num_deleted":"0","num_feature":"30","num_nodes":"91","size_leaf_vector":"1"}},{"base_weights":[-1.1449325E-5,-2.5544988E-3,2.9100222E-3,-7.970166E-3,-1.9676494E-3,1.7853221E-3,4.481125E-3,-8.359632E-3,3.1435044E-4,-3.3347784E-3,-9.350686E-4,1.3420341E-3,4.278513E-3,1.2239252E-2,4.205288E-3,-8.815907E-3,-1.0225661E-3,4.5746523E-3,-3.5975624E-3,1.9870014E-3,-1.3468481E-3,4.4290028E-3,7.996924E-4,4.019428E-3,2.8930572E-3,4.7384263E-3,1.02565E-3,6.141861E-4,4.711345E-3,-4.162898E-3,-7.860336E-3,-4.092589E-4,3.486872E-7,5.8867163E-3,-4.946597E-4,-1.2621775E-2,-3.3940014E-3,5.6948164E-4,3.028416E-3,-6.2452415E-3,-1.0603901E-3,4.396907E-5,7.1414537E-3,-5.2600624E-3,1.1194671E-3,-8.1270933E-4,5.022956E-3,-2.3513436E-3,2.5502602E-3,4.2947945E-3,7.8051453E-3,-1.4019664E-3,-2.9139484E-3,-2.2749604E-5,2.1283177E-3,-4.540402E-3,-7.624627E-4,6.5368734E-4,-1.0839286E-3,-1.2860459E-3,4.444448E-4,-2.9989525E-3,-4.805395E-4,-2.140098E-4,-1.2321983E-3,-3.54255E-4,1.4785767E-3,2.9915993E-3,-4.7907088E-4,3.5052717E-4,-2.9221373E-3,-2.0443567E-3,3.9903764E-4,5.659754E-4,-2.4097771E-3,2.3243488E-3,5.6385103E-4,5.584956E-4,-1.0911897E-3,1.1716508E-3,-1.2517631E-3,1.3455363E-3,-2.5858582E-4,1.2005491E-3,2.8119953E-3],"categories":[],"categories_nodes":[],"categories_segments":[],"categories_sizes":[],"default_left":[0,0,0,0,0,0,0,0,0,0,0,0,0,0,0,0,0,0,0,0,0,0,0,0,0,0,0,0,0,0,0,0,0,0,0,0,0,0,0,0,0,0,0,0,0,0,0,0,0,0,0,0,0,0,0,0,0,0,0,0,0,0,0,0,0,0,0,0,0,0,0,0,0,0,0,0,0,0,0,0,0,0,0,0,0],"id":11,"left_children":[1,3,5,7,9,11,13,15,-1,17,19,21,23,25,27,29,31,33,35,37,39,41,43,-1,45,-1,-1,47,49,-1,51,-1,-1,53,-1,55,57,59,-1,61,63,65,67,69,71,73,75,77,79,81,83,-1,-1,-1,-1,-1,-1,-1,-1,-1,-1,-1,-1,-1,-1,-1,-1,-1,-1,-1,-1,-1,-1,-1,-1,-1,-1,-1,-1,-1,-1,-1,-1,-1,-1],"loss_changes":[7.295721E-3,1.6528631E-3,7.995283E-4,1.8788176E-4,6.674257E-4,2.9045215E-4,3.5512657E-4,1.550233E-4,0E0,4.4046598E-4,3.299598E-4,3.7984812E-4,4.6662957E-4,1.3416639E-4,3.3330708E-4,1.13364775E-4,1.4005323E-6,6.686596E-5,3.2088347E-4,3.850083E-4,3.2873853E-4,4.040884E-4,3.8568862E-4,0E0,2.8822687E-4,0E0,0E0,1.4379219E-4,1.7525163E-4,0E0,1.9672001E-4,0E0,0E0,4.374294E-5,0E0,6.285694E-5,2.4596788E-4,1.392194E-4,0E0,2.1043199E-4,2.3709089E-4,8.957878E-5,5.3534436E-4,2.994025E-4,3.2160865E-4,2.8799425E-4,1.8244464E-4,6.0948623E-5,1.5296132E-4,1.461783E-4,6.9846166E-5,0E0,0E0,0E0,0E0,0E0,0E0,0E0,0E0,0E0,0E0,0E0,0E0,0E0,0E0,0E0,0E0,0E0,0E0,0E0,0E0,0E0,0E0,0E0,0E0,0E0,0E0,0E0,0E0,0E0,0E0,0E0,0E0,0E0,0E0],"parents":[2147483647,0,0,1,1,2,2,3,3,4,4,5,5,6,6,7,7,9,9,10,10,11,11,12,12,13,13,14,14,15,15,16,16,17,17,18,18,19,19,20,20,21,21,22,22,24,24,27,27,28,28,30,30,33,33,35,35,36,36,37,37,39,39,40,40,41,41,42,42,43,43,44,44,45,45,46,46,47,47,48,48,49,49,50,50],"right_children":[2,4,6,8,10,12,14,16,-1,18,20,22,24,26,28,30,32,34,36,38,40,42,44,-1,46,-1,-1,48,50,-1,52,-1,-1,54,-1,56,58,60,-1,62,64,66,68,70,72,74,76,78,80,82,84,-1,-1,-1,-1,-1,-1,-1,-1,-1,-1,-1,-1,-1,-1,-1,-1,-1,-1,-1,-1,-1,-1,-1,-1,-1,-1,-1,-1,-1,-1,-1,-1,-1,-1],"split_conditions":[4.1081297E-1,1.860278E-1,5.3795576E-1,1.9603845E-1,3.0184424E-1,5.410707E-1,4.5191425E-1,2.4611658E-1,3.1435044E-4,1.5662676E-1,2.839442E-1,3.964176E-1,5.073061E-1,4.943646E-1,5.457596E-1,7.495772E-2,1.9681664E-1,2.4756469E-1,8.3731286E-2,3.6105186E-1,2.8710023E-1,4.0578142E-1,4.0612742E-1,4.019428E-3,5.461539E-1,4.7384263E-3,1.02565E-3,5.5057913E-1,6.382089E-1,-4.162898E-3,9.290683E-2,-4.092589E-4,3.486872E-7,7.538636E-2,-4.946597E-4,8.730776E-2,9.934968E-2,2.4331354E-1,3.028416E-3,2.9843873E-1,4.2934692E-1,4.2808795E-1,4.386573E-1,4.0884298E-1,3.870902E-1,5.48173E-1,5.746407E-1,5.315624E-1,6.3498044E-1,6.4782244E-1,6.12163E-1,-1.4019664E-3,-2.9139484E-3,-2.2749604E-5,2.1283177E-3,-4.540402E-3,-7.624627E-4,6.5368734E-4,-1.0839286E-3,-1.2860459E-3,4.444448E-4,-2.9989525E-3,-4.805395E-4,-2.140098E-4,-1.2321983E-3,-3.54255E-4,1.4785767E-3,2.9915993E-3,-4.7907088E-4,3.5052717E-4,-2.9221373E-3,-2.0443567E-3,3.9903764E-4,5.659754E-4,-2.4097771E-3,2.3243488E-3,5.6385103E-4,5.584956E-4,-1.0911897E-3,1.1716508E-3,-1.2517631E-3,1.3455363E-3,-2.5858582E-4,1.2005491E-3,2.8119953E-3],"split_indices":[20,25,27,26,29,12,10,6,0,14,9,8,15,21,29,28,0,0,1,26,7,17,7,0,17,0,0,2,29,0,24,0,0,11,0,0,2,0,0,13,2,19,15,8,25,0,15,26,1,0,13,0,0,0,0,0,0,0,0,0,0,0,0,0,0,0,0,0,0,0,0,0,0,0,0,0,0,0,0,0,0,0,0,0,0],"split_type":[0,0,0,0,0,0,0,0,0,0,0,0,0,0,0,0,0,0,0,0,0,0,0,0,0,0,0,0,0,0,0,0,0,0,0,0,0,0,0,0,0,0,0,0,0,0,0,0,0,0,0,0,0,0,0,0,0,0,0,0,0,0,0,0,0,0,0,0,0,0,0,0,0,0,0,0,0,0,0,0,0,0,0,0,0],"sum_hessian":[9.8E2,5.24E2,4.56E2,5E1,4.74E2,2.67E2,1.89E2,4.8E1,2E0,2.03E2,2.71E2,2.28E2,3.9E1,5E0,1.84E2,4.5E1,3E0,6E0,1.97E2,3.3E1,2.38E2,3.3E1,1.95E2,4E0,3.5E1,3E0,2E0,2.3E1,1.61E2,5E0,4E1,2E0,1E0,5E0,1E0,3E0,1.94E2,2.9E1,4E0,1.2E1,2.26E2,1.3E1,2E1,9E0,1.86E2,1.3E1,2.2E1,9E0,1.4E1,1.44E2,1.7E1,1.6E1,2.4E1,1E0,4E0,2E0,1E0,7E0,1.87E2,4E0,2.5E1,6E0,6E0,2.04E2,2.2E1,1.1E1,2E0,1.5E1,5E0,4E0,5E0,4E0,1.82E2,1E1,3E0,1.1E1,1.1E1,2E0,7E0,1.2E1,2E0,1.39E2,5E0,6E0,1.1E1],"tree_param":{"num_deleted":"0","num_feature":"30","num_nodes":"85","size_leaf_vector":"1"}},{"base_weights":[-8.723209E-6,-2.3468388E-3,1.6393387E-3,-5.023784E-3,-1.6223401E-3,2.3966277E-4,2.704414E-3,-4.215956E-3,-8.877188E-3,-1.359692E-3,-6.889715E-3,5.6573474E-3,-5.7268167E-5,2.2901644E-3,4.5096567E-3,-8.220039E-3,-2.9477917E-3,-2.594893E-3,-1.207903E-2,-1.5279322E-3,4.380703E-3,1.2085587E-4,-8.652429E-3,1.9542165E-3,9.651964E-3,-2.733144E-4,7.1113026E-3,3.972366E-3,1.5912014E-3,6.323537E-3,1.3167391E-3,-3.3978086E-3,-6.3931174E-3,-2.3945621E-3,-3.6323222E-3,4.3855608E-4,-4.221257E-3,-3.9184378E-3,-6.32941E-4,-1.8814079E-3,5.0905015E-4,7.6860883E-3,-5.0176535E-4,2.8621854E-4,-3.5681427E-4,-9.72201E-3,4.6694578E-4,6.807156E-3,-6.9569354E-4,3.2008179E-3,6.8472326E-4,6.292156E-5,-3.6546816E-3,3.1606706E-3,-2.898723E-4,3.4784635E-3,6.300429E-3,-1.4936943E-3,2.1982356E-3,-1.7563999E-4,6.52609E-3,-5.2334863E-4,4.2372476E-3,-8.6772564E-4,-2.998559E-3,-2.912729E-4,-1.5801057E-3,-7.180497E-5,2.6915522E-4,-1.4597818E-3,-3.4308137E-4,-3.181183E-4,-1.053288E-3,1.7440194E-3,-3.517725E-4,2.6889988E-3,1.949832E-4,-3.2301557E-3,-1.0037452E-3,8.6161797E-4,2.7918667E-3,-1.4982698E-3,1.0139989E-4,-1.9249526E-3,-3.1458065E-4,1.8946325E-3,6.2239065E-4,-1.4463107E-3,7.7960856E-4,-1.8305451E-3,7.187101E-4,2.5654736E-3,1.4764131E-3,-6.846214E-4,7.485241E-4,-7.6169375E-4,1.6204946E-3],"categories":[],"categories_nodes":[],"categories_segments":[],"categories_sizes":[],"default_left":[0,0,0,0,0,0,0,0,0,0,0,0,0,0,0,0,0,0,0,0,0,0,0,0,0,0,0,0,0,0,0,0,0,0,0,0,0,0,0,0,0,0,0,0,0,0,0,0,0,0,0,0,0,0,0,0,0,0,0,0,0,0,0,0,0,0,0,0,0,0,0,0,0,0,0,0,0,0,0,0,0,0,0,0,0,0,0,0,0,0,0,0,0,0,0,0,0],"id":12,"left_children":[1,3,5,7,9,11,13,15,17,19,21,23,25,27,29,31,33,35,37,39,41,43,45,47,49,51,53,55,57,59,61,-1,63,65,-1,67,69,-1,-1,71,73,75,-1,-1,-1,77,-1,79,-1,-1,-1,81,83,-1,-1,85,-1,87,89,-1,91,93,95,-1,-1,-1,-1,-1,-1,-1,-1,-1,-1,-1,-1,-1,-1,-1,-1,-1,-1,-1,-1,-1,-1,-1,-1,-1,-1,-1,-1,-1,-1,-1,-1,-1,-1],"loss_changes":[3.7839927E-3,7.792639E-4,8.5803005E-4,2.3028255E-4,4.347246E-4,4.0249352E-4,2.342097E-4,3.4645095E-4,2.50265E-4,3.0318357E-4,1.8641021E-4,1.7344157E-4,3.7054435E-4,3.087927E-4,3.3916766E-4,2.4056295E-5,2.5985797E-4,3.1452204E-5,6.0589286E-5,2.1624478E-4,1.9293043E-4,5.5015307E-6,1.4616334E-4,1.8168609E-4,2.0636071E-5,2.639994E-4,2.0379745E-4,5.829815E-4,3.6095717E-4,5.699962E-5,1.258194E-4,0E0,1.3501698E-4,2.1980208E-4,0E0,1.1474608E-6,2.371722E-6,0E0,0E0,3.3743738E-4,4.0821327E-4,4.809539E-5,0E0,0E0,0E0,3.7281658E-5,0E0,1.2608245E-5,0E0,0E0,0E0,2.9660386E-4,1.4441999E-4,0E0,0E0,2.9356027E-4,0E0,4.482652E-4,2.7685298E-4,0E0,7.8176614E-5,8.532263E-5,8.472687E-5,0E0,0E0,0E0,0E0,0E0,0E0,0E0,0E0,0E0,0E0,0E0,0E0,0E0,0E0,0E0,0E0,0E0,0E0,0E0,0E0,0E0,0E0,0E0,0E0,0E0,0E0,0E0,0E0,0E0,0E0,0E0,0E0,0E0,0E0],"parents":[2147483647,0,0,1,1,2,2,3,3,4,4,5,5,6,6,7,7,8,8,9,9,10,10,11,11,12,12,13,13,14,14,15,15,16,16,17,17,18,18,19,19,20,20,21,21,22,22,23,23,24,24,25,25,26,26,27,27,28,28,29,29,30,30,32,32,33,33,35,35,36,36,39,39,40,40,41,41,45,45,47,47,51,51,52,52,55,55,57,57,58,58,60,60,61,61,62,62],"right_children":[2,4,6,8,10,12,14,16,18,20,22,24,26,28,30,32,34,36,38,40,42,44,46,48,50,52,54,56,58,60,62,-1,64,66,-1,68,70,-1,-1,72,74,76,-1,-1,-1,78,-1,80,-1,-1,-1,82,84,-1,-1,86,-1,88,90,-1,92,94,96,-1,-1,-1,-1,-1,-1,-1,-1,-1,-1,-1,-1,-1,-1,-1,-1,-1,-1,-1,-1,-1,-1,-1,-1,-1,-1,-1,-1,-1,-1,-1,-1,-1,-1],"split_conditions":[3.7277454E-1,1.9344857E-1,4.9092445E-1,2.2576147E-1,3.8239035E-1,3.7665245E-1,6.12163E-1,6.438911E-2,1.6545318E-1,4.5242512E-1,3.7720427E-1,3.812365E-1,5.3980863E-1,5.017727E-1,6.1380446E-1,7.495772E-2,2.4919128E-1,1.8131779E-1,2.5151065E-1,3.555619E-1,4.7838163E-1,3.759934E-1,4.2630887E-1,3.6364496E-1,3.6441123E-1,5.077993E-1,5.081022E-1,5.315624E-1,5.147746E-1,4.9022627E-1,6.4373535E-1,-3.3978086E-3,4.7350854E-2,1.7589639E-1,-3.6323222E-3,1.5942565E-1,1.9280441E-1,-3.9184378E-3,-6.32941E-4,2.9843873E-1,3.3803892E-1,4.829592E-1,-5.0176535E-4,2.8621854E-4,-3.5681427E-4,4.573391E-1,4.6694578E-4,3.8259673E-1,-6.9569354E-4,3.2008179E-3,6.8472326E-4,3.3073938E-1,4.9015749E-1,3.1606706E-3,-2.898723E-4,5.089388E-1,6.300429E-3,5.2631754E-1,4.9015749E-1,-1.7563999E-4,5.5854195E-1,6.2670296E-1,6.0853034E-1,-8.6772564E-4,-2.998559E-3,-2.912729E-4,-1.5801057E-3,-7.180497E-5,2.6915522E-4,-1.4597818E-3,-3.4308137E-4,-3.181183E-4,-1.053288E-3,1.7440194E-3,-3.517725E-4,2.6889988E-3,1.949832E-4,-3.2301557E-3,-1.0037452E-3,8.6161797E-4,2.7918667E-3,-1.4982698E-3,1.0139989E-4,-1.9249526E-3,-3.1458065E-4,1.8946325E-3,6.2239065E-4,-1.4463107E-3,7.7960856E-4,-1.8305451E-3,7.187101E-4,2.5654736E-3,1.4764131E-3,-6.846214E-4,7.485241E-4,-7.6169375E-4,1.6204946E-3],"split_indices":[25,1,27,16,23,25,21,12,1,1,0,23,9,11,7,28,22,5,13,25,1,0,14,19,3,18,1,14,11,2,23,0,8,0,0,0,4,0,0,17,18,0,0,0,0,12,0,0,0,0,0,15,23,0,0,26,0,27,8,0,2,8,8,0,0,0,0,0,0,0,0,0,0,0,0,0,0,0,0,0,0,0,0,0,0,0,0,0,0,0,0,0,0,0,0,0,0],"split_type":[0,0,0,0,0,0,0,0,0,0,0,0,0,0,0,0,0,0,0,0,0,0,0,0,0,0,0,0,0,0,0,0,0,0,0,0,0,0,0,0,0,0,0,0,0,0,0,0,0,0,0,0,0,0,0,0,0,0,0,0,0,0,0,0,0,0,0,0,0,0,0,0,0,0,0,0,0,0,0,0,0,0,0,0,0,0,0,0,0,0,0,0,0,0,0,0,0],"sum_hessian":[9.8E2,4.05E2,5.75E2,8.5E1,3.2E2,2.49E2,3.26E2,7.2E1,1.3E1,3.06E2,1.4E1,1.2E1,2.37E2,2.67E2,5.9E1,1.6E1,5.6E1,5E0,8E0,2.98E2,8E0,3E0,1.1E1,7E0,5E0,2.31E2,6E0,7.7E1,1.9E2,3.7E1,2.2E1,4E0,1.2E1,5.4E1,2E0,2E0,3E0,7E0,1E0,2.54E2,4.4E1,5E0,3E0,2E0,1E0,1E1,1E0,3E0,4E0,4E0,1E0,2.11E2,2E1,4E0,2E0,7.6E1,1E0,3.1E1,1.59E2,1E0,3.6E1,1.4E1,8E0,7E0,5E0,3.7E1,1.7E1,1E0,1E0,2E0,1E0,1.7E2,8.4E1,1E1,3.4E1,4E0,1E0,8E0,2E0,2E0,1E0,1E1,2.01E2,9E0,1.1E1,2.4E1,5.2E1,1.7E1,1.4E1,3E0,1.56E2,1.4E1,2.2E1,9E0,5E0,1E0,7E0],"tree_param":{"num_deleted":"0","num_feature":"30","num_nodes":"97","size_leaf_vector":"1"}},{"base_weights":[-8.607266E-6,-1.7574412E-3,1.1682207E-3,-4.7416314E-3,-1.3407787E-3,2.5841317E-4,1.9915255E-3,-5.3016003E-3,-1.2790877E-3,-1.1096478E-3,-4.282603E-3,3.1048795E-3,-8.283146E-5,1.6992211E-2,1.7382526E-3,-4.3353243E-3,-1.0215655E-2,1.3702557E-3,-2.76682E-3,-1.7385742E-3,5.1978556E-4,3.3107002E-3,-6.346464E-3,4.361563E-3,-3.120005E-4,-3.8275511E-3,7.0220136E-5,5.8509978E-3,1.0421635E-3,-6.0817124E-3,1.8627911E-3,-5.027382E-3,7.373952E-4,-3.7691484E-3,2.2878127E-4,-6.103367E-5,-9.4804243E-4,-1.1978926E-3,-4.3309326E-3,1.1398498E-4,7.476759E-3,-1.12742186E-4,2.031517E-3,-7.947809E-3,-2.237137E-3,2.3258824E-3,7.633269E-3,-1.2364143E-3,3.55978E-3,2.549958E-3,-3.0720647E-4,-6.1534345E-4,-2.4255128E-3,4.6136524E-3,1.6068697E-3,-1.6621373E-3,2.3258106E-5,-5.604347E-4,2.857032E-4,-1.3043616E-4,-1.7955544E-3,1.1214915E-3,-1.0563984E-4,2.8583072E-3,-1.0904521E-4,4.2551907E-4,-3.2877625E-4,-6.718107E-4,-2.7903235E-3,-9.031654E-4,3.605023E-4,1.5769583E-3,2.3469816E-4,2.4731194E-3,5.04005E-4,4.461877E-4,1.7774598E-3,2.940914E-4,1.680044E-3,-1.3263002E-3,6.817805E-5,8.9510606E-4,4.6716514E-3,-1.2988395E-4,7.152494E-4],"categories":[],"categories_nodes":[],"categories_segments":[],"categories_sizes":[],"default_left":[0,0,0,0,0,0,0,0,0,0,0,0,0,0,0,0,0,0,0,0,0,0,0,0,0,0,0,0,0,0,0,0,0,0,0,0,0,0,0,0,0,0,0,0,0,0,0,0,0,0,0,0,0,0,0,0,0,0,0,0,0,0,0,0,0,0,0,0,0,0,0,0,0,0,0,0,0,0,0,0,0,0,0,0,0],"id":13,"left_children":[1,3,5,7,9,11,13,15,17,19,21,23,25,27,29,31,33,-1,35,37,39,41,43,45,47,-1,49,-1,-1,51,53,55,-1,-1,-1,-1,-1,57,59,61,63,65,-1,67,69,71,73,-1,75,77,79,-1,-1,81,83,-1,-1,-1,-1,-1,-1,-1,-1,-1,-1,-1,-1,-1,-1,-1,-1,-1,-1,-1,-1,-1,-1,-1,-1,-1,-1,-1,-1,-1,-1],"loss_changes":[2.0210263E-3,4.8478588E-4,4.3917703E-4,8.6286804E-5,2.3186917E-4,2.7223275E-4,1.1406377E-3,1.5039335E-4,8.2222985E-5,3.3293682E-4,4.1279927E-4,1.3017896E-4,4.8784388E-4,1.0197819E-4,3.0739064E-4,1.8160621E-4,1.6425434E-4,0E0,6.4146916E-6,3.2279594E-4,2.560539E-4,7.185514E-5,1.1382863E-4,1.2876917E-4,1.4741298E-4,0E0,2.338272E-4,0E0,0E0,2.378918E-5,2.037877E-4,8.6863176E-5,0E0,0E0,0E0,0E0,0E0,2.8280105E-4,2.5520544E-4,1.4829068E-4,8.386216E-5,7.575983E-6,0E0,8.732226E-5,2.2235079E-5,6.374188E-5,1.5224301E-5,0E0,1.5696045E-5,1.525055E-4,4.7811947E-4,0E0,0E0,4.0008768E-4,4.3864094E-4,0E0,0E0,0E0,0E0,0E0,0E0,0E0,0E0,0E0,0E0,0E0,0E0,0E0,0E0,0E0,0E0,0E0,0E0,0E0,0E0,0E0,0E0,0E0,0E0,0E0,0E0,0E0,0E0,0E0,0E0],"parents":[2147483647,0,0,1,1,2,2,3,3,4,4,5,5,6,6,7,7,8,8,9,9,10,10,11,11,12,12,13,13,14,14,15,15,16,16,18,18,19,19,20,20,21,21,22,22,23,23,24,24,26,26,29,29,30,30,31,31,37,37,38,38,39,39,40,40,41,41,43,43,44,44,45,45,46,46,48,48,49,49,50,50,53,53,54,54],"right_children":[2,4,6,8,10,12,14,16,18,20,22,24,26,28,30,32,34,-1,36,38,40,42,44,46,48,-1,50,-1,-1,52,54,56,-1,-1,-1,-1,-1,58,60,62,64,66,-1,68,70,72,74,-1,76,78,80,-1,-1,82,84,-1,-1,-1,-1,-1,-1,-1,-1,-1,-1,-1,-1,-1,-1,-1,-1,-1,-1,-1,-1,-1,-1,-1,-1,-1,-1,-1,-1,-1,-1],"split_conditions":[3.6701512E-1,1.860278E-1,5.0045276E-1,1.9473672E-1,3.8276014E-1,3.43582E-1,5.01663E-1,1.8131779E-1,1.6282637E-1,3.396739E-1,3.2133797E-1,3.957637E-1,3.2584044E-1,5.682852E-1,3.7361854E-1,1.6854286E-1,2.4919128E-1,1.3702557E-3,1.8233752E-1,2.9843873E-1,3.8247612E-1,3.1285903E-1,3.5818893E-1,3.757739E-1,3.6068633E-1,-3.8275511E-3,3.7590772E-1,5.8509978E-3,1.0421635E-3,3.6527914E-1,4.951238E-1,1.7589639E-1,7.373952E-4,-3.7691484E-3,2.2878127E-4,-6.103367E-5,-9.4804243E-4,2.7772015E-1,2.8622833E-1,2.632158E-1,3.6477938E-1,2.5645566E-1,2.031517E-3,3.812365E-1,4.0136978E-1,3.2942086E-1,3.4733072E-1,-1.2364143E-3,3.3676943E-1,4.0929288E-1,3.7104762E-1,-6.1534345E-4,-2.4255128E-3,5.2127075E-1,5.259591E-1,-1.6621373E-3,2.3258106E-5,-5.604347E-4,2.857032E-4,-1.3043616E-4,-1.7955544E-3,1.1214915E-3,-1.0563984E-4,2.8583072E-3,-1.0904521E-4,4.2551907E-4,-3.2877625E-4,-6.718107E-4,-2.7903235E-3,-9.031654E-4,3.605023E-4,1.5769583E-3,2.3469816E-4,2.4731194E-3,5.04005E-4,4.461877E-4,1.7774598E-3,2.940914E-4,1.680044E-3,-1.3263002E-3,6.817805E-5,8.9510606E-4,4.6716514E-3,-1.2988395E-4,7.152494E-4],"split_indices":[16,28,25,25,24,6,25,27,26,29,10,23,5,1,1,27,15,0,6,17,21,11,15,28,12,0,18,0,0,1,20,26,0,0,0,0,0,22,23,8,0,0,0,23,9,8,5,0,4,6,24,0,0,16,29,0,0,0,0,0,0,0,0,0,0,0,0,0,0,0,0,0,0,0,0,0,0,0,0,0,0,0,0,0,0],"split_type":[0,0,0,0,0,0,0,0,0,0,0,0,0,0,0,0,0,0,0,0,0,0,0,0,0,0,0,0,0,0,0,0,0,0,0,0,0,0,0,0,0,0,0,0,0,0,0,0,0,0,0,0,0,0,0,0,0,0,0,0,0,0,0,0,0,0,0,0,0,0,0,0,0,0,0,0,0,0,0,0,0,0,0,0,0],"sum_hessian":[9.8E2,3.94E2,5.86E2,4.7E1,3.47E2,2.79E2,3.07E2,4E1,7E0,3.23E2,2.4E1,2.9E1,2.5E2,4E0,3.03E2,3.5E1,5E0,1E0,6E0,2.33E2,9E1,5E0,1.9E1,2.1E1,8E0,2E0,2.48E2,3E0,1E0,4E0,2.99E2,3.2E1,3E0,4E0,1E0,1E0,5E0,1.94E2,3.9E1,8.6E1,4E0,3E0,2E0,1.3E1,6E0,1.4E1,7E0,4E0,4E0,3.2E1,2.16E2,2E0,2E0,2.4E1,2.75E2,2.9E1,3E0,1.48E2,4.6E1,1.2E1,2.7E1,9E0,7.7E1,3E0,1E0,1E0,2E0,3E0,1E1,5E0,1E0,4E0,1E1,6E0,1E0,3E0,1E0,2.2E1,1E1,2.4E1,1.92E2,2.2E1,2E0,7.6E1,1.99E2],"tree_param":{"num_deleted":"0","num_feature":"30","num_nodes":"85","size_leaf_vector":"1"}},{"base_weights":[2.4081855E-6,-1.3230963E-3,8.3910144E-4,-2.3427259E-3,-6.5527164E-4,2.5226618E-4,1.5996805E-3,-1.9668941E-3,-9.7394455E-3,6.418735E-3,-9.049894E-4,6.0104224E-4,-2.3144134E-3,8.210386E-3,1.4126702E-3,-2.487452E-3,1.2005375E-3,-3.7358592E-3,-1.3773502E-3,8.491333E-3,-1.213418E-3,-6.369958E-4,-3.9366386E-3,3.617707E-4,5.480268E-3,-4.919474E-3,1.5902384E-4,-5.559281E-4,3.0589446E-3,-4.6104705E-3,1.5756675E-3,-1.9777936E-3,-9.630274E-3,-2.6151482E-3,3.295177E-3,1.0574461E-3,2.9318924E-3,-1.0418395E-3,2.3519397E-3,-2.1531327E-4,-5.779358E-3,5.641715E-4,-3.6398002E-3,2.9419113E-3,4.142082E-3,-1.4203519E-3,-7.653269E-3,-3.6557748E-3,2.6000354E-3,-2.0399832E-3,-3.8051384E-4,6.487921E-3,1.407463E-3,-6.389703E-4,2.3500018E-3,-4.4978858E-4,-3.1732973E-3,2.654344E-5,-1.059331E-3,1.6501435E-3,4.376536E-4,-1.6150475E-4,-1.2607094E-3,1.4141805E-3,-3.248326E-4,-6.601662E-4,3.056681E-4,2.5387408E-4,-2.1567312E-3,1.1366339E-4,1.7995586E-3,6.1283296E-4,-1.8351326E-3,1.9335867E-3,-1.4437693E-4,-9.868206E-4,6.616719E-4,-8.3988317E-4,-2.5262376E-3,3.3205212E-4,-2.3061705E-3,1.8016994E-4,2.91937E-3,2.1417695E-3,2.89312E-4,3.6124096E-4,1.394188E-3],"categories":[],"categories_nodes":[],"categories_segments":[],"categories_sizes":[],"default_left":[0,0,0,0,0,0,0,0,0,0,0,0,0,0,0,0,0,0,0,0,0,0,0,0,0,0,0,0,0,0,0,0,0,0,0,0,0,0,0,0,0,0,0,0,0,0,0,0,0,0,0,0,0,0,0,0,0,0,0,0,0,0,0,0,0,0,0,0,0,0,0,0,0,0,0,0,0,0,0,0,0,0,0,0,0,0,0],"id":14,"left_children":[1,3,5,7,9,11,13,15,17,19,21,23,25,27,29,31,33,-1,-1,35,-1,37,39,41,43,45,47,-1,-1,49,51,53,55,57,59,-1,-1,61,63,65,67,69,71,73,-1,75,77,79,81,-1,-1,83,85,-1,-1,-1,-1,-1,-1,-1,-1,-1,-1,-1,-1,-1,-1,-1,-1,-1,-1,-1,-1,-1,-1,-1,-1,-1,-1,-1,-1,-1,-1,-1,-1,-1,-1],"loss_changes":[1.0890792E-3,2.572197E-4,2.6828988E-4,3.9783173E-4,4.1387157E-4,3.0665306E-4,3.1230412E-4,2.4041801E-4,4.0612824E-5,2.0783753E-4,1.7948399E-4,3.4942286E-4,2.649639E-4,1.5880424E-4,2.58594E-4,4.3236278E-4,1.7645957E-4,0E0,0E0,1.0109041E-5,0E0,2.5293103E-4,1.2218807E-4,2.3531077E-4,2.5528605E-4,1.804473E-4,2.1436844E-4,0E0,0E0,4.259702E-5,1.9743422E-4,1.9128888E-4,4.576618E-5,2.0123633E-5,4.8670947E-5,0E0,0E0,2.8894443E-4,2.0792363E-4,1.9393516E-5,1.1816877E-4,2.7463894E-4,2.095808E-4,1.470136E-4,0E0,7.502535E-5,1.7403334E-5,1.8131119E-4,1.9377626E-4,0E0,0E0,2.1895481E-5,1.5447868E-4,0E0,0E0,0E0,0E0,0E0,0E0,0E0,0E0,0E0,0E0,0E0,0E0,0E0,0E0,0E0,0E0,0E0,0E0,0E0,0E0,0E0,0E0,0E0,0E0,0E0,0E0,0E0,0E0,0E0,0E0,0E0,0E0,0E0,0E0],"parents":[2147483647,0,0,1,1,2,2,3,3,4,4,5,5,6,6,7,7,8,8,9,9,10,10,11,11,12,12,13,13,14,14,15,15,16,16,19,19,21,21,22,22,23,23,24,24,25,25,26,26,29,29,30,30,31,31,32,32,33,33,34,34,37,37,38,38,39,39,40,40,41,41,42,42,43,43,45,45,46,46,47,47,48,48,51,51,52,52],"right_children":[2,4,6,8,10,12,14,16,18,20,22,24,26,28,30,32,34,-1,-1,36,-1,38,40,42,44,46,48,-1,-1,50,52,54,56,58,60,-1,-1,62,64,66,68,70,72,74,-1,76,78,80,82,-1,-1,84,86,-1,-1,-1,-1,-1,-1,-1,-1,-1,-1,-1,-1,-1,-1,-1,-1,-1,-1,-1,-1,-1,-1,-1,-1,-1,-1,-1,-1,-1,-1,-1,-1,-1,-1],"split_conditions":[3.6500797E-1,2.5192633E-1,5.117314E-1,2.953642E-1,2.3306637E-1,5.076731E-1,4.971059E-1,2.4919128E-1,2.8106028E-1,2.512979E-1,3.6537904E-1,5.204692E-1,5.217967E-1,4.217864E-1,4.6715212E-1,2.7422005E-1,2.2263257E-1,-3.7358592E-3,-1.3773502E-3,2.0160729E-1,-1.213418E-3,4.0548915E-1,3.6742634E-1,5.2218604E-1,5.222086E-1,5.062665E-1,5.106603E-1,-5.559281E-4,3.0589446E-3,4.5242512E-1,4.31399E-1,2.937462E-1,2.4756469E-1,2.2780211E-1,2.3351002E-1,1.0574461E-3,2.9318924E-3,3.7898704E-1,4.240885E-1,3.4420615E-1,3.664E-1,5.27523E-1,4.543846E-1,5.081022E-1,4.142082E-3,5.235782E-1,5.0653136E-1,5.146477E-1,5.2658945E-1,-2.0399832E-3,-3.8051384E-4,4.5214555E-1,6.409993E-1,-6.389703E-4,2.3500018E-3,-4.4978858E-4,-3.1732973E-3,2.654344E-5,-1.059331E-3,1.6501435E-3,4.376536E-4,-1.6150475E-4,-1.2607094E-3,1.4141805E-3,-3.248326E-4,-6.601662E-4,3.056681E-4,2.5387408E-4,-2.1567312E-3,1.1366339E-4,1.7995586E-3,6.1283296E-4,-1.8351326E-3,1.9335867E-3,-1.4437693E-4,-9.868206E-4,6.616719E-4,-8.3988317E-4,-2.5262376E-3,3.3205212E-4,-2.3061705E-3,1.8016994E-4,2.91937E-3,2.1417695E-3,2.89312E-4,3.6124096E-4,1.394188E-3],"split_indices":[25,26,20,15,21,17,22,15,19,12,24,14,13,0,29,6,28,0,0,0,0,0,4,9,26,4,18,0,0,9,4,2,0,12,22,0,0,8,2,18,23,27,25,15,0,16,0,23,24,0,0,8,6,0,0,0,0,0,0,0,0,0,0,0,0,0,0,0,0,0,0,0,0,0,0,0,0,0,0,0,0,0,0,0,0,0,0],"split_type":[0,0,0,0,0,0,0,0,0,0,0,0,0,0,0,0,0,0,0,0,0,0,0,0,0,0,0,0,0,0,0,0,0,0,0,0,0,0,0,0,0,0,0,0,0,0,0,0,0,0,0,0,0,0,0,0,0,0,0,0,0,0,0,0,0,0,0,0,0,0,0,0,0,0,0,0,0,0,0,0,0,0,0,0,0,0,0],"sum_hessian":[9.8E2,3.79E2,6.01E2,1.49E2,2.3E2,3.4E2,2.61E2,1.43E2,6E0,7E0,2.23E2,3E2,4E1,6E0,2.55E2,1.23E2,2E1,3E0,3E0,6E0,1E0,2.06E2,1.7E1,2.87E2,1.3E1,1.9E1,2.1E1,1E0,5E0,6E0,2.49E2,1.16E2,7E0,7E0,1.3E1,2E0,4E0,1.82E2,2.4E1,6E0,1.1E1,2.74E2,1.3E1,1.1E1,2E0,9E0,1E1,8E0,1.3E1,3E0,3E0,7E0,2.42E2,1.15E2,1E0,1E0,6E0,2E0,5E0,5E0,8E0,1.58E2,2.4E1,1.4E1,1E1,2E0,4E0,2E0,9E0,2.66E2,8E0,4E0,9E0,5E0,6E0,6E0,3E0,2E0,8E0,4E0,4E0,1.1E1,2E0,6E0,1E0,2.29E2,1.3E1],"tree_param":{"num_deleted":"0","num_feature":"30","num_nodes":"87","size_leaf_vector":"1"}},{"base_weights":[4.268461E-6,-1.221577E-3,5.230259E-4,-9.938937E-4,-5.3598704E-3,-3.5088342E-5,1.0528605E-3,-2.5292826E-3,-5.1347323E-4,-8.707553E-3,-1.3422035E-3,2.982195E-4,-2.5173544E-3,2.3509264E-3,4.8856257E-4,-1.4879423E-3,-9.893008E-3,4.633214E-5,-1.7610145E-3,-1.0931231E-3,-3.3051271E-3,7.2190317E-4,-1.2217802E-3,1.719249E-4,9.537891E-3,-4.0461565E-3,6.1086036E-4,-9.012205E-4,2.932636E-3,-5.2569546E-3,6.772579E-4,-3.3694927E-3,2.0491239E-4,-3.2826543E-3,-3.8231985E-4,-7.903656E-4,2.6713465E-3,-5.293172E-3,-6.18357E-4,4.5694955E-4,-2.104845E-3,1.078555E-3,4.104902E-3,-5.4752813E-3,-5.795426E-4,2.8714107E-3,-2.8817754E-3,1.1901967E-3,-2.2278598E-3,2.634802E-3,2.6255473E-3,-4.5977088E-4,-2.1555217E-3,-6.7091705E-3,8.302321E-4,-6.645033E-4,-2.4711317E-3,7.7651796E-4,-7.021029E-4,-4.5913475E-5,-1.5858606E-3,2.445361E-3,5.778515E-4,1.6745209E-4,-2.1870404E-3,-1.260432E-3,3.890268E-4,5.3563665E-5,1.7391416E-3,-9.7045297E-4,1.055786E-3,-1.8370587E-3,6.964803E-6,-9.582317E-4,6.452787E-4,-5.1631185E-4,1.6363427E-3,-2.0724536E-5,-1.2812555E-3,-1.1762977E-5,-1.031826E-3,9.4672036E-4,-6.865392E-4,-5.611316E-4,-2.2353732E-3,1.0970255E-3,1.7436538E-4],"categories":[],"categories_nodes":[],"categories_segments":[],"categories_sizes":[],"default_left":[0,0,0,0,0,0,0,0,0,0,0,0,0,0,0,0,0,0,0,0,0,0,0,0,0,0,0,0,0,0,0,0,0,0,0,0,0,0,0,0,0,0,0,0,0,0,0,0,0,0,0,0,0,0,0,0,0,0,0,0,0,0,0,0,0,0,0,0,0,0,0,0,0,0,0,0,0,0,0,0,0,0,0,0,0,0,0],"id":15,"left_children":[1,3,5,7,9,11,13,15,17,19,21,23,25,27,29,31,33,35,37,-1,-1,-1,-1,39,41,43,45,47,49,51,53,55,57,-1,-1,59,61,63,65,67,69,-1,-1,71,73,75,77,-1,79,81,-1,-1,-1,83,85,-1,-1,-1,-1,-1,-1,-1,-1,-1,-1,-1,-1,-1,-1,-1,-1,-1,-1,-1,-1,-1,-1,-1,-1,-1,-1,-1,-1,-1,-1,-1,-1],"loss_changes":[6.24473E-4,2.6980127E-4,2.0407567E-4,2.0376308E-4,1.9006082E-4,2.7957064E-4,2.58155E-4,4.913773E-4,1.4883661E-4,5.3416938E-5,9.168027E-5,3.461025E-4,1.9376847E-4,2.0506606E-4,2.7243007E-4,1.8861672E-4,5.8394508E-5,3.2717022E-4,2.6310596E-4,0E0,0E0,0E0,0E0,1.923978E-4,4.9339928E-5,1.305909E-4,1.1880866E-4,1.1863825E-4,1.346576E-4,4.6436762E-5,2.77884E-4,1.3910269E-4,2.0018786E-4,0E0,0E0,3.229687E-4,1.3130368E-4,1.9102788E-4,3.5541065E-4,3.8997497E-4,2.2110784E-4,0E0,0E0,6.7865534E-5,7.1121205E-5,1.1615073E-4,2.3147233E-5,0E0,3.698867E-5,2.3291435E-4,0E0,0E0,0E0,4.0163723E-6,1.6468547E-4,0E0,0E0,0E0,0E0,0E0,0E0,0E0,0E0,0E0,0E0,0E0,0E0,0E0,0E0,0E0,0E0,0E0,0E0,0E0,0E0,0E0,0E0,0E0,0E0,0E0,0E0,0E0,0E0,0E0,0E0,0E0,0E0],"parents":[2147483647,0,0,1,1,2,2,3,3,4,4,5,5,6,6,7,7,8,8,9,9,10,10,11,11,12,12,13,13,14,14,15,15,16,16,17,17,18,18,23,23,24,24,25,25,26,26,27,27,28,28,29,29,30,30,31,31,32,32,35,35,36,36,37,37,38,38,39,39,40,40,43,43,44,44,45,45,46,46,48,48,49,49,53,53,54,54],"right_children":[2,4,6,8,10,12,14,16,18,20,22,24,26,28,30,32,34,36,38,-1,-1,-1,-1,40,42,44,46,48,50,52,54,56,58,-1,-1,60,62,64,66,68,70,-1,-1,72,74,76,78,-1,80,82,-1,-1,-1,84,86,-1,-1,-1,-1,-1,-1,-1,-1,-1,-1,-1,-1,-1,-1,-1,-1,-1,-1,-1,-1,-1,-1,-1,-1,-1,-1,-1,-1,-1,-1,-1,-1],"split_conditions":[3.1147778E-1,3.1447208E-1,4.6574554E-1,1.8813458E-1,3.6823675E-1,4.396325E-1,5.1205546E-1,1.9285807E-1,2.7502888E-1,2.945208E-1,3.43582E-1,4.7974774E-1,5.165817E-1,4.3384635E-1,4.2511535E-1,6.670653E-2,2.4566182E-1,2.5537276E-1,2.7156454E-1,-1.0931231E-3,-3.3051271E-3,7.2190317E-4,-1.2217802E-3,4.6356136E-1,4.402283E-1,5.0750965E-1,5.262069E-1,4.7838163E-1,5.6042093E-1,4.8928094E-1,4.7018394E-1,9.577325E-2,1.6800606E-1,-3.2826543E-3,-3.8231985E-4,2.629616E-1,2.3559354E-1,2.6522E-1,2.7156454E-1,4.468647E-1,5.222086E-1,1.078555E-3,4.104902E-3,5.213063E-1,4.6872127E-1,4.2971957E-1,4.4282857E-1,1.1901967E-3,3.4975287E-1,5.315624E-1,2.6255473E-3,-4.5977088E-4,-2.1555217E-3,4.935316E-1,5.071863E-1,-6.645033E-4,-2.4711317E-3,7.7651796E-4,-7.021029E-4,-4.5913475E-5,-1.5858606E-3,2.445361E-3,5.778515E-4,1.6745209E-4,-2.1870404E-3,-1.260432E-3,3.890268E-4,5.3563665E-5,1.7391416E-3,-9.7045297E-4,1.055786E-3,-1.8370587E-3,6.964803E-6,-9.582317E-4,6.452787E-4,-5.1631185E-4,1.6363427E-3,-2.0724536E-5,-1.2812555E-3,-1.1762977E-5,-1.031826E-3,9.4672036E-4,-6.865392E-4,-5.611316E-4,-2.2353732E-3,1.0970255E-3,1.7436538E-4],"split_indices":[5,9,1,12,23,2,4,13,8,6,10,7,14,13,28,3,0,8,5,0,0,0,0,17,1,27,14,1,0,7,0,23,15,0,0,13,5,25,17,17,29,0,0,6,11,0,1,0,29,1,0,0,0,2,7,0,0,0,0,0,0,0,0,0,0,0,0,0,0,0,0,0,0,0,0,0,0,0,0,0,0,0,0,0,0,0,0],"split_type":[0,0,0,0,0,0,0,0,0,0,0,0,0,0,0,0,0,0,0,0,0,0,0,0,0,0,0,0,0,0,0,0,0,0,0,0,0,0,0,0,0,0,0,0,0,0,0,0,0,0,0,0,0,0,0,0,0,0,0,0,0,0,0,0,0,0,0,0,0,0,0,0,0,0,0,0,0,0,0,0,0,0,0,0,0,0,0],"sum_hessian":[9.8E2,2.91E2,6.89E2,2.77E2,1.4E1,3.36E2,3.53E2,6.5E1,2.12E2,7E0,7E0,2.97E2,3.9E1,1.06E2,2.47E2,5.8E1,7E0,1.47E2,6.5E1,3E0,4E0,3E0,4E0,2.94E2,3E0,2.6E1,1.3E1,1.6E1,9E1,7E0,2.4E2,2.7E1,3.1E1,6E0,1E0,1.12E2,3.5E1,1.5E1,5E1,2.62E2,3.2E1,2E0,1E0,1.8E1,8E0,8E0,5E0,3E0,1.3E1,8.7E1,3E0,3E0,4E0,4E0,2.36E2,2.3E1,4E0,1.6E1,1.5E1,9.9E1,1.3E1,3E0,3.2E1,4E0,1.1E1,1.7E1,3.3E1,2.5E2,1.2E1,2.7E1,5E0,1.6E1,2E0,4E0,4E0,3E0,5E0,2E0,3E0,5E0,8E0,7.9E1,8E0,1E0,3E0,1.8E1,2.18E2],"tree_param":{"num_deleted":"0","num_feature":"30","num_nodes":"87","size_leaf_vector":"1"}},{"base_weights":[-6.684515E-6,-9.6131914E-4,3.6840836E-4,-7.891249E-4,-6.652709E-3,3.249978E-3,2.6646396E-4,-5.437697E-4,-3.1718558E-3,-2.5393623E-3,9.045169E-4,-4.610845E-4,4.5126146E-3,-6.3145196E-4,5.9456826E-4,-1.2506428E-3,8.098448E-4,-4.9414877E-3,2.0845532E-3,7.992916E-4,-3.4712031E-3,5.2413344E-3,-1.1813432E-3,1.3086072E-4,-1.9225816E-3,2.685408E-3,4.3625504E-4,-1.5301075E-3,2.7247437E-3,-1.759763E-3,1.9098441E-3,-6.552556E-3,8.800149E-4,9.012777E-4,-4.2942167E-5,-1.3027042E-3,-1.2866558E-4,3.607812E-3,2.2904472E-3,1.8447855E-3,-6.6346524E-4,-6.4405045E-3,-8.3944626E-4,8.667283E-4,7.1454346E-3,-4.292524E-3,5.9221836E-4,-3.177879E-4,-2.6679384E-3,-5.6046696E-4,1.1858951E-3,1.5610705E-4,-1.837342E-3,1.2892154E-3,2.8319395E-4,-1.662448E-4,-2.2298284E-3,9.5644896E-4,-1.2528867E-3,5.7421776E-4,1.3632596E-3,2.5091635E-4,2.4393762E-3,-4.750914E-4,4.6487674E-4,-2.7390558E-3,-1.2691875E-3,2.6874037E-3,-4.104613E-4,1.3649698E-3,-1.3971538E-4,2.6100464E-3,1.8531084E-4,-3.0326843E-4,-2.3695633E-3,1.4999986E-3,1.2884403E-4],"categories":[],"categories_nodes":[],"categories_segments":[],"categories_sizes":[],"default_left":[0,0,0,0,0,0,0,0,0,0,0,0,0,0,0,0,0,0,0,0,0,0,0,0,0,0,0,0,0,0,0,0,0,0,0,0,0,0,0,0,0,0,0,0,0,0,0,0,0,0,0,0,0,0,0,0,0,0,0,0,0,0,0,0,0,0,0,0,0,0,0,0,0,0,0,0,0],"id":16,"left_children":[1,3,5,7,9,11,13,15,17,-1,-1,19,21,23,25,27,29,31,33,-1,35,37,-1,39,41,43,45,47,49,51,53,55,57,-1,-1,-1,-1,59,-1,61,63,65,67,69,71,73,75,-1,-1,-1,-1,-1,-1,-1,-1,-1,-1,-1,-1,-1,-1,-1,-1,-1,-1,-1,-1,-1,-1,-1,-1,-1,-1,-1,-1,-1,-1],"loss_changes":[3.5162733E-4,2.66217E-4,2.0623475E-4,1.5612144E-4,1.6565196E-4,1.1453807E-4,2.0129948E-4,2.3639394E-4,2.4284856E-4,0E0,0E0,7.51029E-5,1.3148325E-4,1.8036834E-4,1.6433226E-4,1.8414785E-4,2.4361906E-4,1.839643E-4,1.4771789E-5,0E0,8.738818E-6,3.892192E-5,0E0,1.591481E-4,3.2735302E-4,2.7770447E-4,3.4622464E-4,5.175052E-4,6.943896E-5,2.6194053E-4,1.3430574E-4,7.507857E-5,7.166818E-5,0E0,0E0,0E0,0E0,1.0334217E-5,0E0,2.2775173E-4,1.6536536E-4,3.864395E-5,3.0236345E-4,1.2971729E-4,9.611383E-5,1.6951971E-4,3.2207862E-4,0E0,0E0,0E0,0E0,0E0,0E0,0E0,0E0,0E0,0E0,0E0,0E0,0E0,0E0,0E0,0E0,0E0,0E0,0E0,0E0,0E0,0E0,0E0,0E0,0E0,0E0,0E0,0E0,0E0,0E0],"parents":[2147483647,0,0,1,1,2,2,3,3,4,4,5,5,6,6,7,7,8,8,11,11,12,12,13,13,14,14,15,15,16,16,17,17,18,18,20,20,21,21,23,23,24,24,25,25,26,26,27,27,28,28,29,29,30,30,31,31,32,32,37,37,39,39,40,40,41,41,42,42,43,43,44,44,45,45,46,46],"right_children":[2,4,6,8,10,12,14,16,18,-1,-1,20,22,24,26,28,30,32,34,-1,36,38,-1,40,42,44,46,48,50,52,54,56,58,-1,-1,-1,-1,60,-1,62,64,66,68,70,72,74,76,-1,-1,-1,-1,-1,-1,-1,-1,-1,-1,-1,-1,-1,-1,-1,-1,-1,-1,-1,-1,-1,-1,-1,-1,-1,-1,-1,-1,-1,-1],"split_conditions":[3.118041E-1,3.4390852E-1,3.2739654E-1,3.009222E-1,3.4019992E-1,2.750814E-1,3.94899E-1,2.5935918E-1,3.235051E-1,-2.5393623E-3,9.045169E-4,2.629616E-1,4.543846E-1,3.7665245E-1,3.523544E-1,3.015676E-1,2.2844833E-1,3.442308E-1,3.8120186E-1,7.992916E-4,2.7438155E-1,3.348214E-1,-1.1813432E-3,3.5818893E-1,3.39582E-1,3.6742634E-1,3.7708408E-1,2.9505932E-1,2.2263257E-1,2.379716E-1,2.478967E-1,2.853294E-1,3.6068633E-1,9.012777E-4,-4.2942167E-5,-1.3027042E-3,-1.2866558E-4,2.929593E-1,2.2904472E-3,3.492956E-1,4.1725862E-1,3.3073938E-1,3.2747996E-1,4.024036E-1,4.1342092E-1,3.8049957E-1,3.8752115E-1,-3.177879E-4,-2.6679384E-3,-5.6046696E-4,1.1858951E-3,1.5610705E-4,-1.837342E-3,1.2892154E-3,2.8319395E-4,-1.662448E-4,-2.2298284E-3,9.5644896E-4,-1.2528867E-3,5.7421776E-4,1.3632596E-3,2.5091635E-4,2.4393762E-3,-4.750914E-4,4.6487674E-4,-2.7390558E-3,-1.2691875E-3,2.6874037E-3,-4.104613E-4,1.3649698E-3,-1.3971538E-4,2.6100464E-3,1.8531084E-4,-3.0326843E-4,-2.3695633E-3,1.4999986E-3,1.2884403E-4],"split_indices":[22,27,21,18,1,9,29,26,19,0,0,6,2,28,3,8,2,7,3,0,0,22,0,7,14,11,15,6,28,13,5,20,1,0,0,0,0,15,0,7,7,15,18,29,15,11,14,0,0,0,0,0,0,0,0,0,0,0,0,0,0,0,0,0,0,0,0,0,0,0,0,0,0,0,0,0,0],"split_type":[0,0,0,0,0,0,0,0,0,0,0,0,0,0,0,0,0,0,0,0,0,0,0,0,0,0,0,0,0,0,0,0,0,0,0,0,0,0,0,0,0,0,0,0,0,0,0,0,0,0,0,0,0,0,0,0,0,0,0,0,0,0,0,0,0,0,0,0,0,0,0,0,0,0,0,0,0],"sum_hessian":[9.8E2,2.76E2,7.04E2,2.69E2,7E0,2.3E1,6.81E2,2.45E2,2.4E1,6E0,1E0,6E0,1.7E1,1.82E2,4.99E2,1.61E2,8.4E1,1.8E1,6E0,3E0,3E0,1.6E1,1E0,1.15E2,6.7E1,3.4E1,4.65E2,1.51E2,1E1,2.5E1,5.9E1,1.4E1,4E0,4E0,2E0,2E0,1E0,1.1E1,5E0,3.6E1,7.9E1,1.2E1,5.5E1,2.5E1,9E0,1.4E1,4.51E2,1.43E2,8E0,2E0,8E0,1.7E1,8E0,1.6E1,4.3E1,2E0,1.2E1,3E0,1E0,5E0,6E0,3.2E1,4E0,5.6E1,2.3E1,4E0,8E0,2E0,5.3E1,6E0,1.9E1,7E0,2E0,8E0,6E0,1.5E1,4.36E2],"tree_param":{"num_deleted":"0","num_feature":"30","num_nodes":"77","size_leaf_vector":"1"}},{"base_weights":[-4.2761776E-6,-3.5269072E-4,6.5659353E-4,-2.8267776E-4,-4.756242E-3,3.7534707E-3,4.7124378E-4,-3.3092534E-4,5.853051E-3,-6.7238263E-3,-1.4438927E-3,9.615516E-3,1.549224E-3,-3.0404744E-3,6.776243E-4,-2.6466014E-4,-4.8738187E-3,6.7985064E-5,2.1609017E-3,-2.2729791E-3,-3.6899597E-4,-9.313822E-5,-6.2880816E-4,7.2149636E-4,3.2450708E-3,-7.6719787E-4,4.306163E-3,1.1131614E-3,-3.945412E-3,2.380157E-3,2.3160296E-4,-5.3573274E-3,-2.1470767E-4,-1.6103805E-3,-1.3813376E-4,3.802002E-4,-1.5295403E-3,6.191433E-6,5.0169774E-3,-1.3150871E-4,5.3293706E-4,3.2006204E-4,-5.038453E-3,3.519002E-3,-6.5105305E-5,-2.183696E-4,2.0084004E-3,-2.488739E-3,-9.331424E-4,-8.40284E-5,8.5344526E-4,-6.794215E-4,6.169081E-5,8.0148655E-4,1.9415378E-3,-3.032327E-4,3.3017993E-4,-6.0638844E-4,-1.888311E-3,6.0854567E-4,2.4704577E-3,1.300252E-3,-6.341285E-4,-1.0737347E-4,1.9498051E-3,8.868479E-4,1.0690533E-4],"categories":[],"categories_nodes":[],"categories_segments":[],"categories_sizes":[],"default_left":[0,0,0,0,0,0,0,0,0,0,0,0,0,0,0,0,0,0,0,0,0,0,0,0,0,0,0,0,0,0,0,0,0,0,0,0,0,0,0,0,0,0,0,0,0,0,0,0,0,0,0,0,0,0,0,0,0,0,0,0,0,0,0,0,0,0,0],"id":17,"left_children":[1,3,5,7,9,11,13,15,17,19,21,23,25,27,29,31,33,-1,-1,-1,-1,-1,-1,-1,-1,35,37,39,41,43,45,47,49,-1,-1,-1,51,-1,53,-1,-1,55,57,59,61,63,65,-1,-1,-1,-1,-1,-1,-1,-1,-1,-1,-1,-1,-1,-1,-1,-1,-1,-1,-1,-1],"loss_changes":[2.261133E-4,1.9689601E-4,1.9281902E-4,1.8962246E-4,5.546474E-5,2.306099E-4,2.347051E-4,1.8836267E-4,3.634482E-5,1.87908E-5,3.0450165E-6,1.7298618E-5,9.9097204E-5,7.204997E-5,2.3029595E-4,1.5708109E-4,1.7154802E-5,0E0,0E0,0E0,0E0,0E0,0E0,0E0,0E0,1.5897525E-5,2.1219952E-5,4.8952065E-6,7.154765E-5,1.7566993E-4,1.9392002E-4,1.3809986E-5,1.2422957E-4,0E0,0E0,0E0,9.395597E-6,0E0,3.1821692E-6,0E0,0E0,5.2675355E-6,3.2748823E-5,2.8554536E-4,1.9842618E-4,1.8418249E-4,7.566807E-5,0E0,0E0,0E0,0E0,0E0,0E0,0E0,0E0,0E0,0E0,0E0,0E0,0E0,0E0,0E0,0E0,0E0,0E0,0E0,0E0],"parents":[2147483647,0,0,1,1,2,2,3,3,4,4,5,5,6,6,7,7,8,8,9,9,10,10,11,11,12,12,13,13,14,14,15,15,16,16,25,25,26,26,27,27,28,28,29,29,30,30,31,31,32,32,36,36,38,38,41,41,42,42,43,43,44,44,45,45,46,46],"right_children":[2,4,6,8,10,12,14,16,18,20,22,24,26,28,30,32,34,-1,-1,-1,-1,-1,-1,-1,-1,36,38,40,42,44,46,48,50,-1,-1,-1,52,-1,54,-1,-1,56,58,60,62,64,66,-1,-1,-1,-1,-1,-1,-1,-1,-1,-1,-1,-1,-1,-1,-1,-1,-1,-1,-1,-1],"split_conditions":[4.7505897E-1,4.8394012E-1,4.6991295E-1,4.9092445E-1,4.573391E-1,4.7001967E-1,4.813243E-1,4.730953E-1,4.5214555E-1,4.9941534E-1,4.8394012E-1,4.289671E-1,5.1179874E-1,4.4432202E-1,5.1571256E-1,7.495772E-2,4.7524115E-1,6.7985064E-5,2.1609017E-3,-2.2729791E-3,-3.6899597E-4,-9.313822E-5,-6.2880816E-4,7.2149636E-4,3.2450708E-3,4.9022627E-1,4.2971957E-1,4.1725862E-1,4.5205927E-1,5.213063E-1,6.1638886E-1,3.6514495E-2,4.7674656E-1,-1.6103805E-3,-1.3813376E-4,3.802002E-4,4.6824488E-1,6.191433E-6,4.9941534E-1,-1.3150871E-4,5.3293706E-4,4.51842E-1,4.813243E-1,5.117314E-1,4.9022627E-1,6.4782244E-1,6.188933E-1,-2.488739E-3,-9.331424E-4,-8.40284E-5,8.5344526E-4,-6.794215E-4,6.169081E-5,8.0148655E-4,1.9415378E-3,-3.032327E-4,3.3017993E-4,-6.0638844E-4,-1.888311E-3,6.0854567E-4,2.4704577E-3,1.300252E-3,-6.341285E-4,-1.0737347E-4,1.9498051E-3,8.868479E-4,1.0690533E-4],"split_indices":[7,5,4,8,12,13,3,8,0,6,6,1,17,0,4,28,0,0,0,0,0,0,0,0,0,17,3,0,3,6,29,12,4,0,0,0,2,0,8,0,0,0,12,6,28,7,19,0,0,0,0,0,0,0,0,0,0,0,0,0,0,0,0,0,0,0,0],"split_type":[0,0,0,0,0,0,0,0,0,0,0,0,0,0,0,0,0,0,0,0,0,0,0,0,0,0,0,0,0,0,0,0,0,0,0,0,0,0,0,0,0,0,0,0,0,0,0,0,0,0,0,0,0,0,0,0,0,0,0,0,0,0,0,0,0,0,0],"sum_hessian":[9.8E2,6.42E2,3.38E2,6.33E2,9E0,1.8E1,3.2E2,6.29E2,4E0,5E0,4E0,4E0,1.4E1,1.7E1,3.03E2,6.21E2,8E0,1E0,3E0,4E0,1E0,2E0,2E0,1E0,3E0,8E0,6E0,3E0,1.4E1,6.2E1,2.41E2,5E0,6.16E2,7E0,1E0,2E0,6E0,1E0,5E0,1E0,2E0,3E0,1.1E1,4.2E1,2E1,1.93E2,4.8E1,1E0,4E0,6.04E2,1.2E1,4E0,2E0,3E0,2E0,1E0,2E0,4E0,7E0,3.3E1,9E0,6E0,1.4E1,1.9E2,3E0,3E1,1.8E1],"tree_param":{"num_deleted":"0","num_feature":"30","num_nodes":"67","size_leaf_vector":"1"}},{"base_weights":[2.571787E-6,-1.0535537E-4,1.6610096E-3,-1.321642E-4,6.0803145E-3,2.8278702E-3,-3.3906492E-4,-2.9614748E-5,-2.5089132E-3,-6.9478154E-4,2.8953138E-3,5.937285E-3,1.8007834E-3,-1.6067784E-3,1.8114647E-3,-1.4189495E-3,1.050408E-4,-5.455427E-3,-3.500814E-4,7.737845E-3,1.7521232E-3,2.7263605E-3,-1.0853484E-3,-2.752331E-3,1.2347937E-3,-1.0804534E-3,3.4374993E-3,-1.0707959E-3,-2.277627E-3,4.2938218E-3,6.2916384E-5,-6.382261E-3,6.882747E-4,1.68648E-3,-1.9031512E-3,2.9582263E-3,6.9840555E-4,-6.869138E-5,7.466436E-4,-1.1399643E-3,4.1580023E-3,-6.844938E-4,-3.0630827E-4,-3.9348006E-4,-3.5877153E-3,-4.9147013E-5,4.8762115E-4,-8.3829765E-4,1.2668372E-4,8.4570056E-5,1.2036718E-3,-3.7592938E-4,1.8629328E-3,-8.024231E-4,2.1187402E-3,-1.0993057E-3,3.59007E-5,-2.2215308E-3,-9.180379E-4,5.170584E-4,-2.0733477E-4,-1.157552E-4,-1.1823624E-3,-4.802585E-5,-7.17932E-4,-4.8487785E-4,1.5106965E-3,1.5510917E-4,-2.5417062E-4,2.0528735E-4,-2.9425026E-4,-1.1486445E-3,-2.850026E-4],"categories":[],"categories_nodes":[],"categories_segments":[],"categories_sizes":[],"default_left":[0,0,0,0,0,0,0,0,0,0,0,0,0,0,0,0,0,0,0,0,0,0,0,0,0,0,0,0,0,0,0,0,0,0,0,0,0,0,0,0,0,0,0,0,0,0,0,0,0,0,0,0,0,0,0,0,0,0,0,0,0,0,0,0,0,0,0,0,0,0,0,0,0],"id":18,"left_children":[1,3,5,7,9,11,13,15,17,-1,-1,19,21,23,25,27,29,31,33,35,37,39,41,43,45,47,49,51,-1,53,55,57,59,-1,61,-1,-1,-1,-1,63,65,-1,67,69,71,-1,-1,-1,-1,-1,-1,-1,-1,-1,-1,-1,-1,-1,-1,-1,-1,-1,-1,-1,-1,-1,-1,-1,-1,-1,-1,-1,-1],"loss_changes":[1.7576465E-4,1.5369945E-4,1.4098731E-4,2.2391754E-4,1.4227425E-4,1.1066653E-4,6.561449E-5,1.6515506E-4,2.3980922E-4,0E0,0E0,5.4263073E-5,8.3099156E-5,5.222612E-5,4.603529E-5,1.5950802E-4,1.4177208E-4,9.5499796E-5,2.2401083E-4,4.5951398E-5,6.4076658E-6,1.3204943E-4,6.7568235E-6,2.026432E-5,2.99785E-6,1.1481949E-5,9.750838E-6,1.0732617E-4,0E0,1.732382E-4,1.6924122E-4,2.4911715E-5,5.4752127E-6,0E0,5.723384E-5,0E0,0E0,0E0,0E0,8.212383E-6,9.4291434E-5,0E0,3.1102438E-6,3.2033095E-6,1.4502002E-6,0E0,0E0,0E0,0E0,0E0,0E0,0E0,0E0,0E0,0E0,0E0,0E0,0E0,0E0,0E0,0E0,0E0,0E0,0E0,0E0,0E0,0E0,0E0,0E0,0E0,0E0,0E0,0E0],"parents":[2147483647,0,0,1,1,2,2,3,3,4,4,5,5,6,6,7,7,8,8,11,11,12,12,13,13,14,14,15,15,16,16,17,17,18,18,19,19,20,20,21,21,22,22,23,23,24,24,25,25,26,26,27,27,29,29,30,30,31,31,32,32,34,34,39,39,40,40,42,42,43,43,44,44],"right_children":[2,4,6,8,10,12,14,16,18,-1,-1,20,22,24,26,28,30,32,34,36,38,40,42,44,46,48,50,52,-1,54,56,58,60,-1,62,-1,-1,-1,-1,64,66,-1,68,70,72,-1,-1,-1,-1,-1,-1,-1,-1,-1,-1,-1,-1,-1,-1,-1,-1,-1,-1,-1,-1,-1,-1,-1,-1,-1,-1,-1,-1],"split_conditions":[6.12163E-1,6.4782244E-1,6.1380446E-1,5.868105E-1,6.233254E-1,6.013833E-1,6.4373535E-1,1.9280441E-1,6.0853034E-1,-6.9478154E-4,2.8953138E-3,6.3410485E-1,6.292349E-1,6.4373535E-1,6.188933E-1,2.4611658E-1,1.7761402E-1,6.4782244E-1,5.7611424E-1,6.4373535E-1,5.915341E-1,6.0853034E-1,5.915341E-1,6.046665E-1,6.12163E-1,6.1107254E-1,5.746407E-1,2.1822624E-1,-2.277627E-3,1.9962229E-1,1.8314274E-1,6.0214543E-1,6.409993E-1,1.68648E-3,6.323786E-1,2.9582263E-3,6.9840555E-4,-6.869138E-5,7.466436E-4,6.1107254E-1,6.12163E-1,-6.844938E-4,5.908488E-1,5.7047683E-1,6.4373535E-1,-4.9147013E-5,4.8762115E-4,-8.3829765E-4,1.2668372E-4,8.4570056E-5,1.2036718E-3,-3.7592938E-4,1.8629328E-3,-8.024231E-4,2.1187402E-3,-1.0993057E-3,3.59007E-5,-2.2215308E-3,-9.180379E-4,5.170584E-4,-2.0733477E-4,-1.157552E-4,-1.1823624E-3,-4.802585E-5,-7.17932E-4,-4.8487785E-4,1.5106965E-3,1.5510917E-4,-2.5417062E-4,2.0528735E-4,-2.9425026E-4,-1.1486445E-3,-2.850026E-4],"split_indices":[21,11,7,15,1,28,23,4,16,0,0,12,19,14,7,14,9,4,18,20,0,18,11,4,0,2,0,8,0,1,15,16,0,0,13,0,0,0,0,19,22,0,5,0,21,0,0,0,0,0,0,0,0,0,0,0,0,0,0,0,0,0,0,0,0,0,0,0,0,0,0,0,0],"split_type":[0,0,0,0,0,0,0,0,0,0,0,0,0,0,0,0,0,0,0,0,0,0,0,0,0,0,0,0,0,0,0,0,0,0,0,0,0,0,0,0,0,0,0,0,0,0,0,0,0,0,0,0,0,0,0,0,0,0,0,0,0,0,0,0,0,0,0,0,0,0,0,0,0],"sum_hessian":[9.8E2,9.21E2,5.9E1,9.18E2,3E0,3.7E1,2.2E1,8.81E2,3.7E1,1E0,2E0,8E0,2.9E1,1.4E1,8E0,7.7E1,8.04E2,1.5E1,2.2E1,5E0,3E0,2.2E1,7E0,1E1,4E0,3E0,5E0,7.4E1,3E0,7E0,7.97E2,1.3E1,2E0,4E0,1.8E1,3E0,2E0,1E0,2E0,6E0,1.6E1,2E0,5E0,3E0,7E0,1E0,3E0,1E0,2E0,1E0,4E0,7.3E1,1E0,2E0,5E0,1.1E1,7.86E2,9E0,4E0,1E0,1E0,1.1E1,7E0,4E0,2E0,2E0,1.4E1,2E0,3E0,1E0,2E0,6E0,1E0],"tree_param":{"num_deleted":"0","num_feature":"30","num_nodes":"73","size_leaf_vector":"1"}},{"base_weights":[4.3726704E-6,-5.671944E-4,1.9957405E-4,-2.2579028E-4,-2.971766E-3,1.2912855E-3,6.926401E-5,-4.773707E-4,1.8486734E-3,-5.092879E-3,3.5691948E-4,-4.110012E-3,1.5621376E-3,-3.838848E-3,1.358066E-4,-2.554173E-4,-3.877867E-3,2.8091543E-3,-2.3629845E-3,-5.136381E-4,-6.6916337E-3,1.5541986E-3,-3.8968178E-4,-9.9805E-5,-1.5774682E-3,5.283954E-3,1.1619224E-3,-6.833176E-4,-1.9063712E-3,-4.097832E-3,1.8197195E-4,-6.754956E-4,2.7510284E-3,-6.903976E-3,-7.3007814E-4,-8.814062E-4,4.0981015E-3,-1.0214747E-4,-8.350455E-4,6.81138E-4,-9.7312784E-4,-7.578911E-3,-9.1198087E-4,-2.9041767E-4,2.5562942E-3,-6.615892E-4,6.899712E-3,-2.122287E-3,1.754539E-3,-9.1485685E-4,8.098185E-4,-2.605319E-4,-1.5647704E-3,-3.0563711E-3,2.3308539E-4,-3.127413E-5,-8.333928E-4,1.4705913E-3,-5.6842045E-4,-5.793706E-4,-2.6722616E-3,2.1042825E-4,-8.6176844E-4,-2.2944064E-6,-5.257845E-4,1.436413E-3,-7.730424E-5,3.091827E-4,-1.07511885E-4,-5.766794E-4,-2.37552E-3,3.7993494E-5,-4.483849E-4,1.0441095E-3,3.6725032E-4,2.4590218E-3,6.218702E-5,3.3073762E-4,-1.0408122E-3,3.1543346E-4,1.4181002E-3,5.084574E-4,-1.3368108E-3,1.1389926E-3,4.7324003E-5],"categories":[],"categories_nodes":[],"categories_segments":[],"categories_sizes":[],"default_left":[0,0,0,0,0,0,0,0,0,0,0,0,0,0,0,0,0,0,0,0,0,0,0,0,0,0,0,0,0,0,0,0,0,0,0,0,0,0,0,0,0,0,0,0,0,0,0,0,0,0,0,0,0,0,0,0,0,0,0,0,0,0,0,0,0,0,0,0,0,0,0,0,0,0,0,0,0,0,0,0,0,0,0,0,0],"id":19,"left_children":[1,3,5,7,9,11,13,15,17,19,21,23,25,27,29,31,33,35,37,39,41,43,-1,-1,-1,45,47,49,-1,51,53,55,57,59,61,63,65,-1,-1,67,-1,69,71,-1,73,-1,75,77,79,-1,-1,-1,-1,81,83,-1,-1,-1,-1,-1,-1,-1,-1,-1,-1,-1,-1,-1,-1,-1,-1,-1,-1,-1,-1,-1,-1,-1,-1,-1,-1,-1,-1,-1,-1],"loss_changes":[1.0956403E-4,2.0456169E-4,1.0404559E-4,1.1569928E-4,2.206938E-4,1.20530705E-4,1.7085794E-4,1.476956E-4,1.03723185E-4,1.3566349E-4,2.7791633E-5,1.5599428E-5,1.0557502E-4,8.298064E-5,1.2680929E-4,2.3676558E-4,1.0926623E-4,9.875084E-5,3.3045399E-6,2.1780748E-5,6.488233E-5,2.269499E-5,0E0,0E0,0E0,9.992163E-5,1.3801677E-4,5.6257013E-5,0E0,2.0745094E-5,1.0648148E-4,1.9668072E-4,2.3912163E-4,4.2576576E-5,2.3483733E-5,4.5539505E-6,4.6312343E-5,0E0,0E0,2.185737E-6,0E0,7.823226E-6,2.004706E-6,0E0,3.1253257E-6,0E0,5.0382398E-5,5.1608986E-5,1.1833514E-4,0E0,0E0,0E0,0E0,7.405362E-5,1.6853951E-4,0E0,0E0,0E0,0E0,0E0,0E0,0E0,0E0,0E0,0E0,0E0,0E0,0E0,0E0,0E0,0E0,0E0,0E0,0E0,0E0,0E0,0E0,0E0,0E0,0E0,0E0,0E0,0E0,0E0,0E0],"parents":[2147483647,0,0,1,1,2,2,3,3,4,4,5,5,6,6,7,7,8,8,9,9,10,10,11,11,12,12,13,13,14,14,15,15,16,16,17,17,18,18,19,19,20,20,21,21,25,25,26,26,27,27,29,29,30,30,31,31,32,32,33,33,34,34,35,35,36,36,39,39,41,41,42,42,44,44,46,46,47,47,48,48,53,53,54,54],"right_children":[2,4,6,8,10,12,14,16,18,20,22,24,26,28,30,32,34,36,38,40,42,44,-1,-1,-1,46,48,50,-1,52,54,56,58,60,62,64,66,-1,-1,68,-1,70,72,-1,74,-1,76,78,80,-1,-1,-1,-1,82,84,-1,-1,-1,-1,-1,-1,-1,-1,-1,-1,-1,-1,-1,-1,-1,-1,-1,-1,-1,-1,-1,-1,-1,-1,-1,-1,-1,-1,-1,-1],"split_conditions":[2.919361E-1,2.866259E-1,3.3856195E-1,2.9473907E-1,3.590901E-1,2.294176E-1,3.4412643E-1,2.911756E-1,3.0340597E-1,2.8710023E-1,2.813022E-1,2.4756469E-1,2.8274697E-1,3.7708408E-1,3.380464E-1,2.5537276E-1,2.4756469E-1,2.3559354E-1,2.567784E-1,2.688761E-1,3.4180707E-1,2.6306915E-1,-3.8968178E-4,-9.9805E-5,-1.5774682E-3,2.6447317E-1,2.9324898E-1,3.4368816E-1,-1.9063712E-3,3.590901E-1,3.1147778E-1,2.3561011E-1,2.6132786E-1,2.2780211E-1,2.9592207E-1,2.2747898E-1,2.8104767E-1,-1.0214747E-4,-8.350455E-4,2.6774704E-1,-9.7312784E-4,2.2957908E-1,2.7438155E-1,-2.9041767E-4,2.7772015E-1,-6.615892E-4,2.777798E-1,2.9564336E-1,3.39582E-1,-9.1485685E-4,8.098185E-4,-2.605319E-4,-1.5647704E-3,3.5130873E-1,3.310482E-1,-3.127413E-5,-8.333928E-4,1.4705913E-3,-5.6842045E-4,-5.793706E-4,-2.6722616E-3,2.1042825E-4,-8.6176844E-4,-2.2944064E-6,-5.257845E-4,1.436413E-3,-7.730424E-5,3.091827E-4,-1.07511885E-4,-5.766794E-4,-2.37552E-3,3.7993494E-5,-4.483849E-4,1.0441095E-3,3.6725032E-4,2.4590218E-3,6.218702E-5,3.3073762E-4,-1.0408122E-3,3.1543346E-4,1.4181002E-3,5.084574E-4,-1.3368108E-3,1.1389926E-3,4.7324003E-5],"split_indices":[5,9,13,16,24,15,13,0,13,11,0,0,2,3,12,0,23,1,1,0,10,3,0,0,0,20,1,7,0,17,5,10,12,8,2,0,6,0,0,0,0,1,0,0,3,0,0,5,14,0,0,0,0,19,8,0,0,0,0,0,0,0,0,0,0,0,0,0,0,0,0,0,0,0,0,0,0,0,0,0,0,0,0,0,0],"split_type":[0,0,0,0,0,0,0,0,0,0,0,0,0,0,0,0,0,0,0,0,0,0,0,0,0,0,0,0,0,0,0,0,0,0,0,0,0,0,0,0,0,0,0,0,0,0,0,0,0,0,0,0,0,0,0,0,0,0,0,0,0,0,0,0,0,0,0,0,0,0,0,0,0,0,0,0,0,0,0,0,0,0,0,0,0],"sum_hessian":[9.8E2,2.49E2,7.31E2,2.19E2,3E1,7.7E1,6.54E2,1.96E2,2.3E1,1.8E1,1.2E1,3E0,7.4E1,1E1,6.44E2,1.85E2,1.1E1,1.9E1,4E0,5E0,1.3E1,7E0,5E0,1E0,2E0,6E0,6.8E1,5E0,5E0,6E0,6.38E2,1.63E2,2.2E1,5E0,6E0,5E0,1.4E1,1E0,3E0,4E0,1E0,1.1E1,2E0,2E0,5E0,1E0,5E0,1E1,5.8E1,3E0,2E0,2E0,4E0,9E0,6.29E2,1.29E2,3.4E1,1.5E1,7E0,2E0,3E0,4E0,2E0,3E0,2E0,1.2E1,2E0,3E0,1E0,1E0,1E1,1E0,1E0,2E0,3E0,4E0,1E0,3E0,7E0,4.8E1,1E1,2E0,7E0,1.2E1,6.17E2],"tree_param":{"num_deleted":"0","num_feature":"30","num_nodes":"85","size_leaf_vector":"1"}},{"base_weights":[-6.774613E-6,-4.5882342E-3,1.667889E-5,-6.934142E-4,-2.0543477E-3,-2.9137733E-5,2.0068614E-3,-1.0681336E-4,1.1536055E-3,6.185097E-3,5.345419E-5,-3.64451E-5,-3.360353E-3,2.4538874E-3,-1.8513003E-4,2.948387E-3,9.959638E-4,-3.054738E-3,1.7439723E-3,-3.8104238E-6,-2.614238E-3,-5.4404465E-3,-4.44644E-4,2.9205612E-4,3.2267326E-3,2.910018E-3,-6.368138E-4,-9.781123E-5,4.6359302E-4,-1.3868212E-4,-1.2706206E-3,6.1353046E-4,1.3661921E-3,-1.6205911E-5,9.930886E-4,4.001856E-4,-1.0919492E-3,-1.9405882E-3,-1.6272665E-4,7.7260734E-4,-5.0262304E-4,-7.6613727E-4,6.4218347E-4,1.1476232E-3,-1.2710095E-4,5.3822998E-5,1.1281252E-3,7.09523E-4,-3.7851336E-4,-4.2155985E-4,4.1731598E-4],"categories":[],"categories_nodes":[],"categories_segments":[],"categories_sizes":[],"default_left":[0,0,0,0,0,0,0,0,0,0,0,0,0,0,0,0,0,0,0,0,0,0,0,0,0,0,0,0,0,0,0,0,0,0,0,0,0,0,0,0,0,0,0,0,0,0,0,0,0,0,0],"id":20,"left_children":[1,3,5,-1,-1,7,9,11,13,15,17,19,21,23,25,-1,27,29,31,33,35,37,39,41,43,45,47,-1,-1,-1,-1,49,-1,-1,